0.133218 0.0276675 -0.785842 -0.318899 0.0345131 -0.206765 0.41758 0.118909 -0.33667 -0.622514 0.391975 -0.216232 0.0159067 0.322792 -0.495478 -0.168271 -0.267671 -0.190997 -0.581101 -0.19904 0.108078 0.028104 0.041175 -0.259697 -0.213631 -0.130783 0.411469 -0.456517 -0.716574 -0.139353 0.607281 0.339978 0.145747 -0.0882189 -0.76379 -0.168315 0.549684 -0.52783 0.4044 0.156543 0.444701 -0.517785 0.239624 0.0946608 0.0351032 -0.373649 -0.418655 -0.491794 -0.507257 -0.284243 0.428443 -0.460713 -0.604457 -0.378286 -0.2178 -0.474692 -0.0385255 -0.791143 0.418233 -0.472708 0.0357225 0.0121654 -0.285981 0.212694 -0.109683 0.480175 -0.244981 -0.522533 -0.280521 -0.311271 0.0674704 -0.22868 -0.0923134 -0.290304 0.239439 0.193341 -0.917892 -0.489102 0.00732509 -0.723825 -0.239463 -0.221455 -0.505167 0.504217 0.524682 -0.18986 -0.391979 0.27823 -0.529061 -0.0954509 0.215865 -0.625717 0.367921 -0.611099 0.202949 0.285085 -0.157382 -0.382152 -0.282249 0.150128 0.146417 0.596759 -0.0164699 -0.145741 0.0238229 -0.364904 -0.909917 0.270773 -0.406858 0.409573 0.0357723 -0.00318275 -0.325278 0.331203 -0.563343 -0.385709 -0.196367 -0.363427 -0.205311 0.454098 0.0530497 0.285962 -0.412362 -0.248352 -0.307672 -0.20406 -0.138359 -0.549731 0.0307995 -0.161959 -0.23732 -0.0463173 0.011726 -0.0542076 -0.317494 0.0911342 -0.134492 -0.101949 0.4349 -0.147365 0.0651182 -0.555893 0.346412 0.214483 -0.190493 -0.151521 -0.199664 -0.0985494 0.600877 0.261566 0.300941 0.288483 -0.509035 -0.00472344 0.209933 -0.118922 0.15221 -0.154448 -0.429139 0.0275196 -0.442193 -0.34367 0.485655 0.277594 0.418527 -0.010792 0.276168 0.332539 -0.505025 0.403154 -0.307562 -0.281582 0.326145 0.270171 -0.125277 0.686435 -0.339904 0.844959 0.077873 0.00848312 0.0678219 0.1658 0.29815 0.213914 -0.429288 -0.0475001 0.16817 0.417252 -0.112252 -0.608585 -0.416552 0.438801 0.220483 0.0147201 0.0183365 -0.101626 -0.429242 -0.157084 -0.363086 0.481509 0.420529 0.368822 -0.242979 0.413737 -0.244035 -0.437512 0.274173 0.237965 0.265941 -0.202729 -0.162333 -0.468289 0.318625 -0.304564 -0.0991724 -0.0200995 0.440509 0.14873 0.457571 0.325786 0.355951 -0.382836 0.515183 0.432416 -0.493805 0.56965 -0.556882 -0.672228 -0.415643 -0.0247239 0.286253 0.114057 0.53677 -0.606967 0.305076 -0.0901107 0.474466 -0.604652 0.428439 -0.146832 -0.124435 -0.0581416 0.0220523 0.124688 0.00716188 -0.040241 -0.513791 0.34744 -0.348286 -0.64297 -0.313637 0.245964 -0.563591 -0.272333 0.625545 0.887962 -0.0542137 0.35912 -0.0803764 0.268263 -0.22767 -0.563052 -0.232723 0.385004 -0.202448 -0.323031 0.555308 -0.49766 0.170392 -0.0634587 -0.701172 -0.670567 0.24874 -0.229619 -0.494587 0.578155 -0.21533 -0.0200189 -0.279081 0.140598 0.292361 0.119741 -0.131868 -0.166391 -0.577025 -0.73829 0.209618 0.298607 -0.0889609 0.315275 0.0882166 0.212526 -0.134026 0.461566 0.289021 0.115289 0.128834 0.437503 -0.522452 0.376901 -0.0221472 -0.105781 -0.108181 -0.289249 0.126615 0.0426713 -0.108205 0.21166 -0.280849 0.159632 -0.407385 -0.0934455 0.381658 -0.438131 0.442273 -0.308564 -0.0600986 -0.228102 0.28186 0.135796 0.163108 0.0369188 -0.351831 -0.405734 -0.273476 0.0670874 -0.4552 0.157832 0.0757545 -0.331612 -0.262372 0.0172178 -0.143584 -0.592502 0.187271 0.151546 -0.438935 -0.0225996 -0.372186 0.342677 0.363093 -0.238488 -0.191226 0.521888 0.156066 -0.0679421 -0.253254 0.391103 -0.307298 0.757559 -0.140286 -1.00451 -0.701649 0.174632 -0.11906 0.308506 -0.58235 -0.601171 0.13413 0.277915 -0.0754438 0.31118 0.547485 0.293402 -0.250217 0.137781 -0.00256945 0.555393 -0.114328 -0.191508 0.0293125 0.141691 0.457648 0.220633 -0.421041 -0.606335 0.086902 0.468584 0.00940295 0.829599 0.42661 -0.244164 0.271445 -0.558078 0.34172 -0.388233 -0.365935 -0.693414 -0.131012 0.599576 0.275756 -0.208979 0.353149 0.438924 0.393204 0.074619 -0.195051 0.122498 -0.106803 -0.0922799 0.24018 -0.259572 0.292158 -0.156429 0.042587 -0.54748 -0.828065 0.0613487 -0.126936 -0.384941 -0.106149 -0.72819 0.776622 -0.0814865 0.182279 -0.404633 0.46268 0.413183 -0.149727 0.196121 -0.556201 0.386965 0.385437 0.105499 0.279192 -0.178658 0.239753 -0.13223 -0.330067 0.280451 0.354692 0.49835 0.0575774 0.503517 0.269143 -0.265117 0.446964 -0.466776 -0.181535 -0.524896 -0.624122 -0.503685 -0.286441 -0.226544 -0.517531 0.086495 -0.520353 -0.111904 -1.00695 -0.148139 -0.449939 -0.0606597 -0.491281 0.621363 -0.363594 -0.00763584 -0.127373 -0.139492 0.704602 -0.040042 0.360172 0.445341 0.258781 -0.498616 0.0618219 -0.098675 0.398845 0.440376 -0.0408061 -0.374413 0.0170821 0.368326 0.193711 -0.337831 -0.124882 -0.38455 -0.283314 -0.14703 0.539349 -0.188519 -0.0963362 0.0517286 0.27556 0.161828 0.554338 -0.313625 -0.122573 0.563479 -0.0982268 -0.263754 -0.3737 0.771863 0.383546 -0.464115 0.0673019 -0.581561 -0.401195 -0.382358 -0.596833 -0.398901 0.433706 0.221558 0.226544 -0.502016 -0.0179123 -0.00969598 0.405392 -0.252463 -0.491382 -0.0332031 0.515518 0.250783 -0.100981 0.537282 0.745616 -0.561531 -0.321284 0.312 0.145797 -0.0426051 -0.36253 0.211015 0.235556 -0.552182 0.075314 -0.164759 -0.430547 -0.139901 -0.129909 -1.00117 0.310245 0.0773545 -0.00034776 0.243592 0.171449 -0.0567835 0.237517 -0.908458 -0.383866 -0.337218 0.430065 -0.324569 -0.653795 -0.706842 -0.305401 -0.495087 0.306008 0.242584 0.163049 -0.359585 0.220488 0.242276 -0.40213 0.624093 0.0212547 0.507116 0.519489 0.389168 0.21145 0.903196 0.22475 -0.104044 -0.526504 0.346727 -0.26199 0.430879 0.80596 -0.965654 -0.284366 -0.0844402 -0.0901901 0.648323 0.127509 0.598174 0.0453572 0.386288 -0.381328 0.151994 -0.5056 0.334268 0.0442165 0.348791 -0.34799 -0.0319512 -0.193676 0.254378 0.0864021 0.23489 -0.257098 -0.492848 -0.328977 -0.456508 -0.322541 -0.385436 0.0493085 -0.325739 -0.545034 -0.298828 -0.358132 0.332893 0.129682 -0.546915 -0.390321 0.190781 -0.416101 0.699935 0.0214985 0.298623 -0.736198 -0.122997 0.297878 -0.571419 -0.247137 0.172899 0.221968 0.554111 0.279477 -0.394619 -0.224194 -0.490022 -0.450731 -0.486129 -0.581211 -0.394203 -0.556533 0.253133 -0.311555 -0.304466 -0.299047 0.0663832 0.269326 -0.319488 0.109851 -0.615314 0.10442 0.277393 0.219299 0.383415 0.0276391 -0.504869 -0.0545376 0.344073 -0.0037649 -0.360695 -0.51316 0.279939 -0.200907 -0.239137 -0.736073 -0.0722849 0.333514 0.0947162 -0.498927 0.509762 -0.3331 0.893556 0.447257 -0.252032 -0.149821 -0.505451 0.575494 0.170365 0.00764441 -0.0570215 -0.213662 -0.488415 -0.299552 0.0348054 -0.11407 0.337382 -0.0605926 0.539714 -0.118779 -0.07951 0.414001 -0.018579 -0.179601 -0.526751 -0.456999 -0.163954 -0.421106 0.359267 0.330781 -0.502016 0.242895 -0.541921 0.345759 0.1446 0.0482588 -0.490498 0.69331 -0.149155 -0.135272 -0.124167 0.0450441 0.273838 -0.262862 -0.744928 -0.619731 0.338177 -0.129401 -0.44216 0.0928554 -0.317802 -0.0623618 -0.0389414 0.142648 -0.260752 -0.491852 -0.575267 0.375414 0.373581 0.292382 -0.128789 -0.345837 -0.43513 0.311585 -0.329835 0.200539 -0.68849 -0.126216 -0.289261 -0.0339569 -0.0375778 -0.417287 -0.354765 0.0202255 0.0474596 -0.106879 0.534924 0.52264 -0.05177 0.199226 -0.412846 -0.120847 0.193768 -0.22333 -0.301696 -0.442702 0.0846819 -0.52143 -0.28618 -0.615963 0.473246 -0.0169122 0.234582 0.458931 -0.308314 -0.351739 0.406808 0.219906 -0.387059 0.262509 -0.501632 0.502301 0.0791629 -0.266619 0.444054 0.533706 -0.362277 -0.453169 -0.175649 -0.211976 -0.184896 -0.0710797 -0.18938 -0.247737 -0.178002 -0.00301859 -0.766537 0.497077 -0.411783 -0.500299 0.174891 -0.198284 0.43665 0.0801427 -0.557672 -0.546708 -0.675342 0.301607 -0.453526 0.41708 0.329705 -0.414948 -0.286397 -0.290735 -0.597623 -0.376486 -0.624135 -0.0963382 -0.0820351 -0.257359 0.114977 -0.435987 -0.397895 0.715392 -0.0199718 0.26452 -0.252667 -0.534135 0.2668 0.119788 -0.333178 0.138799 0.235294 0.063692 0.358124 -0.316312 -0.315403 -0.237499 -0.189428 -0.508488 0.482785 0.0124659 0.159508 0.325054 -0.544399 0.593092 0.259943 -0.597822 0.012003 0.0906558 0.494277 -0.104532 0.0574935 0.182518 0.213156 -0.185246 -0.219468 -0.233684 -0.13502 -0.304412 -0.418153 0.366363 -0.195501 -0.0207834 0.15376 0.00348648 -0.0676825 0.464359 -0.104237 -0.553082 0.408938 -0.234701 -0.141014 0.249681 -0.0460333 -0.517391 -0.243039 -0.580479 -0.0935663 -0.658663 0.65654 -0.544254 -0.438968 0.17323 0.393208 -0.617981 -0.396492 -0.473609 -0.177879 -0.00271687 -0.484275 -0.620086 0.252177 -0.422181 0.671202 -0.316624 -0.306168 -0.433724 0.363409 0.201111 -0.79191 0.144081 -0.00175399 0.197063 -0.459414 -0.550647 -0.342786 -0.343073 0.229053 -0.13969 0.150975 -0.0301815 0.49544 0.22455 -0.333408 -0.290217 0.573628 0.281472 0.308939 0.306308 -0.599775 -0.421386 0.476905 -0.545911 0.422892 -0.350336 0.186507 0.354953 0.140348 0.665959 -0.180408 -0.635224 0.399906 -0.0854777 -0.1368 -0.200743 -0.419549 -0.0069998 0.221779 -0.730533 -0.411979 0.0478828 0.0708847 -0.132533 0.0975056 0.295642 -0.259998 0.454651 -0.318312 0.108049 -0.135365 0.524206 -0.363698 0.383286 0.437735 -0.469642 0.147101 0.416846 -0.0790366 0.298059 -0.127615 0.592848 -0.0303906 0.314103 0.187911 0.0937443 0.446968 -0.0791243 0.238762 0.129087 0.154007 -0.265412 -0.0106577 -0.312646 0.246558 -0.496689 -0.251644 -0.257666 0.134568 -0.244259 0.52047 -0.261971 -0.0289684 0.403963 -0.0457283 -0.312629 0.37268 0.440919 0.363825 -0.0726546 -0.161738 -0.0070243 0.0853896 -0.145425 -0.497623 -0.528806 -0.407303 -0.331084 -0.100288 0.0791314 0.0773271 -0.0279495 -0.13884 -0.497784 -0.608515 -0.293067 -0.277868 0.494572 -0.30613 0.305898 -0.819909 -0.67308 0.110785 -0.462182 0.247451 -0.262231 0.219391 0.236223 -0.223386 0.0342166 -0.140031 0.0320375 0.329158 0.616854 -0.36502 0.190478 0.135845 0.499613 -0.127384 0.227889 0.374409 0.648415 0.427446 -0.275511 0.246441 -0.147906 -0.723476 0.162104 0.352747 0.111001 -0.422298 -0.382984 -0.0185102 0.181176 -0.133684 -0.0728216 -0.616747 -0.595953 0.206149 0.32818 0.126282 -0.453204 -0.384449 0.301781 0.376087 -0.499248 0.131615 -0.387465 -0.0794606 0.646524 -0.461834 -0.383409 -0.457903 -0.374877 0.29029 -0.456076 -0.3409 0.40398 -0.367031 -0.456639 0.253825 -0.507008 -0.0924268 -0.132422 -0.114573 0.46647 -0.336143 -0.708278 0.544602 -0.263995 0.468886 -0.0435874 0.123654 -0.00758169 -0.30974 -0.423987 -0.0927812 -0.152128 -0.342036 0.585289 -0.578443 -0.409549 -0.626094 -0.324804 0.399136 0.188406 -0.513271 -0.452461 0.169422 -0.386336 0.0490102 -0.47885 0.290014 0.509774 -0.478405 0.113638 0.420199 -0.507388 -0.095624 0.427422 0.0023054 -0.473192 -0.783768 0.381888 -0.323648 0.0338902 -0.00403759 0.104936 -0.512229 0.739216 0.128204 0.230016 -0.103959 -0.440533 -0.0453729 0.29966 0.303934 -0.00819923 -0.482154 0.0302544 -0.537641 -0.258226 -0.666162 0.699914 -0.415926 -0.179663 -0.430212 0.244484 0.152758 0.0136982 -0.639615 0.0884891 -0.420528 -0.360383 -0.436411 -0.335591 -0.625009 -0.385524 -0.312731 0.431681 -0.240491 -0.446986 0.488527 -0.0706847 0.0919436 -0.222558 -0.818409 -0.542906 0.128423 -0.437586 -0.691988 -0.528307 0.00848527 -0.365598 -0.575198 0.218901 -0.722118 0.0308466 0.168505 -0.0931223 0.301777 0.554717 0.100313 0.0543983 -0.255634 0.206616 -0.146976 0.393246 0.0719318 -0.534919 0.176628 0.211628 -0.645085 0.0604112 0.315078 0.476275 -0.26056 0.371515 -0.238426 -0.120044 -0.176625 -0.1489 -0.531264 0.175298 -0.305143 0.252994 0.356594 0.226331 -0.650936 0.449223 -0.59838 0.325308 0.160102 0.465645 0.162101 0.121915 -0.082699 -0.395618 0.434811 -0.550108 0.17204 0.501756 0.446154 0.0729807 -0.546758 0.31804 -0.368259 -0.161417 0.239367 0.352571 -0.310299 0.433389 -0.548289 -0.370159 -0.19793 0.764138 0.281391 -0.133675 -0.68848 0.784731 0.567866 0.16341 -0.160754 -0.306061 -0.184889 -0.1127 0.233196 0.372515 -0.103774 -0.626932 -0.590429 0.509616 -0.310048 0.193492 -0.523168 -0.699356 -0.284023 -0.540898 -0.127316 0.309092 0.655963 -0.404019 -0.300812 -0.413213 -0.372169 -0.508367 0.496721 0.239805 0.0934622 -0.0963347 -0.488298 -0.558937 0.288747 0.151705 0.0721756 -0.412317 0.0383401 -0.32767 -0.190441 0.0666417 0.72697 -0.348237 -0.0857837 -0.493581 -0.36213 0.0635327 -0.128724 0.239625 -0.0755794 -0.422218 0.264865 0.165482 0.0681719 0.0705371 -0.487758 -0.098414 0.368754 -0.0759195 0.362699 -0.385959 -0.385385 -0.453514 -0.294875 -0.557429 -0.0439649 -0.171096 -0.114153 -0.090198 0.200272 -0.344395 -0.430518 -0.296081 0.632869 -0.00736467 -0.365754 -0.426155 -0.221814 -0.555455 0.18396 0.535542 0.34131 0.427454 0.0592548 0.205561 -0.00258673 -0.610472 -0.203326 -0.654304 -0.345758 0.202482 -0.0233646 0.625374 -0.215877 0.163006 0.565502 0.429436 0.317865 -0.00284375 0.0987703 -0.48878 0.481732 0.245553 0.061561 -0.40033 0.576368 0.0561494 0.288387 0.15455 -0.684653 0.0322231 0.351017 -0.554179 0.585706 0.0676023 0.340219 -0.576765 -0.216656 0.255869 0.20073 0.125233 -0.471244 0.0106705 0.337971 -0.0953604 -0.297372 -0.222466 0.39849 0.223117 0.434784 -0.579014 0.386938 -0.261758 -0.397181 -0.114938 -0.0357272 0.306101 -0.500923 -0.636139 0.129468 0.311406 -0.237679 0.177921 -0.289638 0.542076 0.336135 -0.465113 0.114776 0.781038 0.152545 -0.511122 -0.16522 -0.183421 0.250597 0.479479 0.280367 0.409573 -0.26751 -0.405593 -0.0163785 -0.462627 0.234161 -0.331677 -0.394247 -0.0415809 -0.397104 -0.333807 0.515275 -0.0186631 0.118905 -0.453516 0.0437791 -0.482774 -0.729595 -0.595654 0.270656 -0.105915 0.646057 0.222836 -0.336697 0.00899475 -0.413299 -0.0644692 -0.0810157 0.27371 0.0154918 0.173728 -0.465136 -0.328296 0.380946 -0.11363 -0.557107 -0.520977 -0.101941 0.584423 -0.395965 -0.421904 -0.493332 0.0523561 0.00852362 -0.201753 0.300501 -0.549102 -0.233917 -0.45991 0.265327 0.601184 -0.0377199 -0.134913 0.366608 -0.0739903 0.446988 0.316674 0.237724 -0.154404 -0.100723 -0.394594 0.577035 -0.767201 -0.184073 -0.540499 -0.556534 -0.344874 -0.104473 0.178755 -0.576467 0.622553 -0.353974 -0.494579 0.473061 -0.192661 -0.685541 -0.0578415 0.131774 -0.14758 -0.933193 -0.240116 0.046505 -0.522495 0.125778 -0.292675 -0.320738 -0.0644333 0.11969 -0.376694 -0.31136 0.183197 -0.0764672 0.251843 0.335116 -0.161778 -0.0313211 0.145036 0.0309755 0.532528 -0.245494 0.31151 -0.382227 0.569895 0.612115 -0.0534015 -0.505607 -0.629528 -0.0965188 0.34488 0.508589 0.504767 0.384849 -0.0350419 0.225817 -0.627196 -0.207294 -0.0170786 0.232033 0.115914 -0.146489 0.365728 -0.122784 0.330919 -0.0482767 -0.234042 -0.695564 -0.33477 -0.452035 -0.359833 0.487757 -0.110943 -0.445379 -0.402057 -0.378519 -0.283404 -0.190671 -0.562731 -0.322856 0.338248 0.140896 0.0523875 0.335951 0.140134 0.234211 -0.372522 -0.118154 -0.784944 -0.438104 -0.348287 0.012223 -0.120794 0.195964 0.352645 -0.219139 -0.342288 -0.309509 -0.54335 0.0640925 0.277645 0.553372 0.269821 0.197112 -0.551669 -0.00466696 -0.16933 0.20544 -0.582967 0.186692 0.232239 -0.436307 -0.132515 -0.559789 -0.169274 -0.311351 0.298017 -0.23044 0.126184 -0.644897 0.502498 0.351062 -0.549789 -0.211985 -0.0673013 0.01082 -0.0190347 0.116068 0.186183 0.0981086 0.188355 0.208027 0.524331 0.351596 0.79412 -0.0610291 -0.681001 0.118801 0.267882 -0.198331 -0.202676 0.302343 0.351927 -0.334424 0.201504 -0.605476 -0.360701 0.253215 -0.283328 0.109671 -0.643412 -0.213289 0.393076 -0.4083 0.488871 0.420184 0.471727 0.339168 0.681455 0.567308 0.203217 0.0801329 0.119935 0.567806 -0.533669 -0.055571 -0.488932 -0.95675 0.322483 -0.609152 0.339382 0.684897 -0.19385 0.399243 0.0166284 0.470963 -0.557866 -0.523457 0.49408 0.51709 0.323727 0.361606 0.613966 0.0417844 0.266771 -0.0571616 -0.258393 -0.816283 -0.381709 0.508118 -0.669724 0.72737 -0.035688 0.359916 -0.517136 0.179662 0.22821 -0.534417 0.143389 -0.157726 -0.0057448 0.134834 -0.6856 -0.25572 -0.129904 -0.544309 -0.731225 -0.692284 0.0533982 -0.159368 -0.34917 0.503199 0.183614 0.0870107 0.307681 -0.136852 -0.658053 0.273503 0.386091 -0.101881 0.063608 0.23135 -0.593383 -0.21092 0.593926 0.119391 -0.343001 0.0184815 -0.720185 -0.506023 -0.0832489 -0.820198 -0.417458 -0.624206 0.294558 -0.294305 0.093446 -0.172687 0.834447 -0.867192 -0.595326 -0.0715868 -0.0678206 -0.0209949 0.580157 -0.239041 0.357585 -0.212038 0.252875 -0.676888 0.2041 0.0658709 -0.155028 0.323291 -0.435197 0.173005 -0.399426 -0.371949 0.392502 -0.425743 -0.15873 0.739813 0.0693951 0.253207 -0.495594 -0.169288 0.209436 -0.00197598 -0.785454 -0.0361729 0.474713 0.467701 -0.440821 -0.399107 -0.96043 -0.512912 -0.0111541 -0.112478 -0.285291 0.240534 -0.286062 -0.49114 -0.663053 0.312918 -0.47111 -0.589586 0.365872 0.165789 -0.113259 0.0396209 -0.248094 0.462304 -0.249256 0.512213 -0.248316 0.242051 0.13905 -0.0536154 -0.419292 0.301471 -0.336619 0.48706 0.42748 0.307221 0.013618 -0.185086 -0.849719 0.378459 -0.29965 -0.615527 0.1195 0.619937 0.0310308 -0.300357 -0.264589 -0.373949 0.128793 0.277638 -0.43921 -0.505923 -0.125413 0.27377 -0.0613735 -0.567762 0.40741 0.378823 -0.0992877 -0.476403 -0.370071 0.274989 -0.241969 -0.0273161 0.320783 -0.172961 -0.423688 -0.327446 -0.173893 0.253547 -0.500407 0.297576 -0.229401 0.11484 0.343105 -0.0885628 -0.407292 0.615741 0.247267 -0.264192 0.0622485 -0.0611224 -0.199778 -0.127526 -0.0620551 -0.266362 -0.591608 0.259002 -0.460685 0.0522106 -0.461685 0.0798912 0.414273 0.283448 -0.121807 0.179904 -0.127949 0.0551705 0.328099 0.0481395 -0.905108 -0.465655 0.134639 -0.717157 -0.304859 -0.484998 -0.382624 -0.445464 -0.208414 -0.352227 0.26213 -0.676649 -0.244411 0.185274 -0.0847801 0.188095 0.562728 -0.273178 -0.200547 0.508125 0.021033 0.0137172 -0.0517954 0.0214157 -0.550536 -0.162667 0.262283 -0.0441086 -0.211071 0.225578 -0.245767 -0.265433 -0.170278 0.59199 -0.551038 -0.411783 -0.472748 0.196594 0.331144 0.265717 -0.265195 0.15163 0.638472 0.34388 -0.168972 0.0537357 -0.108514 0.103082 0.0878618 -0.582726 -0.160112 -0.234371 0.413221 0.232346 -0.62628 -0.0918518 -0.554231 -0.357334 0.364129 -0.240777 -0.360747 -0.147343 0.00592476 0.447872 -0.638327 0.196782 -0.728435 -0.519396 0.121479 -0.181909 -0.340854 0.0576909 0.310386 0.407533 -0.149756 0.326161 -0.319844 -0.130615 -0.345431 -0.22926 -0.409963 0.530873 -0.423228 0.0236221 -0.465257 -0.0197908 0.350438 0.20099 0.0148978 0.205179 0.608697 -0.515856 -0.723097 -0.0852885 -0.0859961 0.0936483 0.54357 0.377836 -0.720187 0.375915 -0.348337 0.109855 -0.173574 0.408903 0.659054 -0.123675 0.321181 -0.448009 -0.247575 0.227519 0.40277 -0.0456419 -0.378468 -0.0589352 0.2258 -0.0304695 -0.0151197 0.160069 0.503604 -0.619748 -0.629932 0.303729 0.0729588 -0.51208 -0.361134 0.0698105 -0.020734 0.0968965 0.08891 0.392373 0.196068 -0.272658 -0.183664 0.356756 0.120851 0.115245 0.418893 0.236165 -0.18679 -0.239369 -0.350667 0.303771 -0.551157 0.468602 0.408352 0.144898 -0.128411 -0.198492 0.157401 -0.397178 0.295908 -0.471779 0.604411 0.254927 0.35885 0.250194 0.317013 0.376804 -0.618301 -0.287382 0.404111 0.221393 0.434485 0.249972 -0.0808613 0.158701 -0.351842 -0.463389 0.152654 -0.259488 -0.340874 -0.423787 -0.295857 -0.401124 -0.374986 -0.0912791 -0.223805 0.0362008 -0.435592 -0.509624 0.125492 0.291126 -0.0847627 -0.320618 0.223334 -0.378586 0.520962 0.336004 0.202011 0.181581 -0.0660638 0.0908798 0.303893 0.277069 -0.27369 -0.0709718 -0.370568 -0.127515 -0.588106 -0.720705 0.0506109 -0.725813 -0.288023 -0.205396 0.272251 -0.596955 -0.246611 -0.336839 0.455204 0.4129 0.0298576 -0.448844 0.0105239 -0.190857 0.67253 0.0508494 -0.417061 0.143928 -0.441533 0.404367 -0.603514 -0.749652 -0.160979 -0.47636 -0.0989889 0.777039 -0.153793 0.034965 -0.526243 0.678738 -0.190296 0.383209 0.219214 0.0115449 0.273617 0.483472 -0.40203 -0.640493 -0.325064 0.557842 0.0461661 0.497596 0.337124 -0.520491 -0.194731 -0.465496 0.275118 0.262606 0.281994 -0.493133 -0.534255 0.312688 0.317453 -0.689549 0.289699 -0.24469 -0.278966 0.0341183 0.382932 0.188182 0.617458 -0.359606 -0.450316 -0.438726 -0.204956 0.0871798 0.441653 -0.356265 -0.0698321 0.402159 -0.523304 0.117842 0.11519 -0.59946 -0.62555 -0.709591 -0.382878 -0.126053 0.247593 0.159894 -0.173681 0.26375 0.823206 -0.357421 0.308188 0.0955385 -0.188435 -0.408668 -0.248659 -0.0289328 0.433629 -0.223059 0.297177 -0.0332352 0.160379 -0.30191 -0.380251 0.0353848 -0.229655 -0.128842 -0.399901 -0.40462 -0.211569 0.302836 -0.496488 -0.872408 0.429806 -0.208112 0.428046 0.24699 -0.394288 -0.129027 -0.487209 -0.224116 -0.164706 -0.431621 -0.053096 -0.0766801 -0.798652 -0.0121017 0.555367 0.00830598 0.393368 -0.0536725 -0.603504 -0.117123 0.134793 -0.309826 0.0313385 0.31333 0.415689 -0.556881 0.138621 -0.399633 0.445926 -0.319537 0.525428 -0.0574905 0.496734 -0.131267 0.483302 -0.443045 -0.330403 -0.820347 -0.286226 0.70754 -0.116203 0.431814 0.458256 0.0460537 0.412676 -0.0966285 -0.296636 -0.219144 0.223071 0.29187 -0.0528282 -0.120973 0.56021 0.54082 -0.402103 -0.200347 -0.48851 0.478229 0.338511 -0.199581 -0.104109 -0.933614 -0.112979 0.0938492 -0.53356 -0.613237 0.0440568 0.0293073 0.294407 0.217061 -0.160514 0.584849 -0.369392 0.0596612 -0.136703 0.493841 0.0808945 0.25673 0.544752 0.252656 -0.308677 0.231629 -0.485875 -0.147414 0.410347 -0.236149 0.121004 -0.0714349 -0.351364 -0.624059 -0.316283 -0.0807234 0.312468 0.158895 -0.557124 -0.871254 -0.194747 -0.314697 0.70158 -0.0260288 -0.260327 -0.461683 0.0159015 0.42388 -0.199126 -0.0045297 -0.170171 -0.369267 0.478944 -0.417166 -0.0552808 0.154904 -0.533382 -0.306588 -0.179187 0.101972 0.285382 -0.280565 -0.416684 -0.479376 -0.0294065 -0.171472 -0.453341 0.216143 0.0780728 0.0936658 0.019161 -0.0367005 -0.302897 0.375564 0.184686 -0.186178 0.23997 0.346635 0.155466 0.639032 -0.274917 -0.340187 0.171301 -0.122837 -0.2464 -0.144367 0.371533 -0.538704 -0.0531899 0.0676774 -0.476312 -0.865699 -0.143163 0.180061 -0.539246 0.120879 0.555383 -0.0818004 0.15934 0.0800727 -0.404701 -0.0469997 -0.0898311 -0.427976 0.291264 0.520248 0.136065 -0.343755 -0.314086 -0.964534 0.16139 0.757769 -0.21029 0.254363 0.110358 0.0972207 0.118674 0.154747 0.550189 0.3805 -0.0551323 -0.403618 -0.32439 0.633412 -0.410625 -0.385024 -0.312873 0.147566 0.410509 -0.178422 -0.402122 -0.179722 -0.425127 0.127325 -0.564365 -0.0259019 -0.290951 -0.0097628 0.447374 -0.613451 -0.565297 0.87342 0.458666 0.214544 -0.265921 0.232973 0.399796 -0.515436 0.0248717 -0.665402 -0.974254 -0.340382 0.0637546 0.0859117 0.133862 -0.367236 0.396034 0.308156 -0.131221 0.038162 -0.326741 -0.65472 0.325357 0.062023 0.0836537 0.742025 0.77644 -0.16366 0.375854 -0.336271 -0.312581 0.00774206 -0.357434 -0.211499 0.312174 0.39125 -0.337062 0.00754121 -0.422697 -0.276131 0.275765 0.231936 -0.454074 -0.181941 0.329607 -0.0218577 0.12195 -0.0463422 -0.512784 -0.668476 0.0901704 -0.0916557 -0.284167 0.244441 0.318753 -0.541332 -0.548693 -0.658054 -0.0675288 0.150335 0.439694 0.0474868 0.352947 -0.224193 -0.466944 -0.284001 -0.432859 0.441081 -0.474037 0.693658 -0.102373 -0.0463332 -0.63348 -0.390531 0.250404 0.366445 -0.450769 -0.362643 0.00309091 -0.50382 0.0494533 -0.671638 0.0965647 -0.510878 -0.737202 0.234464 -0.100607 -0.00071541 0.4637 -0.304797 0.160598 0.590522 0.521676 -0.0431119 0.359504 0.309995 -0.267894 0.384757 0.232617 0.580452 -0.277318 -0.539912 -0.115468 0.571675 -0.608348 0.229997 -0.0525027 0.0555282 0.194843 -0.577335 0.158666 -0.578949 0.193197 -0.216196 0.264122 -0.514698 -0.171458 -0.0120947 0.232741 0.247662 0.427629 -0.198043 0.311334 -0.713331 0.177652 -0.238013 0.885581 0.218616 -0.422737 -0.299451 0.429478 0.474045 -0.689497 0.0912073 -0.272893 -0.265372 0.397653 0.0384558 0.361768 -0.629551 -0.168504 0.310555 0.81868 0.0414304 0.0709433 -0.533387 0.0301022 0.436286 -0.323367 -0.358267 -0.328311 -0.232789 0.402292 0.485749 -0.328395 0.331089 -0.389673 -0.587206 -0.132966 -0.439555 0.478133 -0.0858478 -0.0144716 -0.109112 0.0325655 0.332315 0.54676 0.111124 -0.503862 -0.671621 -0.37325 0.0936703 -0.0181521 -0.350594 -0.626215 -0.510765 -0.345174 -0.378494 -0.727985 -0.636933 -0.391221 0.277651 0.243078 -0.0215907 -0.212881 -0.0721768 -0.454754 0.358815 -0.154994 0.180794 0.278737 -0.398325 0.149443 -0.599391 0.382909 0.0147381 -0.293763 -0.454003 -0.304313 0.381049 -0.561964 -0.0142671 -0.47976 -0.250127 0.612351 -0.0428198 0.292031 0.214541 -0.0310101 -0.11503 -0.510836 -0.0568689 0.455614 0.444035 -0.0733755 -0.575927 -0.0862241 0.34213 -0.478803 -0.619788 -0.222771 0.248702 -0.272181 0.0120334 -0.373345 0.747502 -0.497469 -0.458733 0.796372 0.299208 -0.237698 0.0803981 -0.407417 -0.435494 -0.416691 -0.726464 -0.384125 -0.405557 0.0821709 0.0853513 0.495327 -0.197054 0.326058 0.491354 -0.372954 0.0591016 -0.113595 0.102522 -0.461009 -0.544171 -0.601675 0.00422766 0.371138 -0.426957 -0.183568 0.38884 0.265301 -0.187429 0.29639 -0.0164812 -0.632443 -0.607265 0.208481 0.0585822 0.38874 -0.0238017 -0.68191 -0.306858 0.0727587 -0.203338 -0.304934 -0.568383 -0.523078 -0.608106 -0.171232 -0.232606 0.269435 0.310785 0.158621 -0.241184 -0.591094 0.248167 -0.719891 -0.314662 -0.281823 -0.398499 0.344192 -0.256258 -0.375782 -0.460514 -0.5933 0.220071 -0.108581 -0.287677 0.375587 -0.649446 0.118432 0.195414 0.138033 0.137798 -0.269885 0.205448 -0.389017 0.00925817 0.0859611 -0.255472 0.0693914 0.247923 -0.323261 -0.120405 0.112129 0.126992 -0.642957 -0.620537 0.238917 0.437163 0.267999 0.338813 -0.658091 0.517004 -0.070647 -0.488666 -0.49884 -0.603311 -0.0244803 -0.401767 0.448377 -0.222182 -0.611829 -0.280512 -0.484517 -0.425134 -0.385904 -0.13327 -0.258853 0.0504114 0.649247 -0.38796 -0.0664267 -0.246717 -0.491767 -0.0394966 -0.398187 -0.0183241 -0.25451 -0.188252 -0.478429 -0.0331824 0.167399 -0.145518 -0.468955 -0.623255 0.438325 -0.419123 0.157573 -0.227129 -0.596848 0.297131 0.209857 0.0302271 0.285486 -0.338726 0.38504 -0.237855 -0.377516 -0.106085 0.325359 -0.242424 0.161744 0.326179 -0.350423 0.0640145 0.0324343 0.421471 -0.326949 0.588297 -0.688011 -0.726813 -0.0200446 -0.382591 -0.025278 -0.686661 -0.737077 0.109918 -0.70132 -0.1262 -0.42322 0.546617 0.266538 0.33613 0.317925 -0.456699 0.128642 -0.197439 0.00919395 0.204293 -0.0915126 -0.0356568 0.326455 -0.720759 -0.375402 0.0577988 -0.151189 -0.152881 -0.346671 -0.0902902 0.342009 -0.20274 -0.26279 0.539889 -0.567547 -0.206048 -0.10354 0.162413 -0.472869 -0.145846 0.709342 -0.431741 -0.40868 -0.143462 0.469518 -0.393424 0.180013 0.21386 0.41 0.239642 0.366 -0.124299 0.289236 0.313225 -0.463178 0.254339 0.111709 -0.335528 -0.0922951 -0.440845 -0.268456 -0.511708 0.264907 0.187369 -0.246978 0.57274 -0.688117 0.110709 -0.292594 0.603881 0.171881 -0.498233 0.53232 -0.388656 0.0861227 -0.0422961 0.284459 -0.271311 -0.162692 -0.202827 -0.397532 -0.30193 -0.517133 -0.617973 -0.221786 0.0156976 -0.324022 0.252063 0.326942 -0.658489 -0.837794 -0.128367 -0.214522 -0.327149 -0.33231 0.193138 -0.376156 -0.00434545 -0.304468 -0.342767 0.314067 -0.486591 -0.504734 0.244991 -0.0355264 -0.188613 -0.245008 -0.494541 -0.0697258 -0.0213127 0.79581 -0.591095 0.0686835 -0.404084 -0.0803491 -0.199312 -0.538849 -0.189334 0.261677 0.560262 0.46013 -0.475894 0.446993 -0.0467672 0.441869 0.131911 0.0649981 -0.31433 0.00939509 -0.430258 0.315698 0.287226 -0.451177 0.272855 -0.15702 0.720165 -0.0760646 0.139556 -0.278056 0.103448 -0.124701 -0.0677668 -0.403133 -0.570701 -0.489926 0.59994 -0.106579 0.167994 -0.112178 -0.720314 -0.680861 0.0893213 0.0334704 -0.15235 -0.387643 -0.345667 0.342798 0.0419818 -0.659603 -0.85555 -0.658701 0.061778 -0.0151669 -0.356825 -0.455249 -0.401716 0.437386 -0.278203 0.209115 -0.0402233 0.131502 -0.68253 0.363115 0.316092 0.419447 0.208447 -0.290069 -0.428911 -0.599232 -0.297924 -0.14718 -0.268391 -0.697864 0.156919 0.125984 -0.440321 -0.335578 -0.361797 -0.75938 -0.420643 0.497145 -0.465624 0.204177 0.575168 -0.122292 0.477533 0.0699812 -0.311134 -0.097818 -0.328576 -0.18833 0.197079 -0.153553 0.522645 0.237522 -0.436251 -0.134088 -0.0778876 0.141039 0.330672 0.294187 -0.000737876 0.275835 -0.37537 0.290335 -0.601604 0.33572 0.596339 -0.0595115 0.645017 -0.279474 -0.252873 0.466621 -0.517403 -0.594687 -0.665401 0.191903 0.0380322 -0.303176 0.217565 -0.0258513 -0.413382 -0.459264 0.0875022 -0.247852 -0.582506 -0.522052 -0.559191 -0.712193 -0.644527 -0.151922 -0.395749 -0.690786 -0.383483 -0.0679106 0.43959 0.401631 0.0237167 -0.286179 0.0328275 -0.574775 -0.695085 0.19655 0.168325 -0.319323 0.460061 0.0820145 0.119095 0.427958 -0.67557 0.353959 0.255523 -0.100041 -0.188663 -0.374105 0.458475 0.391217 0.35575 -0.531344 -0.396692 0.192262 -0.674039 -0.576016 -0.559687 -0.556761 0.510698 -0.159706 -0.45612 -0.00764217 0.163758 0.0127519 0.0522639 -0.300356 -0.060808 0.0184907 0.00704221 -0.27363 -0.143614 0.414934 -0.0276998 -0.429724 0.0632174 -0.282893 -0.218679 -0.276914 0.5268 -0.478558 -0.273708 0.0974936 -0.61574 0.469283 -0.721626 0.346125 0.453211 0.155125 0.0732378 0.399238 0.133277 0.650321 -0.155719 -0.279217 0.064407 -0.371075 -0.333956 -0.54662 -0.278887 0.288869 -0.674535 -0.311111 -0.403844 -0.342843 -0.489819 0.639359 -0.110916 -0.22824 -0.126943 0.394133 0.470735 -0.365201 0.0153664 0.0254288 0.311601 -0.0229177 0.122805 -0.135267 -0.427409 -0.449035 -0.600473 -0.119589 -0.169033 0.386846 -0.502873 -0.849739 -0.331817 -0.1824 -0.402177 0.0141242 -0.163523 0.456641 0.439337 -0.729256 -0.619011 0.265582 -0.41277 -0.131274 0.586751 -0.57332 -0.399244 -0.418846 -0.705127 -0.299093 -0.170048 0.0172016 -0.0327055 -0.3018 -0.864297 0.180737 -0.140725 -0.373631 0.273252 -0.290196 0.104861 -0.574715 -0.764002 0.0204498 -0.292616 0.493442 0.147044 -0.184815 -0.438051 0.11261 -0.254217 0.586456 -0.281443 -0.320286 -0.597863 0.258185 -0.383464 -0.479885 -0.0505695 0.263206 -0.588368 0.424354 -0.3317 0.40006 0.114783 0.355717 -0.19479 -0.257727 0.0848729 -0.404205 -0.319847 0.0212009 0.361405 0.399395 0.562291 -0.329495 -0.0510104 0.45121 -0.349432 0.23718 -0.522945 0.45953 -0.36862 -0.413668 0.104241 -0.242571 -0.522459 -0.377108 0.571568 -0.364681 0.415228 -0.215213 -0.270998 0.14684 0.12759 0.15073 -0.225494 0.0639189 -0.206492 0.344257 0.196611 0.239349 -0.114027 0.485502 -0.0566354 -0.010489 -0.342744 0.262564 0.396566 -0.392788 0.0937826 0.127552 0.181552 0.379715 -0.504829 0.0884323 0.370959 0.124405 -0.313114 -0.0865329 -0.159492 -0.545557 -0.355951 -0.174153 0.434245 0.435854 0.569434 -0.582297 0.073315 0.196826 -0.612633 -0.456073 0.204425 0.165716 -0.0974697 0.592631 -0.208025 0.0781174 -0.0436542 -0.543915 -0.10014 -0.256835 -0.0441949 0.220813 -0.562458 0.212314 -0.109268 0.281212 -0.304029 0.106427 -0.105195 0.378531 -0.333055 -0.540819 -0.149993 -0.29751 -0.134065 -0.0958224 -0.480506 0.497958 -0.251679 -0.296002 -0.696097 -0.524874 -0.399803 0.0335397 -0.38086 -0.401445 0.252856 0.120659 -0.38915 -0.356527 0.46815 -0.349396 -0.0362893 0.536231 -3.79688e-05 -0.167525 0.137376 -0.111356 -0.0409835 -0.491903 0.489056 0.0671772 0.62866 0.139595 -0.501336 -0.157558 0.644566 -0.144011 0.177921 0.0403089 0.0875465 0.549773 -0.346488 -0.373729 0.363172 -0.132892 -0.226713 0.417005 0.307038 -0.140563 -0.804601 -0.124493 0.34501 -0.31214 -0.243035 -0.094142 -0.0989375 -0.0510113 -0.509555 0.396865 -0.708264 -0.594412 0.344014 -0.295077 0.74624 -0.162303 -0.401414 0.27215 -0.566244 -0.460298 -0.347059 -0.211073 0.0723093 -0.383877 -0.540178 -0.825141 -0.301608 -0.270506 0.0498076 -0.364265 0.293438 -0.194707 0.47072 -0.672136 -0.376735 0.517833 0.220219 0.185018 0.33051 -0.156517 -0.718884 0.25213 -0.293227 -0.525852 -0.445565 -0.263569 -0.302361 -0.356911 0.407855 -0.211498 0.465829 -0.50845 -0.233798 -0.110629 -0.391948 0.22873 0.129264 0.382984 0.0267956 0.370702 -0.385784 -0.468818 0.330983 -0.13815 0.315736 -0.0807783 -0.0542607 0.272677 -0.872934 0.446443 0.592282 -0.310872 -0.51948 0.301315 0.0743954 0.38205 0.173751 0.0771611 -0.0600453 -0.104333 0.0656369 0.362166 -0.442449 0.488512 0.135247 -0.496909 0.200859 -0.185797 -0.424946 -0.386977 0.154445 0.343698 -0.37163 0.589452 0.0765404 0.149948 -0.479992 -0.333771 -0.246956 0.132965 -0.251236 -0.321621 0.082619 -0.221363 0.595937 -0.407137 -0.0686705 0.406412 -0.548101 -0.630218 0.104588 -0.290879 -0.0512355 -0.9975 0.284348 -0.0564468 -0.376814 -0.410778 -0.557538 -0.571866 0.383531 -0.227392 -0.409409 0.0869185 0.46232 0.491693 -0.204463 -0.0283361 0.0184119 0.122728 0.514684 0.0752427 0.520779 -0.168575 -0.366162 0.479734 -0.169283 -0.272649 -0.605873 0.635234 0.173533 -0.256588 -0.240737 0.336584 -0.701541 -0.298948 -0.294381 -0.351415 0.0151142 -0.552309 -0.469909 -0.0542208 -0.107638 -0.0796145 -0.176757 0.228409 -0.683501 0.407794 -0.168623 -0.191439 -0.468359 0.332479 -0.170757 -0.339077 0.406075 -0.49397 0.264909 0.214552 0.260614 0.297061 -0.0892422 0.267679 -0.42994 0.398106 0.254826 0.305223 -0.453328 -0.0550678 0.0277325 -0.521836 -0.292029 -0.422972 -0.132 -0.363349 -0.287769 -0.531602 -0.0165591 -0.523912 0.357133 0.318746 0.254625 -0.480355 0.372094 -0.693165 -0.356057 -0.45839 0.0175201 0.04709 -0.109928 0.187617 -0.18957 0.208412 -0.266364 -0.209946 -0.531938 -0.559199 0.364826 0.0866141 0.280762 -0.0621523 -0.326532 0.93531 -0.219422 -0.168461 -0.480306 -0.0884792 0.0743342 -0.633949 -0.478098 -0.400478 -0.467427 -0.291838 0.384619 -0.0765148 0.274137 0.00894068 0.829859 -0.29876 -0.0276385 -0.272788 -0.416912 -0.389882 -0.0969343 -0.637689 -0.349598 -0.345195 -0.061962 -0.518493 -0.641084 0.504146 -0.353462 0.126695 0.266986 -0.374669 -0.0355925 0.298627 -0.430519 -0.246021 -0.121514 -0.25004 -0.382707 -0.280223 0.100257 -0.827365 -0.0818267 0.133439 0.216738 0.412894 -0.414049 -0.238549 -0.373187 0.401564 -0.0566781 0.279202 -0.244394 0.176669 0.204157 0.182993 0.00548797 -0.182422 -0.696585 0.0408229 0.308834 -0.405072 0.480169 -0.158547 -0.461406 -0.181743 0.2588 -0.451744 -0.00893278 -0.0825807 0.320708 0.162935 0.432122 -0.621519 0.172077 0.00173248 -0.0374245 0.197578 0.437738 0.184707 -0.294087 0.138746 0.700653 0.223727 -0.174566 -0.537738 -0.093269 -0.434896 0.0676674 0.360148 -0.0573005 -0.47552 -0.479927 0.444033 -0.740144 -0.36449 -0.28131 -0.35942 -0.258932 -0.394816 -0.19282 -0.0486284 -0.418074 0.348711 0.0117844 -0.467286 -0.320093 -0.151735 -0.202766 -0.259894 -0.127657 -0.417527 0.0680064 -0.47671 0.0633441 -0.151899 -0.315055 -0.15206 -0.589537 0.129106 -0.234698 -0.414441 -0.00339003 -0.569257 -0.447483 0.076871 0.513216 -0.452308 0.252728 -0.0800184 0.901662 0.0690866 0.704126 -0.591157 0.0968524 -0.694685 -0.54969 -0.251955 0.167228 -0.338655 0.278952 -0.32881 0.242456 -0.41871 -0.586571 0.350316 0.361208 -0.528245 -0.204388 0.255594 -0.440981 -0.263798 -0.490538 -0.564814 -0.543863 0.328201 0.676693 -0.576947 0.33107 -0.488882 -0.0478412 -0.326938 -0.0352815 -0.591745 -0.39602 -0.36588 -0.285069 0.177978 0.343853 -0.179156 -0.0470509 -0.178997 0.186988 -0.598406 0.177027 -0.16573 -0.00980812 -0.56241 0.641273 -0.343926 -0.470402 -0.0656972 0.0287514 -0.457504 -0.219145 0.443487 -0.479864 0.107021 -0.416431 0.130594 -0.594727 0.274349 -0.183433 -0.288809 -0.328089 0.521152 0.395034 0.0612099 -0.377336 0.391667 -0.593014 -0.185668 0.64846 0.0248867 -0.186254 -0.738523 -0.465407 -0.482177 0.358122 -0.343462 0.562671 -0.843217 0.324509 0.108303 0.0802741 -0.0117737 -0.336697 0.0661637 -0.43113 -0.165063 0.346981 0.340109 0.163046 0.389944 -0.445574 -0.417737 -0.578568 -0.151397 0.0404465 -0.0831579 0.352205 0.0504009 0.696292 -0.157323 -0.0588481 0.581428 0.109252 -0.105854 -0.17295 0.0122538 0.131739 0.431975 0.480303 0.238482 -0.141527 -0.353995 0.376538 -0.394504 0.315361 0.125724 -0.661959 0.161264 0.344557 -0.0220365 -0.238853 0.00685991 0.563671 0.115652 -0.00680403 -0.543769 0.0575681 0.265831 0.284277 0.318618 0.305977 0.736533 0.0118962 0.274486 -0.594855 -0.519138 -0.591353 -0.433546 -0.160647 0.331681 -0.160651 -0.194967 -0.23938 -0.26167 0.384844 -0.239938 -0.45615 -0.0599815 0.312695 -0.475739 0.407677 -0.204282 -0.263572 0.0733966 -0.383325 -0.155591 0.207247 -0.221355 0.740226 -0.545699 -0.239005 -0.0433806 -0.354146 -0.0674725 0.208008 0.476928 -0.066313 0.166084 -0.5636 0.494046 -0.108362 0.188428 -0.407895 -0.0029341 0.0168177 -0.0144459 -0.32163 -0.348043 -0.227467 -0.246994 0.14304 -0.297315 -0.160625 -0.380314 -0.196157 0.540905 -0.760012 0.200972 -0.399528 0.716738 0.163358 -0.0294146 0.056243 0.129052 0.143685 -0.0341241 -0.170838 -0.0526174 0.0629652 0.238479 -0.148118 -0.477457 0.0279521 -0.475441 0.033098 -0.298767 0.117071 -0.763806 0.0154048 -0.430017 0.389826 0.534696 0.189359 0.158501 0.0512915 -0.324106 -0.433674 0.175512 0.349661 0.324819 -0.010006 -0.62089 0.206084 0.0397311 -0.165464 0.431209 -0.2001 0.292871 0.151478 0.470686 -0.488736 -0.255699 -0.210813 -0.206074 0.0226751 -0.825334 0.31839 -0.359682 0.0725948 0.26827 -0.352917 -0.246967 -0.292411 0.141223 -0.575121 0.0353826 -0.174078 -0.0866317 0.0200797 -0.501211 0.251211 -0.589999 -0.155935 0.313536 -0.798947 -0.513781 -0.361816 0.0330526 0.0379238 0.417532 -0.0954809 0.185284 -0.296482 0.274839 -0.282307 0.554756 0.0867484 0.0802861 -0.577234 0.592331 -0.442147 0.295213 0.422083 0.0309905 -0.419198 -0.175932 -0.0416817 0.2064 0.179351 0.301283 0.421486 -0.306514 -0.321564 -0.589676 0.407086 0.289108 0.367913 -0.528679 -0.58087 0.219904 -0.17025 -0.328981 0.00805228 -0.430432 -0.599595 0.435315 -0.182602 0.172753 -0.464155 0.0528503 -0.497318 0.506377 -0.548891 0.0245054 0.345026 -0.23552 -0.291993 -0.0947 -0.468932 -0.0885097 -0.512224 -0.0156921 0.447365 0.472152 -0.17697 -0.447937 -0.424234 -0.355081 -0.451448 0.0157535 -0.389847 -0.375708 -0.234039 -0.569782 0.24698 0.320518 0.139941 0.616292 0.309716 0.213483 -0.114393 0.148731 -0.242183 0.295061 0.101077 0.289015 -0.49771 0.140612 -0.527708 -0.112851 -0.496713 -0.241617 -0.131568 0.128384 -0.123799 0.388181 -0.238591 0.15093 -0.336841 -0.43699 0.457718 0.0898844 0.515484 -0.0336682 -0.11707 0.240521 0.498502 -0.677587 -0.0801202 -0.0266388 -0.125177 -0.295074 -0.426847 -0.50548 -0.546724 0.387666 -0.283748 -0.834813 -0.139506 0.588766 0.13358 -0.29144 0.253593 0.0824914 0.204835 -0.227696 0.404013 -0.414763 0.273085 -0.0972733 0.0019194 0.0342347 -0.249282 0.722014 0.00949095 0.569919 0.537536 -0.355853 -0.372346 0.242067 -0.176315 0.589925 -0.696641 -0.596023 0.273015 -0.0272342 0.294059 -0.549011 -0.0331061 -0.143308 0.327988 0.103829 0.240999 0.192686 0.173876 0.628841 0.208526 0.759749 -0.32512 -1.00988 -0.363598 0.0781088 -0.61744 -0.0740278 -0.717262 0.682446 -0.222902 0.257248 -0.0798085 0.144253 -0.45649 0.596779 -0.496226 0.571918 0.56115 -0.243812 -0.0786526 -0.496139 -0.469706 0.44936 0.117413 -0.535578 0.484404 0.358774 -0.376755 -0.367433 -0.0854876 0.153357 -0.395184 -0.179272 -0.228411 -0.741675 -0.485803 0.191384 0.267768 0.312669 -0.513911 -0.380005 -0.503076 -0.273297 -0.065673 0.265999 0.0672716 0.430344 0.160636 -0.434197 0.327131 -0.012726 -0.145816 -0.33086 0.591216 0.114391 -0.129215 0.431654 0.182212 -0.519237 -0.1042 0.517801 0.314653 -0.321062 -0.461209 0.218824 -0.369907 -0.418144 0.650407 -0.573449 -0.429813 -0.518425 -0.309305 -0.11391 -0.33791 -0.218862 0.291496 0.0734671 -0.133444 0.456311 -0.253652 -0.614475 0.268091 -0.0575449 -0.453 -0.523879 -0.261551 -0.642478 0.0099338 0.126034 -0.559577 0.508879 -0.206158 -0.403963 0.0800813 -0.437059 0.133526 0.156975 0.0723315 -0.247433 0.417036 -0.235208 -0.438352 0.262107 -0.139932 0.0387082 -0.510751 -0.575331 -0.320828 -0.00475529 -0.299359 -0.122514 0.496373 -0.307069 -0.0185748 -0.606571 0.404576 -0.468575 -0.287511 0.104806 -0.197329 -0.199385 -0.584942 -0.268297 0.671324 -0.0888416 -0.294934 0.777718 0.374006 0.362212 -0.0687016 0.00107676 0.183928 0.684878 -0.356358 -0.360037 0.307232 0.454437 -0.622297 0.186597 -0.503521 0.342971 -0.332049 0.0508393 0.280053 0.549332 -0.0572071 0.311609 0.36116 0.410818 0.333129 -0.573847 0.317514 -0.178728 0.439715 0.826456 -0.106615 -0.121671 0.0981533 0.386019 -0.326966 -0.119192 0.594252 0.362595 -0.129327 0.389921 -0.236678 0.111612 0.102107 -0.597194 0.404251 0.362528 0.028473 -0.220004 -0.276902 -0.422481 -0.485408 -0.104349 0.257198 -0.394199 0.0591421 -0.491623 -0.626467 -0.0725179 -0.457583 -0.269231 -0.536639 0.149296 -0.121056 -0.21673 0.0978072 -0.0579585 0.0139196 0.0629257 0.233333 0.312472 -0.185648 0.459818 0.43699 0.369047 0.465485 -0.0342881 -0.0402556 -0.672822 0.271839 -0.283233 -0.348251 -0.122584 0.0967753 -0.254066 -0.230662 -0.483015 0.0349875 0.274172 0.171538 0.311895 0.189043 -0.693625 0.0368165 0.351929 -0.352461 -0.333927 -0.246856 -0.474265 0.271785 -0.0346875 -0.580162 -0.388088 -0.242995 -0.371991 0.366919 0.19667 0.133436 -0.278267 -0.0144023 -0.422776 -0.154424 0.544542 0.265219 -0.049408 0.25653 0.294905 0.222602 0.107439 0.0135165 0.0433974 0.19441 -0.0584338 -0.0858153 -0.471225 -0.228355 0.372515 -0.770292 0.079295 0.391962 -0.382452 0.229485 -0.375544 0.10586 -0.378234 -0.741053 -0.0346127 0.906394 -0.544901 -0.231785 -0.63452 -0.0489414 -0.130485 -0.125923 -0.462492 -0.0269062 -0.445297 -0.383637 0.301223 0.000940424 -0.659646 -0.244004 0.0741547 -0.545573 -0.542383 0.500895 -0.936818 -0.0289249 -0.454089 0.32555 -0.0624104 0.436543 -0.654906 -0.206255 -0.26482 -0.423008 -0.298896 -0.23892 -0.230813 -0.00381389 -0.0907465 -0.171814 -0.545094 -0.252301 -0.0968504 -0.24789 0.447293 0.232502 -0.444009 -0.104343 0.0251594 0.187463 -0.423475 0.613925 0.204022 -0.500227 -0.466141 -0.332828 -0.157723 -0.359959 0.109002 0.580066 -0.538138 0.274083 -0.459159 0.34248 -0.327861 0.0372 0.222596 0.122446 0.357591 0.454301 -0.534388 -0.331684 -0.278008 -0.466427 0.272223 0.327599 0.0571663 0.992311 -0.10499 0.0297672 -0.290972 0.109421 -0.366543 0.282891 0.237639 -0.326834 -0.718913 0.852821 -0.0801025 -0.216873 -0.0909241 0.370858 0.24481 -0.675397 0.554838 -0.59083 -0.036307 0.389745 0.17732 -0.0413525 0.284751 -0.0204611 -0.566055 0.352788 0.108345 -0.0286577 0.235455 0.200059 0.420014 0.268579 -0.175866 0.0787331 0.0838041 0.114702 -0.378335 -0.14772 0.0489771 0.0844175 -0.308026 0.557838 0.300776 -0.378846 0.123878 0.0687991 0.0385189 -0.249339 -0.431405 -0.102468 0.440094 -0.285224 0.0845168 0.489366 -0.684504 0.430614 0.0187118 0.441287 -0.344832 -0.380645 -0.38079 0.393245 0.876919 0.326223 0.467305 0.102593 -0.00770063 0.156906 -0.0995288 0.431456 -0.481912 -0.086981 -0.029081 -0.918611 0.305402 -0.0107483 0.401265 -0.55139 -0.382737 -0.0673731 -0.242976 -0.0664221 0.555079 0.0187403 -0.123203 0.0540475 -0.0889595 0.14728 -0.0648804 -0.35254 0.298054 0.382493 0.0857994 -0.397507 -0.66105 -0.111121 -0.598394 -0.12795 -0.197216 0.273398 0.198252 -0.160254 0.149574 -0.827633 0.128111 0.126704 0.398641 0.592317 -0.567208 -0.141921 0.244464 0.223722 -0.141819 0.444123 -0.477659 -0.0345236 -0.459449 -0.558682 -0.523712 0.43464 -0.0502664 0.187432 -0.060355 -0.577926 -0.343423 0.068225 -0.822179 0.0541717 -0.14853 0.158711 -0.378497 -0.490806 -0.25494 0.0803047 0.56919 0.68934 -0.277519 0.382711 -0.169578 -0.363949 -0.253464 0.209476 -0.523726 -0.181501 -0.491283 -0.534138 -0.738878 0.107153 0.13131 -0.218942 0.0496168 -0.6262 -0.494378 0.189287 0.392077 -0.218393 -0.636729 -0.915381 0.0801471 0.361725 0.234787 -0.200062 0.0163769 0.252765 0.0841366 -0.0250694 0.215335 0.0717411 0.522678 -0.499333 -0.75505 0.316259 -0.255772 0.415761 -0.0392691 0.505724 -0.437602 -0.110677 0.140206 0.0253999 0.806961 0.561615 -0.0411262 0.142965 -0.432603 -0.527742 0.255403 0.273913 -0.55937 0.572052 0.0434803 -0.285474 -0.0716421 0.0206706 0.136014 0.19029 0.0216771 -0.047929 0.00985088 -0.24646 -0.293167 -0.310504 0.69911 0.27131 -0.2461 0.483985 -0.470505 -0.257039 -0.114573 0.343456 0.113852 -0.399344 0.306274 0.248536 0.417569 0.102435 -0.245078 0.123458 -0.509288 -0.0975239 0.408602 -0.310186 0.631916 -0.103991 0.432097 0.512594 0.185574 0.471254 0.0966388 -0.382698 -0.185431 0.0150811 -0.280221 -0.245105 -0.271604 0.120807 0.439745 -0.277267 -0.0711529 -0.536726 -0.471391 -0.193796 0.0228961 0.527378 0.00170791 -0.16486 0.558618 -0.39649 0.0103375 0.343553 -0.138498 0.00960638 -0.335079 -0.327488 0.181893 -0.0511422 -0.287905 0.429586 -0.488375 0.577692 0.161604 0.681654 -0.306265 -0.294739 -0.522867 -0.330183 -0.184093 0.145472 -0.205614 -0.682834 -0.618377 -0.444996 -0.392843 0.331841 0.40402 0.732147 0.204188 -0.33839 0.0857361 -0.0785315 0.557607 0.0225966 0.218118 -0.725826 0.00406136 -0.353078 0.242381 0.384264 0.255901 -0.54969 0.0852431 0.416076 0.00110922 -0.222837 -0.451877 0.723973 0.48551 0.376381 0.437619 -0.0795375 0.0846209 0.086002 -0.462597 -0.742974 0.137589 -0.26434 -0.548327 -0.435301 -0.740448 0.428615 0.261459 0.0618542 0.358945 0.136493 0.0182294 -0.326627 0.111593 0.201486 -0.191303 -0.491479 -0.525998 0.384977 0.0932778 0.0929717 -0.572545 -0.0761024 0.1973 0.553917 0.237331 -0.196697 -0.790226 -0.675994 -0.0529318 -0.240688 -0.340684 0.169943 -0.327968 -0.0657219 -0.0314295 -0.317712 -0.251967 0.0614445 -0.0478646 0.00460632 -0.622941 -0.0704869 -0.105199 -0.324926 -0.402139 0.281112 0.478599 0.549587 0.120055 -0.302138 -0.401806 -0.331275 -0.495757 -0.475888 -0.333042 0.0828949 -0.706094 -0.230917 0.210029 0.377587 0.375846 0.0874435 0.438326 -0.297208 0.124851 -0.498179 -0.203042 -0.14508 -0.195834 0.242714 -0.349568 -0.213455 -0.467336 0.260103 0.17182 -0.079787 -0.0655965 -0.181693 0.488688 -0.547588 0.351758 0.105593 0.304708 0.00319278 0.716104 0.162848 -0.358672 -0.390195 0.223363 0.10263 0.520389 0.606991 0.120595 -0.454589 0.663935 -0.163773 -0.699062 -0.0138238 -0.488636 -0.632708 -0.60553 -0.333996 -0.433113 -0.935447 -0.316236 0.463668 0.062691 -0.53853 0.0455499 -0.332309 -0.498091 -0.137341 0.173568 -0.103248 -0.347523 0.207674 -0.386599 -0.581623 -0.0196174 -0.42452 0.532807 0.294162 0.360257 -0.136316 -0.15061 -0.24208 0.477235 -0.537601 0.0179885 -0.384821 -0.615345 -0.619572 -0.626114 -0.519589 -0.479948 -0.668505 -0.502544 0.11256 -0.325504 -0.113507 -0.15342 -0.0670576 0.161965 -0.610277 -0.357956 -0.346608 0.00236322 0.442237 0.223027 -0.702447 0.0294007 -0.207093 -0.26599 -0.63126 -0.308433 0.0646808 -0.541652 -0.217535 0.0760299 0.456897 0.427389 0.111703 -0.576816 0.393305 0.415183 0.559837 -0.506239 -0.127601 -0.00520085 0.364113 0.117101 -0.536466 -0.415846 0.432704 -0.40648 0.0616597 0.0239067 -0.719891 -0.0867341 0.269887 -0.160086 0.302152 0.0401277 0.632705 -0.234237 -0.667483 0.191935 -0.100711 -0.479932 0.659942 -0.258884 0.23806 0.353656 -0.505548 -0.402934 0.20168 -0.256564 -0.473964 -0.144673 0.328038 0.0365541 -0.407107 0.20484 -0.218012 -0.412888 -0.226423 0.395073 0.737087 0.0544735 0.1164 0.19275 0.0296672 0.577788 0.0594359 0.417965 0.18645 -0.155934 -0.23241 0.198874 0.675853 0.32242 0.234623 -0.722714 -0.109222 0.633422 0.618787 -0.0114495 -0.150399 -0.499014 0.0596737 -0.447291 -0.0700372 0.0892562 0.679066 -0.1576 0.257561 -0.130202 0.107316 0.299269 0.402693 0.433588 -0.794564 -0.0132594 0.484722 0.72978 0.324029 0.39287 0.497354 -0.715569 -0.0646038 0.538984 0.412799 -0.269108 0.299506 0.298962 -0.454874 0.208826 -0.567838 0.61661 0.000946174 0.0334304 0.425396 -0.170448 -0.431432 -0.732781 -0.480424 0.140539 0.046836 0.291889 -0.554852 -0.0294672 -0.166277 0.127002 0.633476 0.172736 -0.340982 0.261512 -0.0798108 -0.378062 -0.275618 0.554223 -0.278193 0.522262 0.207868 0.404963 0.210478 0.514102 0.458864 -0.382814 -0.413775 -0.870043 -0.200525 -0.724451 0.300811 0.287627 0.0983317 0.462927 -0.586227 0.172671 0.0960806 -0.011345 -0.166855 -0.659359 -0.264888 0.318067 -0.461966 -0.141664 -0.050052 -0.261202 -0.606009 -0.479948 -0.517683 -0.0492625 -0.487661 -0.324601 0.776613 0.335446 -0.48282 0.14275 -0.396064 0.630929 0.103683 0.167338 -0.513674 0.253228 -0.302562 0.568494 0.487493 0.355129 -0.370816 0.0620785 0.251566 -0.038337 -0.227565 -0.520015 0.370746 -0.644914 0.371104 0.397246 0.583104 -0.263563 -0.198605 -0.552167 0.503043 -0.241202 0.00368623 0.532303 -0.689598 0.212464 -0.099199 -0.366467 -0.0090289 -0.304435 0.0405929 -0.55762 -0.0852337 0.200046 -0.18393 0.189815 0.00221531 -0.435776 0.163139 -0.142062 -0.442086 -0.34169 0.0363455 0.0695572 0.42079 -0.139303 -0.949448 0.149132 -0.17461 0.64769 0.485426 -0.349345 0.235171 -0.251422 -0.270908 -0.129743 0.142239 0.547195 0.226364 0.554934 -0.0648329 -0.251906 -0.528817 0.192768 0.0677105 0.00355438 0.674421 0.119547 -0.01056 0.716615 -0.205366 0.505957 -0.067135 -0.301342 -0.72748 0.51782 -0.85179 -0.112659 -0.18908 0.304746 -0.133825 -0.843234 0.0507383 -0.114474 0.126095 0.0654667 -0.437848 0.483873 -0.287589 -0.239095 0.21044 -0.237021 0.400619 0.695573 0.143392 -0.591092 0.151715 0.144202 -0.292472 0.512905 0.270904 -0.175196 -0.400742 0.590952 -0.206331 -0.250889 0.0722261 0.628091 -0.167982 -0.604139 -0.472008 -0.506218 0.190133 -0.439524 -0.421779 -0.473103 -0.280196 0.238203 -0.358306 0.631284 -0.174495 0.0452578 0.428677 0.209977 0.174518 0.0666823 0.119208 0.0508648 -0.762575 -0.46395 -0.92526 -0.309545 0.858896 0.206764 0.245953 0.653891 0.236488 0.439245 -0.0609814 -0.0213796 0.437483 -0.209526 -0.16208 0.0767759 -0.0935854 -0.306917 -0.0731862 -0.281488 0.627013 0.453018 0.0149188 -0.44565 0.185524 0.0487396 -0.32833 0.222734 0.205625 -0.125893 -0.156769 0.503908 -0.220883 -0.309562 0.499618 0.0500036 -0.182391 0.323918 -0.413224 0.216781 -0.484941 -0.315138 0.694593 -0.153344 0.208838 -0.0727586 -0.452317 -0.67476 -0.221019 -0.0647916 0.44041 -0.586564 -0.466163 -0.329849 0.54113 0.560336 0.0521371 0.235155 0.475132 0.659609 -0.216787 0.0530585 0.00424149 0.41963 0.0595063 -0.0307625 -0.232046 -0.660804 -0.41554 -0.575146 0.263643 -0.460828 -0.608746 0.475008 0.150165 0.21355 -0.137854 -0.449894 -0.18961 -0.403977 0.199209 0.0867017 -0.445194 0.192753 0.279665 -0.0505397 -0.109004 0.126877 0.0690833 -0.462607 -0.55221 -0.048342 0.283755 0.115088 0.121054 -0.554974 -0.113772 -0.736142 0.219775 -0.144799 -0.302707 0.345001 0.297079 0.170246 0.087729 -0.529273 -0.326839 0.575157 0.0302276 -0.538184 -0.668704 0.370402 0.416946 -0.00309597 -0.424043 -0.655293 -0.584337 -0.891054 -0.184796 0.548016 0.202689 -0.150913 -0.340204 -0.695892 0.487757 0.113124 -0.432674 0.330313 -0.598167 0.523102 -0.190179 0.311404 0.178158 0.244451 -0.378671 0.159301 -0.430823 0.217535 -0.539686 0.298674 -0.265592 -0.249175 -0.463276 0.398658 -0.518293 -0.542055 0.339598 0.307213 0.120336 -0.0106333 -0.251547 -0.235097 -0.318294 0.13553 0.144933 -0.240299 0.0642245 -0.10557 -0.0885149 -0.097616 -0.630915 -0.52401 0.566602 0.878823 0.366626 -0.432099 -0.385704 0.690031 0.521653 -0.413509 -0.292487 0.836631 -0.363836 -0.374548 -0.186812 0.18701 -0.25332 0.334739 0.446996 0.319754 -0.387318 0.0126614 -0.0534446 -0.1914 0.141681 0.128425 -0.0776542 0.234151 -0.46157 0.0162542 0.225293 0.227872 -0.108314 -0.479468 0.243764 -0.0567652 -0.311027 0.0597794 -0.00991886 -0.332553 0.183359 0.398843 0.22833 -0.338776 -0.318787 0.182466 0.661796 0.438246 0.122191 0.503927 -0.000713021 -0.466353 0.45783 0.547466 -0.15334 0.579823 -0.286477 -0.00605609 -0.706546 -0.634008 -0.606153 -0.513432 0.0250267 -0.219765 0.460425 0.236661 0.0468006 0.171648 0.244564 -0.179018 0.274533 -0.180098 -0.181163 0.651394 -0.0775417 -0.185553 0.229607 0.31759 -0.440241 0.00526895 0.455533 0.486954 0.523401 0.355534 -0.621431 0.212757 0.530855 -0.14665 -0.404075 0.10345 -0.69567 -0.0201367 -0.422752 -0.492345 -0.426328 -0.453592 -0.309901 0.294404 -0.544626 0.0951971 -0.0243193 0.201627 0.549475 0.196507 0.0435357 -0.378444 -0.12187 -0.429064 0.324783 0.637275 0.396785 -0.206637 -0.713341 -0.0786703 0.407293 0.18759 0.478055 0.0941728 0.260412 -0.0800971 -0.299644 0.454527 -0.340536 -0.104716 -0.482648 -0.151261 0.084105 -0.453865 0.116656 0.475881 -0.313714 -0.464427 -0.847164 0.340095 0.437619 -0.438221 0.329043 -0.3829 -0.199468 0.215195 -0.171406 -0.047111 -0.321536 -0.106062 -0.158741 -0.101937 -0.369866 -0.208516 -0.232677 -0.436648 -0.313242 0.32474 -0.0772591 0.257266 0.500613 -0.592114 0.119558 0.00823052 -0.527586 0.568262 -0.164172 -0.44183 0.241146 0.212751 0.354332 0.565886 -0.31173 -0.765517 -0.695739 -0.168336 -0.434782 -0.493018 0.386113 -0.733605 0.136252 0.368766 -0.0425248 0.49409 0.259959 -0.270899 0.498594 -0.403268 -0.0881531 0.343602 0.26978 -0.217855 -0.542288 -0.196167 0.312922 -0.731422 0.412373 -0.652065 0.0193372 -0.218075 -0.272435 -0.328851 -0.265074 -0.0746249 0.308847 0.362534 0.460682 0.480737 -0.588468 -0.0101815 -0.203079 0.450988 0.0920697 -0.32136 0.123177 -0.196813 0.120207 -0.635658 0.442476 -0.0870643 0.433121 0.394036 -0.210765 0.0744346 -0.327455 0.082626 0.344538 0.226463 -0.230083 -0.126579 -0.465066 -0.070982 0.299558 -0.38937 0.194056 -0.066272 -0.603003 -0.147236 0.251267 0.44133 -0.228348 -0.0485658 0.530183 0.500162 0.0230513 0.00593788 0.500087 -0.696522 -0.610455 -0.483131 -0.44441 -0.266378 -0.134848 -0.4028 -0.228023 0.40317 0.0843146 -0.502371 0.476053 -0.37937 0.0717412 -0.555345 -0.0907962 0.663079 -0.654144 -0.440479 -0.460446 0.379811 -0.0705744 -0.307856 -0.0840966 -0.12349 -0.356416 -0.332633 0.161818 0.689411 -0.263236 -0.154266 0.23741 0.30938 -0.314843 0.160957 0.65712 -0.369059 -0.302424 -0.0854929 0.0206216 -0.461083 0.0899058 0.397896 -0.863115 -0.0837543 -0.420646 0.290145 -0.119782 -0.618485 0.691389 -0.655479 0.242044 -0.141666 -0.0958552 -0.230068 -0.470421 -0.00183921 0.727092 0.0144233 -0.672254 -0.496984 0.694224 -0.298965 0.432842 -0.359207 -0.068969 0.0441812 0.157134 -0.0764419 0.435293 0.161282 -0.641458 -0.471019 0.0371866 -0.343788 -0.356496 0.272351 -0.277079 -0.0137097 -0.0172372 0.543264 0.638755 0.0952501 -0.210383 -0.359006 0.0413854 0.701294 -0.4472 -0.287291 0.0328097 0.259692 -0.457371 0.307694 0.0441535 -0.518956 -0.296397 -0.445821 0.431321 0.327338 -0.262248 -0.59519 0.43227 0.0646547 0.425874 -0.730836 -0.572362 0.339246 0.757032 0.403661 0.198483 -1.00724 -0.533085 -0.0813418 -0.0853759 -0.613814 -0.233501 -0.291583 0.100839 0.554637 -0.11843 -0.463871 -0.151177 -0.13895 0.488919 -0.326204 -0.134954 -0.118 -0.319984 0.366571 0.475138 -0.0681888 -0.469178 -0.538317 -0.539296 0.387679 -0.351572 -0.533665 0.252213 -0.29575 0.272769 -0.18689 0.0379013 -0.206921 0.220727 0.084268 -0.0979847 -0.352843 -0.563535 -0.632127 0.151459 0.450062 0.659825 -0.0569134 -0.259336 0.498256 0.260171 0.361748 -0.0104603 0.0230558 -0.425858 0.214643 0.0938717 -0.424601 0.375541 -0.0414302 0.0896314 -0.433448 -0.749851 0.522749 -0.702113 -0.158613 0.0829084 -0.320441 -0.0326921 -0.453394 0.118266 -0.128249 0.206875 -0.335011 -0.450683 0.0235389 -0.637539 0.242033 -0.00993103 -0.496878 0.196359 -0.400827 -0.00289333 0.610262 0.674336 0.254053 -0.680318 0.392435 0.287388 0.369322 -0.899835 0.343417 -0.450616 0.0801963 -0.57861 -0.235764 0.263694 0.246638 -0.330954 -0.157935 -0.42099 0.219915 0.0661576 -0.321233 -0.595605 -0.512629 -0.162442 0.591149 -0.508227 0.0938464 -0.510823 0.24758 -0.151125 0.463112 0.214327 0.190233 0.367741 -0.0881258 0.296779 -0.754379 -0.0713708 -0.293141 -0.707659 -0.00727012 0.404614 0.350598 -0.0229451 -0.618601 -0.178666 -0.771444 0.486753 -0.298567 -0.0996312 0.382721 -0.0434887 -0.235298 -0.477135 -0.560229 0.634683 -0.0690111 0.104743 -0.535686 -0.399748 0.363095 0.264935 0.0560064 0.498616 0.88991 0.336277 -0.183381 0.215208 0.300942 -0.53426 -0.274318 -0.116325 -0.0193362 -0.616971 -0.0745523 -0.39361 -0.193096 0.251809 -0.360609 0.266788 -0.178412 0.341922 0.193733 0.132713 -0.466173 -0.251312 -0.393431 0.208234 0.193712 -0.194685 -0.0874124 0.280465 0.28859 -0.499708 -0.33246 0.482064 -0.583576 0.396447 -0.498362 0.141566 -0.532061 -0.741242 -0.222716 0.480404 -0.245392 -0.394267 0.235779 -0.196072 0.0724516 0.347968 -1.99135e-05 0.0623714 -0.419079 -0.55022 0.287255 0.783161 -0.348271 0.062101 -0.376545 -0.201936 0.384351 -0.327131 0.41444 -0.530534 0.48901 -0.433533 -0.325942 0.263437 -0.439901 0.17891 0.355416 -0.320975 -0.162982 -0.438428 -0.402283 -0.00943491 0.447081 -0.305598 0.153922 -0.666002 -0.60041 -0.640217 0.0219222 0.299924 -0.232867 0.455223 -0.49782 -0.141263 -0.312536 0.299032 -0.316486 0.408797 0.0704163 0.368795 -0.107289 0.484239 -0.241123 0.249356 0.0948347 -0.20575 -0.160216 0.166135 -0.256135 -0.124353 0.552099 -0.195584 0.435171 -0.22135 0.231169 -0.0723657 -0.483898 -0.192256 0.0100213 -0.185577 -0.168367 -0.542013 -0.40725 -0.245325 0.548548 0.374146 -0.695281 -0.229958 -0.395886 -0.710057 0.258501 -0.763198 0.373793 0.160879 0.223855 -0.304947 -0.519966 0.258503 0.167403 -0.59541 0.118995 -0.326088 -0.0567432 -0.576866 0.273466 -0.0466167 -0.354807 -0.52499 -0.501714 -0.508293 -0.303548 -0.226952 0.296588 -0.653384 -0.394166 0.0409114 -0.379671 -0.036006 0.651799 0.51826 -0.284555 0.00466334 -0.561076 -0.390769 -0.661439 -0.127822 -0.0654396 0.374485 -0.62 -0.438272 -0.642398 0.378295 -0.618187 -0.272355 0.378719 0.0328251 0.258577 -0.0746371 0.167942 -0.400897 0.333924 -0.157129 0.17834 0.0930744 -0.459727 -0.304486 -0.337284 -0.622182 0.905844 0.332427 -0.0892116 -0.596758 -0.259721 -0.02814 -0.163573 0.286395 0.547087 0.331038 0.419892 -0.446817 -0.30489 0.292078 0.328757 -0.653859 -0.686702 -0.228551 -0.305959 -0.344165 0.339885 0.656017 -0.148331 -0.358846 0.256167 -0.22618 0.297443 -0.383273 -0.0879831 -0.0871533 -0.550255 0.692924 0.18768 0.0283483 0.306494 -0.0222116 -0.0700495 0.154172 -0.221937 0.344992 -0.626805 0.201369 -0.310485 -0.469899 -0.375082 -0.0714649 0.615444 -0.481948 0.0295408 0.0702627 -0.319772 0.237178 -0.145168 -0.203385 0.230211 0.069851 0.0776454 -0.423622 -0.621694 0.103579 -0.29615 -0.160013 0.404704 0.388256 -0.0527111 0.0921009 -0.382081 -0.113203 0.293737 -0.254638 0.0719178 -0.916232 0.197083 -0.169779 0.188396 0.475971 0.0710571 -0.100607 0.523821 -0.333747 -0.338444 0.554815 0.514093 0.0465202 0.163377 -0.261577 0.658472 -0.612118 0.231724 0.319077 0.027913 -0.173314 -0.189741 -0.544648 -0.302034 -0.602374 -0.41183 0.249197 -0.317985 -0.113931 -0.709387 -0.140864 0.369657 -0.0452143 -0.542858 -0.296564 0.302942 0.264856 0.533724 0.0458852 -0.209607 -0.0634019 0.236514 0.0113596 0.111358 -0.476474 -0.248393 -0.230102 0.232975 0.346449 -0.308263 0.127993 -0.0111427 -0.180065 0.405925 -0.45527 0.0179367 -0.480888 0.0788147 -0.0336425 -0.192912 0.259714 -0.449981 -0.454488 0.120936 0.02038 0.32085 -0.67389 -0.164503 -0.576847 0.125499 0.0408751 -0.619231 -0.527772 -0.665215 -0.198901 -0.307184 -0.422588 0.036442 0.0872213 0.286504 0.367789 0.472217 -0.624601 -0.740746 0.205382 0.109571 0.0876981 0.0454203 0.158259 -0.282159 -0.476564 -0.00306563 -0.633651 -0.40098 -0.205144 0.062044 -0.741854 0.0381246 -0.602068 -0.363205 -0.712824 0.541825 -0.37803 -0.455802 0.143088 0.210782 0.223622 -0.325129 0.111754 -0.586605 -0.651683 -0.0339427 0.476215 -1.03283 0.23811 0.10866 0.371547 0.235907 -0.289611 0.0967567 -0.0246405 0.263266 0.313809 -0.415933 0.468674 -0.412811 0.0429233 -0.369391 -0.558357 -0.689471 0.179734 0.195687 0.155427 0.278647 -0.260948 -0.611033 0.286596 0.0864109 0.316812 0.145629 -0.154479 -0.155272 -0.135332 -0.513662 0.0587474 0.164391 0.158163 0.267425 -0.118495 0.444793 -0.0381575 -0.0801519 -0.428998 -0.0910809 0.455729 0.211728 -0.306501 -0.597745 -0.321138 -0.254443 -0.388282 -0.296905 -0.135886 -0.447056 0.486558 -0.212324 0.265199 -0.0205358 0.275282 -0.425745 0.274362 0.0268781 -0.397298 -0.245701 -0.369449 0.20023 0.447371 -0.05592 0.0532805 0.747287 -0.754233 -0.255921 -0.264028 -0.165287 0.118237 -0.391986 -0.20978 0.0990081 -0.329595 0.148838 0.458273 -0.122062 -0.279728 -0.162442 0.968171 0.529888 -0.175266 -0.0964361 -0.191419 0.186165 0.0261626 -0.548687 -0.34954 0.0394372 0.127929 0.685851 -0.302535 -0.400365 0.534213 0.490388 0.401233 0.229785 -0.0163868 0.149397 -0.323242 0.332129 -0.717237 -0.707766 0.610158 -0.522758 -0.00883124 -0.601543 -0.367184 -0.349116 0.0606086 0.21584 -0.177625 0.358185 -0.0542769 -0.139174 -0.0193776 0.150069 -0.0373295 0.36641 0.44451 -0.101225 0.199501 -0.549844 0.00276649 -0.0928933 -0.588476 -0.273813 -0.503869 0.379865 0.20372 -0.0710547 -0.334701 -0.274515 -0.732303 -0.0513424 -0.638893 -0.326358 -0.0823052 -0.47122 -0.29605 -0.453955 -0.558506 -0.573136 -0.460613 0.0612243 -0.0878493 0.0925348 -0.923018 0.403535 0.0116596 0.336344 0.13712 -0.621673 0.620523 -0.352864 -0.447845 0.614242 0.0257647 -0.480321 -0.118891 -0.0648865 -0.329871 0.0358735 -0.23736 0.400633 -0.393703 0.626518 0.111717 -0.495685 -0.590416 -0.500293 -0.10746 0.344156 -0.261163 0.372922 0.42233 0.317712 -0.549998 0.443422 -0.211449 0.0641447 0.660005 -0.249513 -0.280109 -0.602923 -0.657836 0.529744 -0.0920451 0.174373 -0.203236 -0.399772 -0.0581577 0.29169 -0.4722 0.453262 -0.574198 -0.290417 -0.0279111 0.206261 -0.342738 -0.524575 0.394147 -0.152817 -0.049967 0.461331 0.467587 -0.569648 0.290888 -0.183576 0.290821 -0.757342 -0.395612 -0.341811 0.0275228 -0.661343 0.413298 0.255282 -0.479423 -0.285849 0.24585 -0.054598 -0.089652 0.121918 -0.353912 -0.177781 0.746945 -0.472791 -0.134164 0.472712 -0.65083 0.0967876 0.767135 0.163655 0.214852 -0.519872 -0.0110578 0.3036 0.458285 -0.402896 -0.1679 -0.322729 -0.0828816 -0.322873 0.683841 0.416076 0.143165 -0.197147 -0.418132 -0.517193 -0.0366056 -0.425116 -0.0386104 -0.556775 -0.34305 -0.527874 -0.396343 -0.630552 0.239377 -0.233795 -0.32108 -0.109214 -0.35227 0.242382 0.482522 -0.228843 -0.138586 0.320418 0.459466 0.471722 0.255302 -0.0852662 -0.0384971 -0.58377 0.0189809 0.562814 -0.326562 -0.165519 -0.173553 0.31721 0.482068 -0.578627 -0.420709 0.182033 0.000268617 -0.931423 -0.116076 -0.34399 -0.110821 -0.253829 -0.695746 -0.217783 -0.121694 0.115849 0.0874834 -0.472195 0.0143793 -0.136161 0.0759469 -0.265099 0.0654851 0.309687 -0.606456 -0.264467 -0.118919 -0.401438 -0.317419 -0.290319 -0.552075 -0.34619 -0.274272 -0.291502 0.494777 0.144723 0.333944 -0.310919 -0.499677 0.518791 -0.444868 -0.327061 0.186329 0.352544 -0.423914 -0.327457 0.0701831 0.61041 -0.354493 -0.427886 0.153715 -0.344965 -0.643269 0.154381 -0.318708 -0.115158 -0.555383 -0.516497 0.225395 -0.0284383 -0.165478 0.42492 0.32094 -0.387485 -0.340665 -0.207437 0.554041 -0.341978 -0.279068 -0.558279 -0.0705863 -0.633051 0.201434 0.392432 -0.117672 0.353469 -0.0633423 0.0161036 -0.00357493 -0.374737 -0.713041 0.0454058 -0.0812536 -0.651213 0.0824569 -0.269896 0.106306 -0.124931 -0.73878 0.181896 0.549463 0.70925 0.368293 -0.503798 -0.207154 -0.0374603 -0.362235 -0.441466 0.111192 0.269556 0.114885 -0.412796 -0.0209427 0.0241332 -0.042972 -0.474115 -0.69213 -0.364083 0.265123 -0.0995547 -0.737331 0.246746 -0.332321 0.282302 -0.35755 -0.0668118 -0.215005 0.689382 0.036932 0.457517 0.36195 -0.40377 0.0712119 -0.564223 0.546792 0.380348 -0.154051 -0.064367 0.618605 -0.257871 -0.361414 0.167768 0.0317662 -0.0054906 -0.340679 0.148078 0.0743921 -0.44431 -0.434086 0.140739 -0.0656409 -0.605989 -0.442782 0.599857 0.0520862 0.576424 -0.549444 -0.313416 -0.326396 0.12635 -0.165254 -0.119735 -0.657517 0.0694507 0.331986 0.245193 -0.386781 0.0823778 -0.193135 0.160595 -0.0432591 0.0815899 -0.312916 0.300866 -0.452884 0.599695 -0.281554 -0.249122 0.145091 0.113762 -0.0984785 -0.436476 0.371672 0.24811 -0.9986 0.420713 -0.334404 -0.214071 0.265221 0.412231 -0.0583468 0.28587 0.0800706 -0.551359 -0.107441 0.421212 0.400332 -0.0592732 -0.523674 0.490215 -0.0778473 -0.00623924 0.441807 0.465232 -0.334813 0.317711 0.200952 0.0766535 -0.317716 -0.636954 -0.340789 -0.158717 -0.483224 -0.360012 0.216578 0.0986706 -0.951386 -0.509986 0.0366339 0.534099 -0.261571 -0.108394 -0.105724 0.0629902 0.0337342 -0.681571 -0.115226 0.39725 0.019729 0.556119 -0.481591 0.608276 0.363012 -0.557671 -0.115537 -0.220421 -0.0431261 -0.508057 -0.406251 0.618447 -0.678484 -0.572782 -0.17467 0.170994 -0.454007 -0.55442 0.103313 0.85483 0.133384 -0.336065 -0.164281 -0.239712 -0.391049 -0.0885764 -0.176607 0.0329001 -0.0937406 0.43679 0.242298 0.221502 -0.378666 -0.564882 -0.20152 -0.301533 -0.481176 0.00624372 0.487891 -0.176144 -0.183384 0.106649 0.225539 0.68758 0.106641 -0.0158709 0.219366 0.326627 -0.230975 -0.0507239 0.0323633 -0.40697 0.11964 -0.335256 0.751467 0.113315 -0.548326 0.113233 0.371879 -0.265141 0.435342 0.0100278 0.627149 0.471609 -0.273888 0.00964527 0.37137 -0.0894614 0.612101 0.255163 -0.0248468 -0.0365174 -0.268139 0.32633 -0.280722 -0.41589 -0.738818 0.69 0.565039 -0.511209 -0.0297117 -0.04751 0.518424 0.65176 -0.353797 0.224258 -0.488146 0.19956 -0.153536 0.262214 0.286777 0.359232 -0.120773 -0.579136 -0.543564 -0.422003 0.489089 0.177213 -0.4029 0.198049 0.594286 -0.598087 -0.184682 0.358436 0.463307 -0.120472 0.144411 -0.148728 0.000278994 0.0426016 -0.357154 -0.111422 -0.351032 0.44285 -0.174061 0.334558 -0.00610101 -0.565931 0.818512 0.123394 0.151735 -0.12802 -0.398532 0.174341 -0.136941 -0.563311 -0.16927 -0.177644 -0.805248 -0.337063 -0.052352 0.401886 -0.272218 -0.401667 -0.2349 0.691122 0.312064 -0.452696 -0.171342 -0.560107 0.646046 -0.535351 -0.423269 -0.585379 0.0618312 -0.564724 0.254581 0.0130978 0.138345 0.590083 0.0305335 -0.443164 0.129369 -0.10194 0.363971 0.0967676 -0.21678 -0.463785 -0.524039 -0.0357505 0.0830327 -0.0203567 -0.461246 -0.0644189 0.579124 -0.221505 0.189094 0.190493 -0.0329563 0.121063 0.233393 -0.350195 -0.352858 -0.0362351 0.308839 -0.27371 0.438336 -0.0848836 0.16217 0.0267506 0.424425 0.112358 0.160692 -0.130196 -0.345635 -0.0797322 -0.467554 -0.315712 0.207259 -0.114128 -0.268935 -0.612156 -0.379089 0.356493 -0.702789 0.21028 -0.0477592 -0.252094 -0.302063 0.458645 0.113593 -0.00271394 0.527361 0.141626 0.463946 0.0771332 -0.27068 -0.0653252 0.0393174 -0.102942 0.146563 -0.0910666 -0.366719 -0.676544 0.319681 -0.655792 -0.591319 -0.280593 -0.177477 -0.226298 0.0922497 0.212766 -0.375969 0.328738 -0.0062563 -0.0568218 -0.374152 -0.180868 0.600291 0.361624 -0.43023 -0.1478 -0.443786 0.219708 0.283042 -0.643388 -0.5963 0.458754 0.121276 0.133294 -0.60669 -0.736638 -0.451654 0.364089 0.335552 0.22846 0.272727 0.254441 0.21902 0.235639 0.353001 0.056594 0.454041 0.413091 -0.440548 -0.476343 -0.373047 -0.0986162 -0.0637133 -0.0430823 0.115059 0.164995 -0.399879 0.298802 0.0241798 0.0515387 0.545297 -0.333389 0.245664 0.438291 0.501239 -0.170754 -0.345275 -0.578288 0.414579 -0.538771 -0.148299 0.0596495 -0.0254293 -0.105194 -0.80768 0.305072 0.0703002 0.135225 0.43399 0.293496 -0.500897 -0.0206516 -0.908846 -0.117993 -0.55344 0.312452 -0.11053 0.341581 -0.601817 -0.526155 -0.259501 0.190598 0.0202498 0.61637 -0.106991 0.238257 -0.418691 0.209428 0.0245362 -0.052218 -0.425509 -0.565857 -0.406637 -0.127876 0.0941495 -0.0551818 -0.351049 -0.270493 -0.273384 -0.123984 -0.14756 0.0187387 -0.711187 0.288591 0.367014 -0.347365 -0.182292 -0.412451 0.0105215 -0.182061 -0.141925 -0.230832 0.565349 0.294044 0.180295 -0.0214286 0.0325421 -0.152548 -0.398022 0.181702 -0.05315 -0.304515 -0.226386 0.356078 -0.525493 0.667015 0.171156 -0.346885 -0.213557 0.34057 0.133264 -0.420273 0.464767 -0.238354 -0.301175 0.420672 -0.255326 0.157743 -0.469546 -0.803962 0.349233 0.102581 -0.511102 -0.576013 0.0451427 -0.105357 -0.376476 0.180286 0.243974 -0.13726 0.0831479 -0.270917 0.129208 -0.481955 -0.27029 -0.0316465 -0.745621 -0.239631 -0.259557 0.0170192 -0.613386 0.018083 -0.440281 -0.625909 0.43507 -0.333706 0.473545 0.477066 0.453894 -0.0105998 -0.53528 -0.336189 0.50804 -0.251507 0.385078 0.349459 0.324376 0.343544 0.524846 -0.212682 0.448239 -0.846919 -0.597845 -0.701058 -0.410542 -0.697194 -0.299456 -1.13171 -0.115074 -0.298344 -0.965544 -0.402129 0.162973 0.191005 0.0012447 -0.545107 0.563997 -0.316062 -0.574308 0.172258 -0.457941 0.0409793 -0.2179 -0.215953 0.018633 0.539656 0.56295 -0.0404869 0.111317 -0.611179 -0.00307889 -0.043994 0.0269668 -0.332247 0.0369825 0.385242 -0.54948 -0.769966 -0.673688 -0.584472 0.0904061 -0.46454 0.0424801 -0.714795 -0.595801 0.356243 -0.848529 0.381082 -0.216718 0.279482 0.00949378 -0.0504132 -0.524789 -0.215976 0.561918 -0.597047 0.411245 -0.245423 -0.469921 -0.187428 0.414279 -0.0480868 0.538134 -0.0988378 -0.357533 0.0630625 -0.785682 0.345254 0.0731505 -0.498048 0.110541 -0.441754 -0.287402 -0.295797 0.390119 0.163679 0.443281 -0.728797 -0.534648 0.28002 0.413102 -0.449877 -0.154737 -0.625694 -0.198948 -0.0233258 -0.167652 -0.0689826 0.217518 0.273429 0.539672 -0.681428 -0.511409 0.602579 -0.614349 -0.44927 0.324701 -0.44846 -0.196053 0.335188 0.323359 0.397687 -0.368224 -0.278016 0.123179 0.280387 -0.289893 0.109397 -0.230615 0.233952 -0.386996 0.0876838 0.34435 -0.282741 0.161072 0.733047 -0.621651 -0.115689 -0.512698 -0.167661 0.373228 -0.320586 0.328855 0.219116 0.449756 0.225796 0.312229 0.18464 -0.0660594 -0.389218 0.0202745 -0.597413 -0.816909 -0.106966 0.087402 0.0989796 -0.222034 -0.407134 0.181586 -0.25691 -0.421221 -0.254045 0.468779 -0.650128 -0.0391546 0.545081 0.262107 0.123678 -0.388897 0.630537 -0.102186 -0.136662 -0.152506 0.634717 0.150025 0.333165 -0.203029 0.0299984 -0.140077 0.0517623 0.168341 0.211997 0.258425 0.349242 0.267469 0.256914 0.0997424 -0.178844 -0.543247 -0.302388 0.399057 0.199015 -0.113882 -0.0136828 0.10002 -0.193993 0.290391 -0.0262455 -0.00468453 0.0165316 0.124008 -0.130864 0.182158 -0.288442 -0.977299 0.118473 -0.219264 -0.200986 -0.748754 0.512421 0.307988 -0.0397622 -0.0423002 0.838466 -0.0188017 -0.2377 -0.490659 0.4542 -0.0395508 0.232608 -0.4499 -0.273031 0.154158 0.203469 0.430089 0.268107 -0.0301031 0.161347 0.290781 -0.620205 -0.132853 -0.464916 -0.29488 0.107614 0.234509 0.429534 0.290928 -0.632217 -0.0238974 0.265768 0.0886637 0.241688 -0.134068 0.488251 -0.62349 0.850896 0.376334 -0.455059 0.166148 0.580907 -0.179432 -0.00568243 -0.117107 0.0862922 -0.436473 0.0766043 -0.119568 0.351802 -0.561508 0.285693 -0.0649438 0.206967 0.114126 -0.497889 0.0730994 -0.316784 -0.308461 0.301505 -0.114737 -0.0821517 0.170108 0.640874 -0.286844 0.524287 0.398025 0.336312 0.34758 -0.320633 -0.359984 0.413422 0.144678 -0.698216 0.358368 -0.491174 0.544388 -0.196183 -0.406674 -0.0492376 0.343433 -0.435776 -0.147463 -0.301767 -0.185777 -0.644121 0.185434 0.413487 -0.0889635 -0.403222 0.49784 0.276352 0.112829 -0.362439 -0.335026 -0.208341 -0.609773 -0.231766 0.0984835 -0.0694601 0.359531 -0.456092 0.172418 -0.346493 -0.11494 0.0675176 0.307769 0.487295 -0.33682 -0.00684625 -0.0578247 -0.0227306 -0.228233 0.118138 -0.0551893 0.560071 -0.140889 -0.362741 -0.469695 -0.564167 0.465164 -0.429792 -0.590447 0.436712 0.856954 -0.350188 0.160856 0.420202 0.207382 -0.214961 -0.517604 0.439917 -0.779293 -0.666338 -0.157361 0.0551052 0.319669 -0.423094 -0.395355 -0.481281 0.0793621 -0.497228 0.447779 0.294009 0.158289 0.194223 -0.120166 -0.442322 -0.663977 -0.00622892 0.338568 -0.089719 -0.0291881 0.46003 0.210344 0.70409 -0.0707065 -0.547988 0.0653189 -0.364642 0.0766776 -0.607102 -0.423821 -0.600413 -0.514128 -0.352927 -0.108759 -0.0705837 -0.152165 0.431884 -0.235952 0.230204 0.638636 -0.30676 0.28079 0.332296 -0.434834 0.0840216 -0.514522 0.30642 0.308865 -0.396749 0.209368 -0.288905 -0.156376 -0.686257 0.793582 0.453459 -0.83594 0.289464 -0.279433 0.210964 -0.343103 0.364264 -0.0344109 0.932086 0.0185099 -0.125368 0.130123 0.10157 -0.0881781 -0.431399 0.0245013 -0.429159 -0.388647 -0.72923 0.195588 -0.320818 -0.530874 -0.130096 -0.448256 0.0645365 -0.455152 -0.623651 0.0259831 -0.712382 0.0843743 -0.612472 0.453312 -0.321901 0.264173 -0.0825229 -0.00855336 0.641216 -0.236414 0.514495 -0.105507 0.371238 -0.588561 0.319031 0.348726 0.0710764 -0.510277 -0.572169 -0.276634 -0.647795 -0.650554 0.222099 0.334455 -0.440023 -0.0688056 -0.384502 0.0407732 -0.195837 0.0475051 0.152373 -0.534259 0.0365922 0.155527 0.276657 0.41556 0.36401 0.635261 -0.0126891 0.464265 0.314475 -0.339283 -0.587783 0.222 0.249058 0.104818 -0.00107481 0.333389 -0.712744 0.30142 -0.0833836 0.0659816 -0.312272 -0.0745032 -0.322133 -0.513288 0.0197307 0.314842 0.52798 0.451868 -0.30037 0.583113 -0.0901564 -0.154213 -0.285227 0.453547 -0.41843 0.639417 -0.026234 -0.556341 -0.422084 0.284809 0.605487 0.079631 0.208281 0.448146 -0.528272 -0.209875 0.353754 0.11716 -0.343598 -0.296896 -0.60097 0.0116602 -0.377426 0.426835 0.201776 -0.783777 0.351307 -0.262178 -0.208662 -0.255948 -0.28677 -0.594021 -0.00692359 -0.199297 -0.386338 -0.343917 -0.193235 0.370004 -0.228452 -0.70931 -0.468946 0.0407303 -0.673664 -0.253709 -0.191944 -0.513775 -0.409741 -0.300651 0.134126 0.156549 0.233259 -0.206755 -0.382053 -0.362995 -0.13243 0.20088 -0.578229 -0.5749 0.413959 -0.247306 -0.0394031 0.139352 0.476712 0.215717 0.334966 -0.144754 -0.452171 -0.0329554 -0.160419 -0.10476 0.61419 -0.399858 -0.422973 -0.433656 -0.0523791 -0.179373 0.226661 -0.365866 0.573495 -0.481696 0.481949 0.694741 -0.288361 -0.537915 -0.163782 -0.299831 -0.382914 0.108168 -0.454889 -0.438387 0.141975 -0.57906 -0.509921 -0.406652 0.282856 0.0237035 0.110781 -0.102432 -0.019141 0.119738 -0.17903 -0.230498 -0.365785 -0.222922 -0.267713 0.223495 0.290942 -0.421301 -0.406008 -0.0873198 -0.182361 0.0607961 0.0281249 0.36185 0.18065 -0.316672 -0.0365688 0.294756 -0.211467 0.0356834 -0.0555237 0.0597784 -0.0580916 -0.397329 -0.622725 -0.118738 -0.00610677 0.113753 -0.0745433 0.503248 0.148505 0.00227449 0.162974 0.251448 0.59115 0.0557497 0.293153 0.110417 -0.549681 -0.596637 -0.319198 -0.485203 -0.723543 -0.40669 -0.0581301 0.159844 0.457503 0.538753 0.309811 -0.368695 -0.01398 0.448018 -0.480985 0.132938 0.244597 -0.174161 0.526961 0.317212 0.555094 0.516306 -0.383273 -0.383652 -0.200347 -0.44401 -0.223692 0.0472519 0.271309 0.535009 -0.443746 0.785309 0.653347 -0.438725 -0.383161 -0.627038 0.23117 -0.53226 0.293576 -0.167104 0.356847 -0.156564 0.318826 0.295605 0.316274 0.237535 -0.524781 0.47659 0.157726 0.413663 0.21669 -0.452641 -0.121864 -0.631642 -0.331184 0.322191 -0.241292 0.136035 -0.15139 -0.152215 0.274249 0.298679 0.632073 -0.0198185 -0.317149 -0.297852 -0.640945 0.358154 -0.362021 0.10032 0.24322 -0.623708 -0.0069612 0.253545 0.732211 0.249977 0.184617 0.514275 -0.327754 0.136783 -0.505161 0.156826 -0.536889 -0.0405301 -0.00934361 -0.420148 -0.355462 0.0360673 0.672342 -0.49605 0.190862 0.167992 -0.382876 0.0711157 0.180039 -0.629213 -0.0781888 0.377271 0.409886 0.268959 -0.12909 -0.500477 -0.00439114 0.345088 0.00993233 0.144308 -0.115409 -0.478126 0.0355663 -0.489493 0.608985 -0.408307 0.285222 -0.415782 -0.667515 -0.109826 -0.363434 -0.568733 -0.215115 0.0411148 -0.39558 -0.412295 -0.309341 -0.165 0.204025 0.240104 -0.283783 0.156609 -0.607416 0.0684329 0.413416 0.767435 -0.0981721 0.244253 -0.00495323 0.214746 -0.331318 0.357215 0.252844 0.0875504 -0.424742 -0.11836 -0.562162 -0.449012 -0.282092 0.486899 0.705442 -0.819732 0.188455 0.062701 -0.0224617 0.18318 0.0278661 -0.628483 0.257377 -0.129544 0.174526 -0.615667 0.086435 -0.272701 -0.405266 -0.0569313 0.0713642 0.246708 0.133342 -0.313869 -0.287595 0.357843 0.345535 0.0373499 -0.176559 0.338383 0.331702 -0.307404 -0.495395 -0.677776 0.248735 -0.408013 -0.230974 -0.577729 0.757592 -0.103692 0.0810426 0.475623 0.587674 0.306489 -0.226287 -0.669148 0.0263063 -0.387232 -0.387199 -0.751778 -0.183683 -0.428818 0.0695973 -0.210709 0.344391 -0.383578 -0.214337 -0.034079 -0.553573 0.434002 -0.69007 -0.454882 -0.295656 -0.372261 0.197029 -0.184734 0.475691 0.265099 0.417172 -0.513802 0.726713 -0.640767 -0.061803 -0.088175 0.021094 -0.466831 -0.233761 -0.312579 -0.244218 0.668713 0.159149 0.191681 -0.637219 -0.40992 -0.100167 -0.327386 -0.190448 0.426088 -0.0760021 -0.405266 -0.230629 -0.132819 0.0987109 0.799973 -0.522588 -0.702463 -0.433187 0.271728 -0.485859 -0.386117 0.219027 -0.0380686 0.24957 -0.180189 0.113526 0.118867 -0.308473 -0.00248785 0.477596 0.262569 