-0.00116706 0.398834 0.0841767 -0.390193 0.323646 0.120637 0.314357 -0.100193 0.0977881 -0.408428 -0.101108 -0.0697337 -0.214743 -0.306617 0.205644 0.0935285 -0.10382 -0.203351 -0.402332 0.29976 -0.200993 -0.398924 0.287073 0.396405 -0.00863569 -0.200568 0.100097 0.394133 0.130226 0.193642 -0.0990841 0.414568 -0.199508 0.231033 -0.287094 -0.00510109 0.288475 -0.105845 -0.39642 -0.35594 0.390213 -0.0836131 -0.513657 -0.208434 -0.494021 0.002341 0.282822 0.397965 -0.00426033 0.299363 -0.105369 0.198444 0.102612 0.100867 0.285452 0.104568 0.0761203 0.120178 -0.407228 -0.398111 0.0520918 0.304763 0.204998 0.315682 0.00878739 -0.195109 -0.041294 -0.397204 0.235932 0.295786 0.0020623 0.205362 0.399714 0.0854854 0.198359 -0.00259089 0.106464 -0.303538 -0.193695 0.306757 -0.457601 -0.106581 -0.209644 -0.505337 -0.400358 -0.0064191 -0.00531229 -0.212458 -0.305484 0.201154 -0.215792 0.405965 -0.402719 0.279905 0.21285 0.408863 0.00273602 0.118356 0.199591 -0.419969 0.376122 -0.309251 0.0145793 0.00352636 -0.000796787 -0.246119 0.307631 -0.507172 -0.505245 -0.1028 0.397738 0.0966784 0.10466 -0.338829 -0.42689 0.0979277 0.391098 -0.523736 0.303012 -0.0819458 -0.51948 0.308574 -0.00654512 -0.501241 -0.445494 -0.205721 0.270141 0.39873 -0.0539638 0.299439 -0.00420838 -0.500988 0.301667 -0.089122 -0.220687 -0.500892 -0.190405 0.383049 0.398423 -0.395593 0.359493 0.383309 -0.174715 -0.317975 -0.496341 -0.106659 -0.302731 0.297348 -0.0998061 0.395916 -0.000775658 -0.0874888 0.0979191 0.199462 -0.0799891 -0.00513202 0.436113 -0.399969 -0.50356 -0.10109 -0.40143 -0.355122 -0.000898425 0.0993723 -0.00145723 0.299444 -0.0120418 0.390483 -0.202392 -0.301921 -0.505837 0.100376 -0.0382206 0.0117258 -0.199165 0.187613 -0.489599 -0.302903 0.283402 -0.0714163 -0.0950271 -0.000441977 0.0116477 -0.409542 0.408208 -0.306215 0.197858 0.102147 -0.514294 -0.304081 0.0120893 0.201876 0.0789451 0.384228 0.1792 0.417987 0.385631 -0.203351 -0.317873 -0.00645033 -0.113838 -0.502596 -0.501591 0.0916317 -0.208523 0.301787 0.20896 -0.495318 0.412487 -0.192768 0.0965321 0.0996708 0.29649 -0.299099 0.307441 0.153599 -0.287889 -0.197867 -0.396679 0.291573 -0.105648 -0.312932 -0.436526 -0.299464 0.0987487 -0.36421 -0.303271 -0.0836877 -0.0856037 -0.401356 -0.481265 0.407094 -0.172026 -0.0983754 -0.372101 0.297634 -0.5059 -0.508626 -0.300916 -0.498797 0.0746638 -0.505491 -0.511029 -0.508925 -0.199836 -0.1648 -0.500423 0.273789 -0.422869 0.307543 -0.193056 0.00261022 -0.485664 -0.199341 0.164691 -0.197035 -0.38501 0.374105 -0.176106 0.0976399 0.387417 -0.101942 -0.216008 0.0495088 0.013458 -0.0975845 0.380228 -0.304229 0.089452 0.093533 0.197028 -0.303516 -0.411474 0.187811 0.107416 -0.00427004 0.398702 0.193807 0.297953 0.0999329 0.00664668 -0.0888491 -0.29809 -0.211873 0.0219683 0.372932 0.0993549 0.397118 0.00344911 0.109816 0.0909772 0.301091 -0.200613 -0.319507 0.20118 0.105667 -0.497132 -0.193926 0.000207058 -0.203851 -0.0893025 0.0020841 -0.242609 -0.210942 -0.399055 -0.387156 0.201806 -0.103045 -0.39017 -0.248634 -0.104349 0.00314335 0.00756368 0.408337 -0.302223 0.202462 -0.402864 -0.393509 -0.0164193 -0.394162 -0.0905711 -0.312779 0.419047 -0.00121576 0.298362 -0.20735 0.0951774 0.110389 -0.511597 0.315031 -0.206528 -0.0199896 -0.502583 0.00943172 0.0901098 0.397406 -0.200029 -0.314545 -0.390608 -0.00590492 0.0969606 0.0990945 -0.131721 -0.301602 -0.201262 -0.00532248 0.176539 0.0868063 0.00360151 -0.403609 0.100012 -0.528011 0.0237523 -0.489135 -0.51608 -0.411785 -0.4003 -0.188235 0.188863 0.4036 -0.195897 0.00565763 -0.226239 0.000552574 -0.400828 -0.200511 0.0925743 -0.184399 -0.186635 0.105292 -0.402784 -0.305281 0.30178 -0.502765 -0.0414419 -0.302915 0.200322 -0.297785 -0.304258 -0.199257 -0.498879 0.19504 0.238257 -3.08744e-05 -0.507567 -0.286904 0.389186 -0.323504 0.213237 0.281923 -0.208327 -0.291282 -0.210769 -0.499579 -0.300571 0.214563 -0.294403 0.175544 -0.0145001 0.405369 0.202403 -0.00151087 0.371558 -0.507145 0.100533 -0.166683 -0.233015 -0.43933 0.091972 0.305381 0.297761 -0.398839 -0.467583 -0.165372 0.187519 -0.302085 -0.0954431 0.0665092 -0.288042 -0.203004 0.284834 -0.409209 0.114013 0.320472 -0.0863028 -0.190259 0.200348 -0.29044 -0.195512 -0.0095444 -0.400848 0.402812 0.300994 0.198819 0.0326638 0.280367 -0.403296 -0.209297 -0.128834 -0.504712 0.00284993 -0.196224 -0.318543 0.294721 -0.0190652 0.399355 0.190863 0.401501 -0.506876 -0.00443065 -0.4089 -0.0931672 0.395915 -0.523706 0.0720415 -0.498961 -0.508297 0.312375 0.0948961 -0.203194 -0.202972 -0.207528 -0.0996498 -0.104027 0.204403 0.2989 -0.321288 -0.508242 -0.183399 0.198867 -0.195046 -0.297707 0.182619 0.184265 -0.101795 -0.316242 -0.102696 -0.00999494 -0.501245 -0.391709 -0.110506 -0.501724 -0.107025 -0.5018 0.193013 -0.404921 -0.103951 -0.40178 0.198993 -0.0974115 -0.151212 0.407552 -0.197159 0.398923 0.087591 0.00480113 -0.0331395 -0.503621 -0.298989 0.202239 0.314438 0.216812 0.455174 -0.499929 -0.501919 0.23818 -0.086167 -0.200109 0.10205 -0.404421 0.400887 0.0351259 -0.320382 -0.376602 0.0016284 -0.304465 -0.500326 -0.205673 -0.000534889 -0.393656 -0.186035 0.110536 -0.307648 -0.173675 -0.201906 -0.0806655 0.317702 -0.32813 -0.104974 -0.505511 0.103889 0.197365 0.00621045 0.401033 -0.478646 -0.209412 -0.0893352 -0.0115492 -0.109333 0.0992701 -0.508394 -0.398669 0.196961 -0.188991 0.0023933 0.399949 0.297671 -0.0107265 -0.491003 0.297382 0.191376 0.400667 -0.204876 -0.500156 -0.199712 -0.403864 0.399667 0.102209 0.393645 -0.200548 -0.500345 -0.0911464 -0.299283 0.426102 0.00389182 -0.409057 -0.299591 -0.297103 0.143354 -0.516521 -0.265325 0.292047 -0.49686 -0.502812 -0.00204652 -0.404568 0.199757 0.305554 0.293037 0.102448 -0.116174 -0.500373 -0.497979 0.092354 -0.501481 -0.0218647 -0.513853 -0.10728 -0.403118 -0.508723 0.00838222 0.000179114 0.184805 -0.401985 0.102863 -0.212112 -0.394507 -0.201039 -0.209536 -0.114193 -0.491929 0.298536 -0.293761 -0.0655197 -0.0954092 -0.266121 -0.504255 0.204975 -0.275063 -0.287017 -0.110436 0.39216 0.258265 0.422773 0.41086 0.409644 -0.161982 0.240864 0.191507 -0.0959593 0.323037 -0.400903 -0.0943154 0.104997 -0.385597 -0.100138 0.253134 -0.0573161 -0.100501 0.413087 -0.18242 0.204308 0.211523 -0.471933 -0.491011 0.427724 -0.0392963 0.213975 -0.388602 0.0476952 0.279719 0.0210707 0.278075 0.433793 -0.332919 -0.27764 -0.107929 0.199029 -0.459832 0.299475 0.309732 0.194875 0.0956505 -0.389653 0.443518 -0.407989 -0.107975 -0.223287 0.208569 0.425048 0.0466462 -0.308039 0.0897272 -0.469435 0.116555 -0.106443 -0.158244 0.0174072 -0.478393 -0.166189 0.174862 0.119004 -0.47438 0.402589 -0.47179 0.11262 -0.435118 0.196085 -0.153865 0.02791 0.406634 -0.504785 0.241137 0.112193 0.4016 -0.12114 -0.0993981 0.019521 0.289533 -0.398418 -0.435302 -0.353896 0.0190882 0.321081 0.342303 0.0187641 -0.19654 0.304738 0.307395 -0.148044 -0.519383 -0.470065 -0.403844 0.304196 -0.397856 -0.304233 0.0208664 -0.0410027 -0.299582 -0.0894697 0.00645112 0.301601 -0.175414 0.23981 0.0950796 0.0967867 -0.507126 -0.0682374 -0.398956 -0.163514 0.278544 -0.0936824 0.422915 0.207738 0.146652 -0.112912 -0.40551 -0.286294 0.239195 -0.197445 -0.382322 0.424951 -0.508023 -0.339121 0.101182 0.32421 0.184721 -0.278309 -0.387989 0.299902 -0.132997 -0.489758 -0.328448 -0.406236 -0.223411 -0.402147 -0.106052 -0.309958 0.00312961 -0.200436 -0.395517 0.166701 0.00303311 0.326258 -0.115941 0.227174 0.0695486 0.403086 -0.366483 -0.490157 -0.501236 0.14019 -0.4921 -0.247622 -0.103582 -0.396745 0.122424 -0.00843575 0.293822 0.051211 -0.0907839 -0.283824 -0.117658 0.40124 -0.496029 0.168662 -0.489889 -0.186897 -0.460967 0.0292736 0.207334 -0.182638 -0.281698 0.230627 0.0890263 -0.0795707 -0.174263 0.0676281 -0.158121 0.403023 -0.241939 -0.0821557 -0.58773 -0.388931 -0.302316 0.0921231 -0.315462 0.133276 -0.382863 0.16796 0.323139 0.0945209 0.0379133 -0.499176 0.0155416 -0.18067 -0.494675 -0.50672 0.0898549 0.444552 0.337085 0.455666 0.401461 -0.496702 0.0910301 0.169594 -0.468859 0.215835 0.196644 -0.0984611 0.133893 -0.274327 0.237015 0.330515 0.406961 -0.199717 0.196439 0.123873 -0.00883681 0.283069 -0.164971 0.421386 -0.385633 0.19397 0.338795 0.0987878 0.307725 0.332855 -0.383965 -0.385078 -0.048993 0.312226 -0.0976191 0.307076 0.00455307 0.0642385 0.115854 0.0982119 -0.415797 0.0286358 -0.430219 -0.198745 0.166734 0.105271 0.29867 -0.441053 -0.278264 0.32013 -0.396591 0.203849 -0.47723 -0.397168 0.235094 -0.120721 -0.495198 0.189704 -0.189086 -0.387992 0.0360963 -0.496813 0.429891 0.422512 -0.199787 -0.195257 -0.392295 0.442321 -0.0243529 0.317801 0.105424 0.00993791 -0.503848 -0.0895097 0.0237873 -0.499428 0.293215 0.437006 -0.293982 -0.187091 -0.109404 -0.508232 0.00873495 0.101997 -0.490617 -0.0164158 -0.329954 -0.019889 -0.478793 0.0392788 0.411065 0.210161 -0.496174 0.314255 0.347142 -0.00679439 -0.298921 0.115132 -0.191461 0.0936308 0.210859 0.24949 -0.394451 0.494905 -0.478246 0.0901102 -0.199908 0.116939 0.326058 -0.0769659 -0.274975 -0.193551 0.337292 -0.387553 0.0427441 0.40095 -0.399836 0.192075 -0.100446 0.420846 0.32284 -0.327836 0.112193 0.211221 -0.361537 0.258473 0.101163 -0.473289 -0.295908 -0.224206 0.170149 -0.284926 0.39994 -0.490919 0.40073 0.40003 0.00169006 0.406173 0.399648 0.0333318 0.0946427 -0.286991 -0.497933 -0.389374 -0.503023 -0.394469 -0.164893 0.398618 0.417934 -0.0195357 0.219001 -0.0847096 -0.411928 0.231266 -0.373271 0.19435 -0.292297 0.00165158 0.412527 0.367571 0.399793 0.18644 0.265825 0.297665 0.117941 -0.427958 -0.276728 0.335667 0.128268 0.211346 0.431924 0.0123721 0.00975857 -0.191884 0.348912 0.00543884 -0.259445 -0.519874 0.115815 -0.275711 0.407094 -0.427301 0.115126 -0.197312 0.389497 0.133837 0.315112 0.345655 0.426177 -0.40529 -0.47119 0.346902 -0.0133332 0.201884 -0.0691862 -0.19557 0.310686 -0.0854265 0.22125 -0.248875 -0.307335 0.100752 -0.506353 -0.200895 -0.387476 -0.0506539 0.113275 0.426401 0.0169376 -0.180668 0.113809 -0.407142 -0.479889 0.00164213 0.349574 0.0338756 -0.272304 -0.043106 0.399213 0.23519 -0.162259 -0.405249 -0.287766 -0.486861 0.0854141 0.0446518 -0.255973 -0.486547 0.325656 0.359474 -0.458771 0.427093 -0.0155165 0.420882 -0.394958 0.0324356 -0.420654 -0.396638 0.416363 -0.499456 0.302088 -0.289012 -0.474722 0.0682634 -0.201403 -0.496569 0.0939131 -0.396185 0.30107 0.093914 -0.182525 -0.399502 -0.2122 0.25144 0.405829 -0.39313 0.210714 0.312077 -0.0172632 0.196612 -0.150263 0.241536 0.227949 0.369458 0.0926422 0.135182 -0.474441 -0.320004 0.310762 0.316904 0.20454 -0.173843 0.417372 0.311099 -0.109337 -0.301587 -0.0870392 0.414802 -0.202379 0.112726 0.110605 -0.286262 -0.102213 -0.0352926 0.30064 -0.395217 -0.38544 0.402153 -0.381495 0.297557 -0.0761902 -0.390338 0.295282 -0.277879 -0.212053 -0.0874089 -0.3918 -0.280121 -0.220241 0.109732 0.00342495 0.228827 -0.095418 -0.296201 0.238188 0.165161 -0.315532 -0.0812676 0.00446411 -0.3839 0.400772 0.388761 -0.00923428 -0.385825 0.399869 0.00569819 -0.0300055 0.473679 -0.220766 0.341387 0.394157 -0.188297 -0.25967 -0.309952 0.204017 0.227173 0.499305 -0.47491 0.0329794 -0.304455 -0.207154 -0.19126 0.424146 -0.48666 -0.189326 0.200677 0.39042 0.101002 -0.191335 -0.0146987 -0.154983 -0.485233 0.0224364 -0.00383916 0.316948 -0.00718393 -0.508592 -0.0816037 -0.391247 -0.116005 0.214606 -0.280232 -0.0105645 0.00266738 -0.101034 -0.302597 -0.511485 -0.40188 0.44606 0.0253393 -0.399284 0.0888503 -0.020927 -0.49542 0.310055 -0.0723852 0.321837 -0.396619 0.410691 -0.4609 -0.373843 -0.494595 0.125673 -0.39367 0.00882589 -0.400206 -0.387872 -0.0660487 0.235994 -0.0911632 -0.303847 -0.081229 0.263162 0.204653 0.418477 -0.502627 -0.152036 -0.508917 0.399473 0.120705 -0.394607 0.485435 0.410266 0.302762 0.351031 -0.493943 0.0922765 0.241533 -0.311724 0.298639 -0.528553 -0.491128 -0.431689 -0.409655 -0.318249 0.179983 -0.349958 -0.304697 0.156878 0.0859829 -0.503654 -0.492204 0.122608 0.10421 0.307078 0.21717 -0.121816 -0.472298 0.0329621 0.402817 -0.518241 0.297575 -0.21773 -0.514201 0.0685271 -0.140844 -0.235424 -0.400965 0.365571 -0.113083 -0.398412 -0.065163 0.00830997 -0.321193 -0.0396521 -0.390226 -0.0574306 0.384755 0.245742 0.289711 0.121132 -0.0995456 0.3364 -0.493184 -0.419019 -0.0217513 0.10143 -0.393652 -0.233745 -0.192889 -0.0904362 -0.195395 0.074 -0.519221 0.0322063 0.294551 -0.397404 0.124666 0.205019 0.195433 -0.38853 -0.51213 0.293323 0.403368 0.0968316 0.435779 -0.000288888 0.00375734 -0.134919 -0.494712 -0.0963519 0.1104 -0.33573 0.344031 0.14289 0.403167 0.299936 0.378945 -0.382501 0.0306868 -0.224058 -0.32276 -0.0659127 -0.258683 -0.394184 -0.352113 -0.098926 0.398321 0.0994707 0.221269 0.115406 -0.188088 0.280905 -0.164486 0.241478 -0.210273 -0.0978851 -0.418746 -0.092904 0.200286 -0.0108557 0.348303 0.433161 -0.205536 -0.00351652 0.0653571 0.497356 -0.50506 -0.308915 -0.326717 -0.493124 -0.285397 -0.373369 0.337983 -0.1988 0.405912 0.0464438 0.428585 0.238951 0.30071 -0.296052 0.199711 0.217734 -0.373731 0.375942 0.422977 0.0733616 -0.486196 -0.535855 -0.0153395 0.106607 0.0949897 -0.326525 -0.448106 -0.15144 -0.330324 -0.0315659 0.093519 -0.0478301 0.0960338 -0.398743 0.283267 -0.493213 0.0385224 -0.0974172 0.199332 -0.0633298 -0.0079753 0.108945 -0.00357049 0.0394084 -0.378334 -0.412797 0.101755 0.112259 0.0680721 0.0971649 0.30287 0.417155 0.244101 0.420323 -0.211138 -0.214849 0.402243 0.274261 -0.296167 -0.201048 -0.0662149 -0.161213 0.00596135 0.353383 -0.327664 -0.0982053 0.208509 -0.0108331 -0.421085 -0.031097 0.233597 -0.29471 -0.300061 -0.148501 -0.373792 0.440297 0.0269043 0.520877 0.356777 -0.167346 -0.206504 -0.316171 -0.0496112 -0.480585 -0.218659 -0.0990107 0.308511 0.31655 0.406307 -0.51765 0.0897221 -0.2852 0.127823 0.344297 -0.174623 -0.0344355 0.0982868 0.101972 -0.383257 -0.386746 -0.244171 -0.223916 -0.199456 0.193758 -0.1957 0.116793 0.26687 0.38888 0.442339 -0.340956 0.0175792 -0.0871006 0.152026 -0.114577 0.277947 0.476519 0.258662 0.46702 -0.502279 0.0525592 0.105993 -0.486574 -0.291031 -0.00610727 -0.0054593 0.571265 0.380154 0.402256 -0.378849 -0.398225 0.0717713 0.106144 -0.0750186 0.26911 0.20623 -0.190501 -0.310805 0.0992934 -0.199779 0.365318 0.201614 -0.385365 0.0277956 -0.357139 0.231648 -0.209845 -0.0926361 0.227718 0.0360786 -0.290397 0.400093 -0.474397 -0.194844 -0.267836 0.112757 0.282291 0.395098 0.142107 0.243528 -0.0906612 0.112562 -0.335627 0.420214 -0.081363 -0.474935 0.105813 0.222195 0.205746 -0.354693 0.282794 -0.211134 -0.0991991 -0.396854 0.101375 0.314002 0.343001 -0.50076 0.394398 -0.416933 -0.0246662 0.422853 -0.116658 0.283191 0.113043 0.128484 0.105062 -0.506063 -0.216802 0.0441875 0.101469 0.0967186 -0.203708 0.308881 -0.167145 -0.0769814 -0.0975755 -0.15226 0.402685 0.360988 0.210954 0.305081 -0.116567 0.203624 -0.0608056 -0.404401 -0.397414 0.301427 -0.231063 -0.39766 -0.3007 -0.377549 0.283256 -0.406597 0.328329 0.262196 0.407418 -0.0622652 0.263986 -0.0981925 -0.434841 0.0543411 -0.0929622 0.0790534 -0.52522 0.30452 0.206164 -0.00397523 0.395171 -0.413837 -0.202199 0.151543 -0.365796 0.179587 -0.401733 0.408457 -0.299224 0.224948 -0.0743777 -0.546151 -0.059083 -0.0493343 0.000487066 0.371866 0.0203749 -0.33695 0.0874677 0.244665 -0.322784 -0.114282 0.10027 -0.498804 -7.96611e-05 0.383728 -0.152254 -0.523442 0.149118 0.403082 0.0560127 -0.407676 -0.122939 0.18701 -0.0128203 -0.314821 -0.109604 0.00139772 -0.195511 0.321844 0.0903792 0.101825 0.39778 0.0574004 -0.474984 -0.0555619 -0.0181545 0.0416002 -0.398453 0.417307 -0.254497 0.0944069 0.000704637 -0.284227 0.202694 0.0474429 -0.268602 -0.343898 -0.115953 0.405718 -0.133734 -0.481273 -0.397312 -0.41435 0.338437 0.441263 -0.294851 0.196786 -0.517381 -0.512626 0.259267 -0.333124 0.429416 0.296813 -0.388561 0.203215 0.212044 -0.303633 -0.41434 0.433412 0.361107 -0.214965 -0.137688 -0.317256 0.0953194 -0.453105 -0.265475 -0.152161 -0.492413 -0.211751 -0.0680347 0.378735 0.234683 -0.0941259 -0.0919947 -0.102304 0.0268599 -0.216683 -0.409095 0.187566 -0.468287 -0.399132 0.338254 0.132395 0.00457996 0.29579 -0.277543 -0.477033 -0.0268167 -0.176705 -0.0988039 -0.00212568 -0.52646 -0.30709 0.279467 -0.120898 -0.481667 0.294875 0.309941 -0.175409 -0.202272 0.310628 -0.491826 0.0808516 -0.239964 0.104983 -0.122096 -0.197222 -0.359161 -0.408619 -0.0720652 0.112042 0.32248 -0.409648 0.00469814 0.172805 -0.305431 -0.369852 0.423599 -0.181572 -0.428295 0.110007 0.359542 -0.300632 0.195353 -0.409263 0.386015 -0.00240002 0.29692 0.0654183 -0.155239 -0.0853012 -0.322319 -0.415323 0.160417 0.292838 0.428761 0.307577 0.143587 0.0420454 0.520865 0.0151634 0.0319044 -0.244193 -0.597259 0.0871499 0.283254 -0.203226 0.00417266 0.115707 -0.475422 0.0927742 0.295749 -0.499574 -0.39772 -0.514261 0.399678 0.162509 -0.181306 0.173721 0.1914 0.0693914 0.0395 -0.0967213 -0.138852 -0.257061 -0.083317 -0.195185 -0.535253 -0.195695 -0.378688 -0.296874 -0.46927 -0.0861297 0.414608 -0.430993 0.42331 -0.0863342 0.0113539 -0.500116 0.177117 -0.376021 -0.0165546 0.0913691 0.411049 0.0912866 0.148736 -0.0883121 -0.111646 0.00175161 -0.18614 -0.395457 0.00878157 -0.493974 -0.497227 -0.388671 -0.179996 -0.0949417 0.0921104 0.0053521 0.110207 -0.311819 0.0523132 0.389092 -0.293957 0.347205 -0.219067 0.341573 -0.419961 0.0384589 0.403549 -0.363235 -0.297391 -0.106138 0.0984379 0.065921 -0.211313 -0.123094 -0.369798 0.00184711 -0.0872096 0.211237 -0.20641 0.442446 -0.461351 0.407585 -0.192771 -0.296043 -0.0602855 -0.38352 -0.0874393 -0.316186 -0.413191 -0.0940689 0.286314 -0.390121 0.343439 0.0240211 -0.090207 0.301431 0.298312 -0.416409 0.0181958 0.14778 -0.495758 0.106982 -0.279571 0.288964 -0.409983 0.0229454 -0.143164 0.422049 -0.043247 0.402817 0.16162 -0.315189 -0.499169 -0.396227 -0.10938 0.301038 -0.503253 -0.101104 0.211854 -0.198613 0.101162 -0.495752 -0.241657 -0.506613 -0.49209 -0.0939459 -0.187727 -0.383041 0.351418 -0.00646678 -0.413173 -0.101005 0.306269 -0.0287141 -0.403474 0.463769 -0.479585 -0.388876 -0.290854 -0.32148 -0.467666 -0.294562 0.343355 -0.100323 -0.401775 0.202094 -0.295957 -0.194145 -0.317787 0.0208425 0.378595 -0.351757 0.398788 0.196861 0.233194 -0.297906 0.366387 -0.416732 -0.508804 0.129818 0.19297 0.402249 0.211795 -0.0208269 -0.50342 -0.110339 -0.0877297 -0.0310704 0.0133012 -0.00464935 -0.276544 -0.198517 0.0679583 0.212802 0.33445 -0.376848 -0.185107 -0.505287 0.0997089 -0.475395 -0.490266 -0.0695629 0.448633 -0.0308048 0.0855903 -0.126074 -0.300756 -0.192965 0.20416 -0.344178 -0.204129 0.104074 -0.402851 -0.506876 0.11697 -0.512175 0.292503 -0.408766 0.399569 -0.167527 -0.00153794 -0.161731 -0.398565 0.383854 0.399507 -0.0997169 0.201261 -0.185283 -0.129453 -0.203864 -0.482185 -0.415854 -0.102708 -0.213886 0.198227 -0.525825 0.09735 0.00321275 -0.363225 -0.434263 -0.295376 0.411213 0.0107781 -0.499522 -0.210078 0.0808586 0.289404 -0.409334 -0.542954 0.211283 -0.533148 -0.0623069 0.401819 0.0910564 -0.250821 0.0977231 0.0422106 -0.199194 -0.364682 -0.0667372 -0.406596 0.290312 0.200139 0.112767 -0.406537 -0.368483 0.303513 -0.397365 -0.45255 0.40153 0.46484 0.000775674 0.255104 -0.500419 0.0274422 0.206816 -0.19864 0.401219 0.300619 -0.101759 0.411243 0.0188034 -0.305452 0.421149 -0.291608 0.39884 -0.562576 -0.221159 0.403294 -0.271338 -0.021941 0.0995997 0.217959 -0.481678 0.302099 -0.202593 -0.0310524 -0.0074587 0.206697 -0.125986 -0.102202 -0.0186367 0.143473 0.406991 -0.029916 -0.00843086 0.448913 -0.464965 0.170345 -0.30689 0.363129 0.401919 -0.554729 -0.0893985 -0.294214 0.205957 0.308749 -0.278285 -0.156806 0.0799754 -0.398226 0.31673 -0.392116 -0.42707 0.301087 -0.149307 -0.505768 -0.51467 -0.116648 -0.000608507 0.0910134 0.405676 -0.198916 -0.0903534 -0.104707 -0.440119 -0.0744221 0.341402 -0.402462 0.412721 -0.398918 -0.322988 0.298714 0.323963 -0.37034 0.406235 -0.243555 0.317707 -0.171148 0.107576 -0.404626 -0.494013 -0.204413 0.304364 -0.264495 -0.189596 0.311332 -0.490553 -0.397765 0.35291 0.403642 0.330694 0.303946 0.410308 -0.29054 -0.425909 -0.0357554 0.30146 0.351652 0.244412 -0.315748 -0.433096 -0.328239 0.0122282 0.379638 0.00299647 -0.135182 0.0944278 0.196431 -0.221839 -0.0131718 -0.393747 -0.00301905 -0.206527 0.097749 0.195968 0.014109 0.122177 -0.307006 -0.211675 -0.418195 -0.00357208 -0.289787 0.0842581 0.135278 0.253604 -0.300899 -0.211842 -0.575027 -0.0764164 -0.40087 0.198711 -0.0975271 -0.0254697 -0.306559 -0.201633 0.208046 -0.378064 -0.538675 0.0898884 -0.296583 -0.301608 -0.407945 0.0983977 0.0871272 0.23935 0.0593571 -0.460918 0.20197 0.144595 -0.0929944 0.00983972 0.159109 -0.534324 -0.297976 -0.408101 -0.497496 0.0674386 0.0106146 0.401472 -0.280248 -0.216448 -0.206254 -0.171662 -0.201797 0.412832 0.0136486 -0.400781 -0.396605 0.255324 -0.0990141 -0.189225 -0.503309 -0.0244769 -0.207147 0.222944 -0.390409 0.25575 -0.206259 -0.392808 0.299896 -0.130264 -0.0697614 -0.19085 0.293448 0.404111 -0.0849566 0.302151 0.403177 -0.284055 -0.301362 -0.422374 -0.300714 -0.00331455 0.401054 -0.0362295 -0.225388 -0.318937 -0.210279 0.511043 0.393256 0.272205 -0.489964 0.377308 0.00687222 0.294416 0.218791 -0.00783243 -0.410197 -0.400107 -0.301418 -0.268722 0.0989349 0.198495 -0.132062 0.201222 0.0769702 0.0142352 -0.404036 -0.104638 0.212996 0.310331 -0.201069 0.00191385 -0.296493 -0.00325297 -0.423368 0.299704 -0.395257 -0.292181 0.394306 -0.317204 -0.501631 -0.357227 0.315035 -0.212382 -0.405844 0.0916112 -0.496987 -0.46343 0.315742 -0.485891 0.192871 0.0676398 -0.0322234 0.102781 -0.173528 0.112315 -0.101171 -0.315704 -0.367471 0.0239404 -0.277655 0.218978 -0.483824 -0.49756 -0.358164 -0.0439442 0.00214238 -0.393755 0.129265 -0.158162 0.393125 0.198455 -0.0898175 -0.496171 0.125176 0.199076 -0.163841 -0.103785 -0.19507 -0.122096 -0.119396 0.242996 0.429264 -0.218446 0.226612 0.196436 0.101404 0.276359 0.390544 -0.262563 0.39582 -0.0794256 -0.283298 -0.199989 -0.055394 -0.0901876 0.471478 0.184799 -0.295837 0.196936 -0.0993063 0.3056 0.184141 -0.177907 0.299853 -0.501341 -0.509292 -0.399215 -0.479476 0.0541913 0.111323 0.00182449 0.30922 -0.0202289 0.119722 -0.30702 -0.11063 0.397937 -0.347928 0.311064 -0.238993 0.421575 0.328683 0.00951018 -0.277225 -0.190828 -0.450162 -0.279306 -0.294245 -0.513445 -0.500106 0.0027834 -0.0162719 0.0168591 0.124866 -0.397186 0.203237 0.292152 0.41185 0.398673 0.219495 0.105053 0.419636 -0.287608 -0.510478 0.104355 0.315009 -0.095182 -0.365158 -0.184733 -0.239825 -0.285417 0.393505 0.0339443 -0.340081 -0.400505 -0.319189 -0.163042 0.16266 0.399412 -0.00436159 0.100093 0.400653 -0.283544 -0.0126191 -0.20821 -0.394177 0.098214 -0.200606 -0.0248196 -0.198175 0.421027 -0.199127 0.199977 0.319509 -0.493138 -0.430585 0.0939527 -0.0577017 -0.0305478 0.185073 -0.185804 0.0714898 -0.196307 0.307158 0.199283 -0.207232 -0.108887 -0.0718135 -0.319361 -0.507481 -0.301366 0.395345 0.19906 0.298749 0.0790002 -0.164754 0.304937 -0.302358 0.208955 0.0724953 0.0189482 -0.49451 -0.498808 -0.30352 0.0215237 -0.292584 0.299274 0.0100381 -0.396505 0.323683 -0.200199 -0.388828 0.302944 -0.500702 0.340929 0.316075 -0.391154 0.280569 -0.191248 0.407493 -0.187164 -0.369613 0.284039 0.102526 -0.429542 -0.299874 -0.0951352 0.397235 -0.0152606 0.392736 0.302648 0.0130675 0.196293 0.190215 0.0856829 -0.505615 -0.0848956 -0.304493 -0.402137 0.111617 0.402456 -0.100747 0.114181 -0.383544 -0.282802 0.453621 0.102675 0.388495 0.214645 0.2077 0.415114 0.066737 -0.0854744 -0.0924581 0.29163 -0.24627 -0.48681 0.103755 -0.18703 -0.194579 -0.496062 0.399613 -0.241226 0.252314 0.0320303 -0.230592 0.342068 0.305018 -0.100797 0.25419 0.417144 0.0614892 -0.492895 0.44686 0.0898761 -0.276905 0.0346019 0.436708 -0.55241 -0.276618 -0.314207 0.289969 -0.257001 0.0367208 -0.177146 -0.519297 0.12009 0.0221223 0.215566 -0.39058 -0.154067 -0.495157 0.330007 -0.268041 0.222801 0.0777597 0.164126 -0.2924 -0.0689099 0.462669 -0.203925 -0.310681 -0.283148 -0.0942888 0.0929664 0.392823 -0.389325 -0.236148 0.435752 -0.382843 -0.42801 0.183211 -0.503021 -0.115416 -0.062493 -0.00782381 -0.311765 0.317932 0.190878 0.14912 -0.00804449 -0.275009 0.354919 -0.408079 -0.101157 -0.494573 -0.222703 -0.478088 -0.190328 -0.226199 -0.119506 0.291977 0.0281711 -0.11238 0.306463 -0.499051 -0.473469 -0.505367 -0.53635 0.0352253 -0.251206 -0.477128 -0.499141 -0.275491 0.00154527 -0.602458 -0.563907 -0.0062073 -0.383453 0.189793 0.530037 0.0844747 -0.097022 -0.529796 -0.49492 -0.296774 0.0587073 -0.0143644 -0.380979 -0.0645283 0.316436 -0.203869 0.420177 -0.0425692 -0.513634 -0.470853 -0.410476 0.227662 -0.00657398 0.199783 0.302826 0.20776 0.351669 -0.502918 -0.170796 0.478552 -0.427379 0.0859559 -0.515628 -0.297589 0.100872 0.104348 -0.316434 0.333474 0.396422 -0.282779 0.26428 0.240232 0.0745664 0.313496 -0.0984926 0.455083 0.513999 0.0368884 -0.454424 0.312164 -0.0667946 0.29821 -0.477378 0.305273 0.297526 -0.404084 0.0855984 -0.196692 0.405836 0.421221 -0.390364 -0.208138 -0.205234 -0.379709 -0.403582 -0.0740281 0.504999 0.095475 0.394061 -0.186038 -0.502911 0.214436 0.195345 0.217285 0.24595 -0.29698 -0.468013 0.113525 -0.035469 -0.389362 0.143871 -0.324563 -0.47909 -0.0379056 0.293822 -0.192771 0.103002 0.172033 0.00398387 0.205233 -0.297816 0.393527 0.429887 0.281373 0.408146 -0.126908 0.332565 0.471827 0.457249 0.261761 -0.22731 -0.22621 0.00323697 -0.36624 -0.176194 0.106768 0.420252 0.405421 0.391908 0.0962721 -0.399119 -0.496228 0.300768 -0.0790988 0.262133 0.059057 0.500044 -0.202547 0.291913 -0.477355 0.0268539 -0.390244 0.422923 -0.00139517 -0.100245 0.439557 -0.356715 -0.0764563 -0.3314 -0.0395841 -0.324357 -0.394551 0.0721109 -0.0368225 -0.268705 -0.0959745 -0.477267 -0.107202 0.135525 -0.205138 -0.482953 0.341128 0.272286 -0.0947977 -0.4806 -0.173825 0.0322787 -0.0850075 -0.1076 -0.192507 0.0969474 0.0116336 -0.119318 0.0354227 0.132985 -0.063371 -0.423482 0.331594 -0.454767 -0.145659 0.390558 0.617546 -0.261882 -0.143378 -0.090708 0.432849 0.404723 -0.399747 -0.383265 -0.010005 0.37385 -0.482162 -0.415791 -0.454268 -0.491855 0.251418 -0.214723 -0.0374692 -0.0640204 -0.0203687 0.406107 0.155365 -0.515182 -0.201609 0.404201 -0.299156 -0.210872 -0.0717047 -0.190908 -0.304639 0.228228 -0.0824126 -0.00328522 0.432881 -0.229728 -0.219476 -0.494838 0.042208 0.198833 -0.327512 0.458969 -0.126756 0.00837616 0.357728 0.00571218 -0.340485 -0.396876 0.253426 0.357854 0.303546 -0.0483608 0.41215 -0.489269 0.308379 0.0836375 0.114426 0.409708 0.129581 0.311961 0.407976 -0.00849505 0.210001 0.00282235 0.404896 -0.295437 -0.352166 0.0405515 0.100855 -0.488792 -0.404432 -0.568795 0.19736 -0.201065 -0.482726 0.470662 0.208561 0.301209 0.108767 -0.349657 -0.158296 -0.150381 0.205657 -0.0362274 -0.336853 -0.385324 -0.00817716 0.292492 -0.232283 0.0171807 0.119124 -0.426625 0.198123 0.515956 -0.0032643 -0.41049 0.308153 -0.243566 -0.244708 0.305725 0.277034 -0.185531 0.0927378 0.111223 -0.164763 0.423937 -0.196059 -0.281161 0.314302 0.11107 -0.111317 -0.502086 -0.106608 -0.2091 0.383245 -0.26166 0.38767 0.422431 0.122956 0.0963362 -0.308098 0.193159 0.104038 0.293968 -0.08341 -0.0890744 0.306313 -0.131158 0.390786 -0.196701 0.171203 -0.485453 0.00388343 -0.428937 0.199739 0.464326 -0.470908 0.339948 -0.534505 -0.214706 0.116741 -0.501661 0.0666871 0.141694 -0.3476 0.243608 0.297004 -0.494377 0.0779371 -0.0981297 0.089327 -0.187562 -0.176746 0.379947 0.499989 -0.280221 0.101328 -0.288046 -0.129039 -0.382735 0.40534 0.337358 0.293175 0.23012 0.0270783 -0.115063 -0.459954 0.132606 0.236313 0.284281 0.0843195 0.0841847 0.21053 0.235864 -0.528522 -0.378845 -0.177914 -0.518712 -0.384931 -0.250592 -0.339797 -0.361792 0.390162 -0.0693164 0.140866 -0.460813 0.0168587 -0.0908826 0.0396764 -0.0139397 0.462591 -0.236557 -0.477924 -0.503708 0.187594 -0.3059 0.429332 -0.266714 -0.385253 -0.323497 0.178595 0.334096 0.421596 -0.506215 -0.106967 -0.188338 -0.240331 -0.32277 0.454771 -0.270858 0.043924 -0.184168 -0.458402 -0.511089 0.326502 0.299054 -0.180056 0.00680708 -0.371278 -0.487764 -0.0614201 0.326216 0.0864866 -0.265868 0.304005 -0.516646 0.47962 0.410634 -0.352902 -0.379766 -0.473582 -0.0047023 0.00997834 0.411676 -0.0904755 -0.0841033 0.0463118 -0.164095 -0.315863 -0.390501 0.0452668 -0.185757 0.355628 0.406798 -0.364353 -0.476576 0.0989559 0.334642 0.42236 0.107972 0.40271 0.0337656 0.0650979 -0.493054 -0.183611 -0.370349 -0.300451 0.00179452 0.0607515 0.0921543 -0.316668 -0.276276 0.00110106 0.274946 -0.000982923 0.191331 -0.0160617 0.303092 0.277758 -0.266965 -0.00409852 0.167211 -0.111804 -0.307188 0.222449 -0.469354 -0.213972 -0.227692 0.390073 -0.26677 -0.552379 -0.327754 0.346706 0.0631336 0.0728257 0.308477 -0.201165 0.336305 -0.230128 0.0817487 -0.20199 -0.191854 0.314246 0.470738 -0.449139 0.309468 0.33063 0.00401442 0.0556025 -0.496967 -0.0934244 -0.00515435 0.289807 0.0153464 -0.0573229 -0.488607 0.132282 -0.310893 -0.380729 0.0289773 -0.295935 -0.498803 0.0878566 0.32859 -0.0594168 0.245037 -0.271014 0.184042 -0.524704 0.0295663 -0.382948 0.314122 0.324519 0.36637 -0.189171 0.41989 -0.55867 0.305291 0.0876257 0.333668 0.213492 0.323827 0.00830474 -0.188464 0.0926413 -0.456813 0.291918 -0.47904 -0.175797 0.431384 -0.18361 -0.0247363 -0.20713 0.190835 0.105947 -0.415633 -0.102668 0.0968121 -0.359499 -0.17558 -0.224789 -0.274382 0.103049 0.000448995 0.221398 0.022236 -0.354765 -0.0207865 -0.125634 0.293682 0.365124 0.431505 -0.364295 -0.300815 -0.303107 0.398477 0.201787 0.405922 0.398168 -0.199751 -0.39336 -0.389031 0.1269 -0.499512 -0.32015 0.302955 0.0864761 -0.393762 0.285952 -0.38578 -0.32413 0.336534 -0.50127 -0.417102 0.216584 -0.0118446 -0.314699 0.299062 -0.192391 -0.40384 0.0316546 -0.503527 0.294918 0.410465 -0.497095 -0.49751 0.208277 -0.0984193 -0.379206 0.311705 0.28723 -0.500996 -0.0341525 0.116946 0.198431 -0.102712 -0.212913 0.223563 -0.0803745 0.348259 0.408655 0.11934 -0.153081 0.299544 0.458654 -0.298107 0.169122 0.114406 -0.30364 -0.553777 -0.393726 -0.289229 0.198537 0.32512 0.098058 -0.295971 -0.192693 0.299084 -0.0963926 0.193722 0.401053 -0.387252 0.197692 -0.457591 0.105866 0.224978 -0.378198 -0.104226 -0.00548983 -0.300665 -0.223675 0.291799 -0.298668 -0.200951 -0.398957 -0.512014 -0.00485293 0.193155 0.197886 -0.501226 -0.199602 0.134902 -0.174743 0.306075 0.111315 -0.510259 0.209304 -0.397708 0.307567 -0.431772 -0.106231 0.214416 -0.479802 -0.0960537 -0.0885531 -0.283523 -0.00745257 -0.291915 -0.394339 -0.400756 -0.109116 -0.405074 0.17161 0.031016 0.369522 -0.199309 0.114449 0.396477 0.203635 -0.141471 0.0472701 0.20847 0.142587 -0.477012 0.397071 0.104653 -0.415845 -0.539994 -0.405517 -0.00360794 0.0275892 0.211929 -0.170273 -0.394986 0.100118 -0.0905268 -0.294905 -0.360263 0.0989443 0.39868 -0.451663 -0.289704 0.234745 0.30085 0.293086 -0.293131 0.202963 -0.252591 0.303632 -0.0552557 0.303915 -0.29933 0.301526 -0.504996 0.327897 0.207992 -0.151647 -0.101127 0.436948 -0.461287 -0.200801 -0.162128 -0.210177 -0.10027 -0.298104 -0.372886 -0.0929149 -0.197974 -0.06159 0.369794 0.349481 -0.469412 -0.393765 -0.283245 -0.16121 -0.20056 0.399666 -0.386086 -0.112204 -0.41296 -0.407592 0.13381 -0.365816 0.149558 -0.139998 0.301259 -0.00213102 0.394305 -0.0973112 -0.201856 -0.157138 -0.488545 0.212303 0.328609 -0.137277 -0.108535 0.238403 0.298867 -0.00407146 0.413439 -0.309738 0.15654 0.322974 0.211143 0.209387 -0.489012 -0.20273 -0.514776 -0.136026 0.050193 -0.0749699 0.454028 -0.197914 -0.405577 -0.094501 -0.387678 0.286428 -0.0759906 -0.343341 -0.496438 -0.244003 0.285792 -0.316203 -0.52479 -0.00661063 -0.199062 0.346826 0.00488949 0.293596 -0.414399 0.200575 0.161795 0.309369 -0.145616 -0.302171 -0.340788 -0.0113551 -0.394444 -0.277458 0.114361 0.31219 0.0874493 0.263881 0.36053 -0.487554 0.0526886 -0.421825 -0.400565 -0.487923 -0.051784 -0.500347 0.0103851 -0.209985 0.289762 0.100597 0.21935 -0.310213 0.201342 0.123329 0.0323097 -0.298498 -0.392584 0.18056 0.100302 0.29726 0.415641 0.010331 -0.231069 -0.490724 0.0900588 0.327918 0.00377936 0.010426 -0.398304 0.408725 0.236096 0.450641 0.202228 -0.286089 -0.0941167 0.0632166 0.00553408 -0.401897 0.301852 0.29726 0.194438 -0.382381 -0.291656 -0.406224 -0.399957 -0.296353 0.105066 0.0236982 0.0178697 -0.281826 0.441486 0.292424 -0.409128 0.104974 0.0215426 -0.404592 -0.398841 0.00919511 0.136163 0.19447 -0.374525 0.0162523 0.290752 0.336025 -0.196614 -0.192983 0.338746 0.199533 -0.207634 0.397087 0.0814283 0.116835 0.137476 -0.275178 0.375981 -0.397564 -0.48105 -0.00189919 0.203396 -0.312953 -0.503398 -0.48863 0.190775 0.424791 0.00237303 -0.191715 0.0199271 0.20283 0.214594 0.433597 -0.301534 -0.400353 -0.191122 -0.488227 0.31856 -0.204162 0.0801923 -0.103062 0.127863 0.325244 -0.30921 -0.0833681 0.403313 -0.329337 -0.397254 -0.491489 0.100078 -0.295871 0.335674 -0.420294 -0.084022 -0.212589 -0.194513 0.109056 -0.201955 0.287288 -0.508272 0.00550255 0.0108384 -0.0828722 0.102842 0.401276 -0.381813 -0.371531 0.100384 0.306617 0.45799 0.0052197 0.386141 0.37611 -0.0137425 -0.188873 -0.210416 -0.0135869 -0.503274 -0.503565 -0.0724122 0.177056 -0.192757 -0.491928 -0.0290773 0.017981 -0.501008 -0.549696 -0.301063 0.207725 -0.127483 -0.025641 0.268959 0.200043 -0.0924881 0.30099 0.206507 0.213115 0.34137 -0.205385 -0.00163721 -0.306148 -0.521898 0.41217 0.0300509 0.316641 -0.00342913 0.102493 0.219845 -0.130503 0.427921 -0.294466 0.301163 -0.504261 -0.221405 -0.407875 0.394428 -0.398166 -0.319613 0.142431 0.282661 0.211974 -0.15548 -0.308942 0.109289 0.423741 0.315779 -0.264757 -0.296091 0.0636417 0.414492 -0.0832939 -0.194956 0.39329 -0.401689 -0.00559707 0.231188 0.0013638 0.0112488 -0.393631 0.410945 0.422676 0.329743 -0.202053 -0.188251 -0.0902524 0.157125 -0.209349 0.114885 -0.477808 0.314068 0.396076 0.289565 -0.296499 0.00476917 0.00850186 0.0232167 -0.400559 -0.391671 0.101915 0.0713029 -0.393663 0.298904 0.302655 -0.512279 0.208655 -0.390509 -0.380652 -0.000257059 -0.396602 0.210715 -0.0918992 -0.297903 0.404809 0.0167452 -0.0337147 -0.248688 -0.206201 -0.418004 -0.303586 -0.479734 -0.429633 0.321004 -0.191129 -0.188356 0.0102649 -0.16512 -0.142703 0.305223 -0.0555799 0.184132 -0.228665 -0.490451 0.344077 -0.107292 -0.197597 -0.266174 -0.21279 -0.362186 0.327993 0.300877 0.302935 0.018058 0.30229 -0.51026 0.202157 0.287918 -0.188197 -0.0262659 0.190902 0.342908 -0.295405 -0.304755 0.284505 -0.408237 0.357914 -0.107588 -0.365674 -0.000373903 -0.393163 0.109361 -0.418123 0.105594 -0.159299 0.294999 -0.201086 0.0913881 -0.0694677 0.172617 0.0878719 0.400332 0.104708 0.115652 0.279148 -0.180359 -0.302435 0.33807 0.000620431 -0.276151 0.00275643 0.200752 0.215365 -0.189266 -0.528079 -0.199658 0.113987 -0.29583 0.205743 -0.295659 -0.358934 0.272763 0.202347 -0.333599 -0.0269712 0.0010046 -0.407186 0.203913 0.304646 -0.0900213 0.297292 0.000520283 -0.500172 -0.255588 -0.183609 0.118184 0.384656 -0.501852 0.29926 -0.469524 -0.396605 0.293384 0.407313 0.199622 -0.491895 -0.00155506 0.0434581 0.403923 0.30171 -0.211679 -0.46609 -0.490009 -0.485895 -0.414673 -0.188771 -0.167722 -0.53328 0.100977 0.324918 0.392429 -0.00124371 -0.131065 0.209372 0.102848 -0.308437 -0.255732 0.361129 -0.0472867 -0.219706 0.305944 0.121756 0.00683763 0.148721 -0.472425 0.313934 0.10617 -0.424388 0.0936826 0.0159523 0.0114245 -0.146846 -0.409151 0.302548 -0.229547 0.298043 0.192562 -0.419706 0.226744 -0.0723756 -0.25504 0.192535 -0.182018 0.412903 0.12125 -0.413295 0.372847 0.0876369 -0.549225 0.0459107 0.393622 0.171904 -0.28645 0.37019 -0.180326 0.158558 0.4008 -0.516318 -0.189219 0.406726 -0.507023 0.09538 -0.108008 0.267481 -0.0923712 -0.106146 -0.133516 0.484991 0.300969 0.311474 -0.00668036 0.00357639 0.294079 -0.39194 0.392951 -0.198666 -0.490091 -0.0861442 0.00649303 0.378805 0.31833 -0.090027 -0.103275 -0.195766 0.408011 0.0111212 0.0760846 -0.468463 0.406471 0.35037 0.313404 0.299149 0.204329 0.188734 0.34026 0.392394 -0.49384 0.458097 -0.00210122 -0.488869 0.308106 -0.371242 -0.403357 0.005171 -0.104137 -0.0676893 0.283088 -0.212574 0.315046 -0.299425 -0.492949 -0.298197 -0.199775 -0.302719 -0.186458 0.200401 0.251495 -0.30232 -0.0869174 -0.00406646 0.3388 -0.305323 -0.297807 0.101498 -0.0485857 -0.10852 -0.210719 -0.504606 0.22481 -0.504415 0.0128506 0.314223 -0.240612 -0.405032 -0.487363 -0.391859 -0.102539 -0.489311 -0.221318 0.409623 -0.0855903 -0.175133 -0.375418 -0.00666853 0.0649768 0.211448 -0.295838 0.0583179 -0.0625108 0.23957 -0.313118 -0.00916468 -0.0756715 -0.0808762 -0.410976 0.097621 0.370011 -0.403996 0.381874 -0.299446 -0.40288 0.368193 0.220315 -0.0174481 -0.202783 -0.479325 -0.498506 -0.507306 -0.301414 -0.202884 -0.184678 0.204659 -0.000387264 0.205264 -0.311073 -0.194312 -0.308923 -0.0178308 -0.304641 0.487522 -0.514216 0.100146 -0.136774 0.382719 0.00836674 0.230014 -0.223577 0.00353806 -0.502179 -0.424664 -0.109592 -0.497927 -0.11704 -0.297563 -0.487204 0.0708808 -0.297631 -0.450083 -0.288748 -0.414829 -0.517802 0.204375 0.00580531 0.118481 -0.231867 -0.333083 -0.309627 0.0022114 -0.105246 -0.384283 -0.43298 0.00155823 -0.412847 -0.496199 -0.167356 -0.0903531 -0.222328 0.427898 -0.216304 -0.197063 0.302827 0.294989 -0.370776 0.32025 -0.497383 -0.495583 -0.410996 -0.499971 0.194134 -0.0349799 -0.369098 -0.42997 -0.372185 0.18728 -0.445705 0.0846384 -0.0990553 0.279023 -0.211277 -0.342705 0.328923 0.196278 -0.0993387 -0.155306 0.181489 0.0057685 -0.305335 0.324622 0.41789 0.309259 0.377602 -0.397985 -0.161571 -0.492628 -0.146891 -0.296512 0.259681 -0.15235 0.393379 -0.170878 -0.196019 0.473978 0.425227 -0.193151 -0.119146 0.310655 0.136279 0.402533 -0.298366 0.24014 0.0881414 -0.108483 -0.145289 -0.000247798 0.27345 0.217393 0.0896486 -0.375564 -0.376774 0.111236 0.411397 -0.305918 -0.434032 -0.134739 -0.415959 0.0816591 0.12571 -0.403501 -0.127339 -0.101376 0.403354 -0.433428 0.346244 -0.0220796 0.000881204 0.307603 0.202066 0.122732 0.203898 -0.462517 -0.439006 0.212094 0.0822509 0.3751 -0.0420304 0.274612 -0.385559 0.2067 -0.208113 -0.0448066 -0.0948618 -0.295369 0.371357 0.279693 0.191759 0.0721821 -0.0918313 -0.00351577 0.443105 -0.520083 0.198589 -0.297116 0.391019 0.396839 0.198316 0.433556 -0.374943 0.390553 0.203925 -0.00220258 0.406589 -0.336388 -0.198074 0.0884211 -0.0228889 0.329857 0.324126 0.401098 -0.191906 0.234498 0.320953 0.38713 0.0830902 -0.100673 -0.170123 0.0079088 0.0980353 -0.0945035 -0.506851 -0.169699 -0.185244 -0.401601 -0.29625 -0.222053 -0.241558 0.202593 0.178219 -0.20274 0.141291 0.345298 -0.271865 -0.0539776 0.188348 0.194541 -0.13294 0.404585 -0.500886 0.405635 0.334824 -0.103408 -0.500647 0.00377881 0.402658 -0.406155 -0.315714 -0.0456162 -0.282627 -0.408296 -0.4897 0.175262 0.336313 0.173335 0.396498 0.421601 0.386563 0.244111 0.400823 -0.201459 0.0792321 -0.201069 0.299258 0.0874189 0.304895 0.201631 -0.0462524 0.00951884 -0.389985 0.0277897 -0.396703 -0.398011 0.185005 -0.196486 -0.130692 -0.130303 -0.26085 -0.342794 0.000803836 0.241581 0.20426 0.144256 -0.495671 -0.40282 0.0159961 0.320642 -0.294313 -0.0237159 -0.0903377 0.300132 0.402529 0.0475317 0.0345318 -0.317956 -0.0762346 0.382495 -0.421952 -0.228233 -0.385281 -0.209006 0.424078 -0.0293038 0.180957 0.181553 -0.144532 -0.0971584 0.19668 -0.213835 -0.0223093 -0.514411 -0.277933 -0.496016 0.288393 0.238236 0.122357 0.194332 0.0212522 0.407244 0.00752042 -0.401926 -0.207098 -0.179923 0.405719 0.0395175 -0.213168 -0.508849 -0.406185 -0.0152905 0.394301 -0.134336 -0.389533 0.201018 -0.438679 -0.147247 0.101193 -0.27699 -0.488709 -0.405877 0.10557 0.3062 0.308024 0.205598 -0.386523 -0.518024 -0.393567 -0.52693 0.00220009 -0.0924961 0.390899 -0.503555 -0.380983 -0.477291 -0.28858 -0.504144 -0.517227 -0.509602 0.136929 0.196279 -0.124726 0.359647 -0.388984 -0.194197 0.200459 0.377189 -0.205384 0.40415 -0.0077681 -0.10123 0.305264 -0.169097 0.43974 -0.472267 -0.206513 -0.110642 0.21575 -0.392356 0.416354 0.0175056 -0.486651 0.293659 -0.420457 0.172195 -0.507135 -0.222411 -0.481359 0.0496556 0.0147743 0.11014 -0.00556509 -0.199199 0.165162 0.229075 0.396531 -0.186532 0.208011 -0.401007 -0.0820933 0.0994485 0.19954 -0.418631 0.114627 -0.0230574 -0.0774503 -0.309578 -0.442151 -0.204044 -0.414468 -0.395253 0.305404 -0.242996 0.312099 -0.000508482 0.185313 0.187905 -0.183227 -0.540395 -0.425269 0.399725 -0.39943 -0.390999 -0.490274 -0.299014 -0.0200461 -0.138207 -0.300174 0.0206974 0.31847 0.261812 -0.199128 0.30346 -0.481188 0.00975832 0.107874 0.111168 0.0893957 -0.114799 0.312599 -0.237238 -0.505882 -0.196418 0.306105 0.090158 0.0975237 0.114252 0.155328 0.183693 0.205557 0.452114 0.0709068 0.24431 0.0322156 -0.103821 0.117845 -0.196953 -0.500135 -0.201308 0.418399 0.108942 0.300236 -0.225999 0.311027 -0.178694 0.00770936 -0.200993 0.420745 -0.19857 -0.499158 0.189724 -0.388652 0.297027 -0.190843 -0.299031 0.317065 -0.483351 -0.472454 -0.0523596 0.175593 0.412335 -0.170024 0.00399539 -0.19928 0.443703 0.391089 -0.0144942 0.00234895 -0.400589 -0.197417 -0.353711 0.268963 0.117866 0.190753 -0.234516 0.218293 -0.517725 -0.0982923 0.375137 0.0924407 -0.308132 -0.401126 0.185575 0.104023 0.303081 -0.00407499 0.403493 0.268474 -0.304327 0.395099 -0.0863902 0.307546 0.00706944 -0.0939727 -0.379772 0.175885 -0.124096 -0.277021 0.285123 -0.0834293 -0.186302 0.156528 0.357573 -0.0462444 -0.414289 0.104473 0.045901 0.183169 -0.376132 -0.307074 -0.123295 -0.201324 0.400224 -0.303342 -0.387354 -0.290439 0.0892643 -0.338697 -0.323008 -0.168224 0.296591 -0.400443 -0.127463 -0.289961 -0.428065 -0.191479 -0.492249 0.404221 0.429592 0.195418 -0.379121 -0.28381 0.380688 -0.472137 0.381688 -0.327036 0.00949313 0.312285 0.286261 0.382112 0.192248 0.192673 -0.22532 0.294014 -0.326157 -0.098267 -0.49787 -0.388549 0.0966971 0.266081 -0.390017 0.324777 0.0359909 0.0473202 0.0923177 -0.11265 -0.528603 0.187698 0.399948 0.413745 -0.0303897 -0.406939 -0.505317 0.0931026 -0.229889 -0.297407 0.299509 -0.0191216 -0.398281 0.44051 0.292672 -0.163529 0.113059 -0.301094 -0.332742 -0.0813586 -0.578374 -0.205574 0.123944 0.0208882 -0.396644 -0.0865919 0.13863 0.243286 -0.401462 0.198924 0.128737 0.345482 0.044889 0.413723 -0.310111 0.301745 -0.297247 -0.20529 -0.395869 0.211175 0.262439 0.196895 0.00694422 0.257026 -0.196129 -0.000881257 -0.373566 0.170045 -0.508942 -0.282093 0.280837 -0.117124 -0.114344 -0.335334 -0.496349 0.218119 -0.200173 0.0376438 0.00197971 0.20291 -0.203261 -0.493304 0.21802 -0.395131 -0.17526 0.116166 0.411479 -0.00482095 -0.495101 -0.378061 0.0968943 0.198561 0.288738 0.309585 -0.519817 -0.40096 -0.367276 0.404787 -0.266842 -0.297338 -0.0968959 0.325605 -0.0222425 0.300914 0.430747 0.295491 -0.0939546 -0.195548 0.15294 0.208426 -0.076514 0.288788 0.00550208 -0.377455 -0.164106 -0.4259 0.27573 0.108291 0.331148 0.0640824 0.342233 -0.302494 0.177313 -0.426126 0.00928472 0.393836 0.0200532 -0.00536592 -0.0820118 0.00673603 -0.411734 0.299112 -0.103922 0.184412 0.258656 0.212574 0.223009 -0.0736434 0.187855 -0.306778 -0.010739 -0.358511 -0.105053 -0.395491 -0.304849 -0.508032 -0.295534 -0.555963 -0.0943775 -0.0789269 -0.389093 -0.136264 0.304063 -0.479847 -0.519229 -0.211176 0.174021 -0.278636 -0.290806 -0.509617 -0.308974 0.0887618 0.192712 0.182126 0.0941924 -0.0789318 0.213238 0.209104 -0.487067 -0.498561 0.30482 0.266435 -0.291459 0.0886677 0.18094 0.284947 0.235076 -0.121461 -0.369437 0.20885 0.464398 0.247974 0.217441 0.206658 -0.32965 -0.484067 -0.291008 0.297141 -0.407643 0.0398272 0.410917 0.298818 0.268813 0.388583 0.0887494 0.208685 -0.21699 -0.105617 -0.122648 -0.274322 -0.205429 -0.23459 0.192843 0.0776841 -0.00254227 -0.0159339 -0.335851 -0.239097 -0.275736 0.412924 -0.474376 0.203117 0.216453 -0.496891 0.307362 -0.329468 0.224222 0.297894 0.307682 -0.552745 0.452438 -0.3909 0.316693 0.215717 -0.0961237 0.198146 -0.205457 0.0733759 0.145004 -0.175724 -0.000126841 0.211384 -0.273595 0.319965 -0.244652 -0.0662732 0.00148029 0.133754 -0.0900293 0.346102 -0.203753 0.300655 -0.482969 -0.487685 0.0297802 0.313847 0.42778 0.21851 0.298869 -0.18881 0.386633 -0.197732 -0.109666 -0.481724 -0.0127114 0.450233 0.29708 -0.462442 -0.323928 0.000475097 0.12099 -0.157181 -0.101928 0.178604 0.150823 0.395188 -0.403781 -0.512901 0.449134 0.194772 -0.504545 0.22188 -0.112566 -0.439843 -0.292523 0.394666 -0.495909 -0.198552 -0.0794882 0.117053 0.221126 -0.495898 -0.201628 -0.197855 -0.29756 -0.0757742 0.10895 -0.103379 0.0136759 0.0965938 -0.489734 0.0960477 -0.196046 0.271192 -0.199241 0.199088 -0.0429862 -0.380142 0.0694032 -0.368742 0.0793719 -0.0241955 -0.494294 -0.172843 0.29685 0.408413 -0.0992704 0.30832 0.300913 -0.198226 -0.497179 -0.47141 -0.0898224 0.253938 0.319785 -0.405795 -0.125872 0.191375 -0.0382055 -0.205455 0.199875 0.173098 -0.549023 -0.123778 -0.208473 0.284 0.0197874 0.196013 -0.359542 -0.0121309 0.0937093 -0.279391 0.157094 -0.0451703 0.108681 -0.00239488 -0.50633 -0.00723342 -0.0148838 0.067833 0.198151 0.00183294 -0.109466 -0.429962 -0.0768544 0.294659 0.397843 -0.200964 -0.362677 -0.0641882 0.112701 -0.315255 0.00198749 -0.507544 -0.180848 0.306939 -0.100128 -0.205658 0.158681 0.0667238 0.382767 0.361177 -0.39148 0.0120343 0.202327 0.392587 -0.0698548 -0.388201 0.202255 0.287396 -0.494543 -0.111857 -0.20428 -0.00402019 -0.503159 0.284043 -0.512677 -0.512786 -0.399376 -0.36816 0.439578 0.00829998 -0.397722 0.331952 -0.00659856 -0.487606 -0.19801 -0.256547 -0.320342 -0.29708 -0.175095 0.114383 0.0191071 0.0930707 -0.472219 -0.19955 0.246604 -0.405255 0.369713 0.313557 -0.220881 -0.174701 -0.504544 0.00218539 -0.0960002 -0.214948 -0.225209 0.388929 -0.369618 0.402028 -0.276824 0.404935 -0.188237 0.391872 -0.0159942 -0.302611 0.158711 0.2917 -0.0759339 -0.110669 0.192985 0.301548 -0.333084 0.40686 0.066581 -0.204819 0.0827242 -0.145132 -0.325158 0.0144376 0.385246 -0.31506 0.237287 0.206328 0.00856264 -0.318083 -0.396055 -0.385885 0.371972 0.395078 0.112755 0.0213489 -0.19871 -0.290487 -0.499219 -0.329798 -0.509149 -0.302274 0.166895 0.0187086 -0.194752 0.391149 0.215851 -0.0514702 -0.144589 -0.298245 0.246998 -0.0939003 -0.183253 -0.0772006 0.326927 -0.458476 0.34696 -0.401489 0.404831 -0.391005 -0.00164047 -0.208341 0.311026 -0.533465 -0.478109 -0.30258 -0.102318 -0.168785 0.38492 -0.0848289 0.375403 0.416775 0.398841 -0.297548 -0.103017 -0.0889518 0.398472 0.206755 0.100933 -0.482891 -0.0931057 0.39694 -0.0878266 -0.497243 0.305725 -0.0761414 -0.0880277 -0.0480353 -0.458793 -0.137297 -0.200749 -0.418523 0.00392904 -0.283118 0.205682 -0.395133 -0.298134 0.273067 -0.308513 0.230727 -0.298487 -0.200995 -0.0927062 -0.00483316 -0.507167 -0.302944 -0.396209 -0.0958221 0.0138993 0.212587 -0.486746 0.401009 0.0423859 -0.520481 -0.141606 0.210289 -0.326853 -0.402828 0.393392 -0.0188331 -0.405763 -0.0683774 0.382882 0.0638533 0.26473 -0.298473 0.261468 0.332883 0.346584 -0.250076 -0.218912 0.153706 0.394336 0.271029 0.210661 -0.207772 -0.0588512 -0.0632201 -0.25224 -0.061261 -0.0296566 -0.382007 0.0421258 0.204271 -0.279686 -0.349346 -0.0846272 -0.25595 0.354024 -0.105759 0.335175 -0.0647263 0.353597 0.406218 -0.495143 -0.412378 0.175151 0.217796 0.13358 0.009602 0.328687 0.216565 -0.133601 0.204598 0.23668 -0.307399 -0.369805 -0.462706 0.151521 0.200711 -0.388464 -0.0871345 0.395726 0.114217 0.434546 -0.434812 -0.246687 0.137523 -0.380054 -0.376813 0.0709929 -0.509597 0.337191 0.4385 0.412746 0.309647 0.232494 -0.369614 -0.517017 0.016176 -0.267769 0.0349606 -0.0728124 -0.390391 0.0148929 0.31463 -0.268955 -0.190804 -0.260908 -0.156271 -0.425815 -0.0213014 0.0791019 0.407419 0.201335 -0.294705 -0.111423 0.42087 0.0435164 0.149616 -0.0959246 0.444645 -0.454744 0.414376 -0.152348 0.514384 0.107926 0.105323 -0.0665324 -0.333319 0.01137 -0.265832 0.330669 -0.0938519 -0.392194 -0.0686784 0.227645 0.272424 -0.387969 0.397376 -0.308817 0.218443 0.22953 -0.172768 0.400791 0.205211 -0.402073 -0.262542 0.405387 0.195328 -0.30275 0.0097647 -0.482885 0.230689 -0.406644 -0.0632086 0.484084 0.234942 0.350233 0.401315 -0.028233 -0.11444 0.398564 -0.320122 -0.114926 0.442656 0.0668783 -0.344477 -0.388261 0.201064 0.433421 0.406036 -0.11581 -0.493823 -0.489593 0.469198 0.45432 -0.370298 0.4032 0.150118 -0.199531 -0.023968 -0.188883 0.307797 0.287391 0.305469 0.427007 0.399148 -0.216375 -0.264628 -0.466081 -0.0879714 -0.302733 -0.435133 -0.371503 -0.196762 0.430893 -0.202553 -0.268392 0.289661 0.301126 -0.0836765 -0.0533188 0.226001 -0.0710567 -0.177166 -0.445045 -0.468303 0.151471 0.219042 -0.349852 0.294807 -0.308882 -0.155204 -0.49798 -0.0966233 0.113908 0.23596 0.415951 0.343068 0.280325 -0.150176 0.0912297 0.487413 -0.394 0.290315 -0.0929004 -0.298782 0.138647 0.0380261 0.432762 -0.159973 0.358844 -0.210963 0.135616 0.0926568 0.0150355 -0.261519 0.31791 -0.0667066 0.0354269 0.499029 0.000903788 -0.194705 -0.234716 0.297427 -0.502726 -0.337635 -0.302646 -0.3993 -0.474404 0.476821 -0.0938905 0.0672289 0.396332 -0.0399593 0.411315 -0.481271 0.156472 0.4384 -0.167807 -0.0897093 -0.180628 0.0499482 -0.0347543 -0.156379 -0.290943 -0.372949 0.015498 0.0293917 -0.0975215 -0.182879 0.115492 0.43244 -0.183202 0.251562 -0.0837956 -0.254944 0.179881 0.187625 0.335131 -0.408784 0.235945 -0.479647 0.48719 -0.281288 -0.0367805 -0.2031 0.343678 -0.482577 -0.244111 -0.379817 0.0503311 0.397021 -0.185442 -0.360252 0.439317 -0.382729 0.258647 0.355176 0.378722 0.377474 -0.454826 -0.352843 -0.471437 0.308314 -0.0771939 -0.39729 -0.0714254 -0.173658 -0.111617 0.334225 0.41805 0.405058 0.194524 0.5528 -0.0931836 -0.382053 0.0331773 0.298989 -0.353942 0.005691 0.438799 0.463332 -0.114511 0.192955 -0.0961619 -0.09286 -0.406528 -0.0865147 -0.0511727 0.30599 0.495876 0.412725 -0.190579 -0.335733 0.407286 0.31128 0.327001 -0.215151 -0.260388 -0.192249 -0.456045 0.0378386 -0.367699 0.328001 -0.262771 -0.528876 -0.316517 -0.26781 -0.377397 -0.0739346 -0.480999 -0.103285 0.174344 0.337958 0.102004 -0.309425 0.261377 0.0991283 0.293808 -0.314475 -0.467824 0.242854 -0.105098 -0.423906 -0.195818 0.500639 0.361053 0.0240285 -0.397796 0.32547 0.361399 -0.316025 -0.00417647 -0.305707 0.414301 0.250884 -0.303866 -0.212198 -0.491276 0.463089 0.303713 0.390593 -0.224378 -0.253121 0.104036 -0.220828 -0.186347 -0.330243 -0.495864 0.151269 0.314215 0.112075 0.00465217 0.100875 0.426021 0.331037 0.37197 -0.259509 0.246774 -0.0554971 -0.260285 -0.243154 0.495611 -0.361427 0.14928 0.238077 0.308627 -0.171109 0.107069 0.0679132 -0.213925 -0.195802 -0.166732 0.37142 -0.0201927 0.168102 -0.213943 -0.172839 0.463593 0.285229 -0.0579722 0.317988 0.230513 -0.105213 0.0139862 0.46274 -0.414112 -0.38534 0.375499 -0.38884 -0.192892 0.233764 0.29065 0.1462 -0.00340854 0.335833 -0.0757183 0.138785 -0.391442 -0.365309 -0.156853 -0.291842 -0.408254 0.473071 0.425358 -0.0130905 -0.249084 0.387241 -0.210614 -0.126221 -0.23848 0.0453495 0.423221 0.247799 0.0297076 -0.3277 -0.381887 -0.168984 0.438483 -0.305695 0.0323346 -0.0475779 -0.190315 0.023722 -0.103474 -0.274518 0.230276 0.433749 -0.101137 -0.308181 0.2919 -0.268316 -0.20306 -0.41251 0.418666 0.208831 -0.490273 0.151245 0.270403 -0.476214 -0.180692 0.439246 0.0172963 -0.160988 0.116978 -0.00209552 -0.366997 -0.0747092 0.346981 -0.537323 0.362014 -0.25957 -0.219992 -0.189194 0.460203 -0.172906 -0.371278 0.0169303 -0.0352035 -0.16936 -0.0600254 -0.0729417 -0.146766 -0.145013 0.409347 -0.35448 -0.00369245 0.0227139 -0.128863 0.419933 -0.420905 0.198053 0.201057 0.369885 -0.37387 0.393194 0.342051 -0.478945 -0.182435 -0.34533 -0.00275877 0.3254 0.0288598 -0.179442 -0.221851 -0.273689 0.418091 0.0589299 -0.496902 0.286504 0.243088 0.312516 -0.260315 0.0844203 0.0553827 0.11487 -0.138911 -0.25647 0.00442561 0.447721 -0.179968 0.0487631 0.384298 0.0306538 -0.394316 0.435306 -0.299274 0.225474 -0.401885 -0.276075 -0.157127 -0.215193 -0.128871 0.456431 0.42208 -0.285642 -0.474513 0.433897 -0.47192 -0.140619 0.197084 -0.294195 0.447393 -0.140398 -0.233526 0.341624 -0.344697 -0.285848 -0.493326 0.338498 -0.425003 0.288831 0.260417 -0.479412 0.400466 -0.135717 0.253025 -0.262471 0.341744 0.396042 -0.0590988 -0.50505 0.417237 0.2184 -0.00171147 0.401447 0.432419 0.301078 0.00638675 0.223265 0.425936 0.106775 -0.516157 0.354045 0.183444 0.281526 0.429067 -0.214576 0.141259 0.249539 0.127183 -0.0613766 0.127818 0.106402 0.416984 -0.105999 0.0250423 -0.299266 -0.3594 0.31447 0.225579 -0.0586696 0.4318 0.179421 0.41902 -0.400994 0.396494 0.199256 -0.290262 0.146896 0.356941 0.0236177 0.197747 -0.277859 -0.29198 0.197387 0.0616712 0.381685 -0.285843 -0.198634 0.527172 0.389599 0.385943 -0.335495 -0.194408 0.199422 -0.170836 -0.00647013 0.271637 -0.429164 0.0480279 -0.196965 0.25402 -0.505641 -0.176624 -0.185469 0.29301 0.299766 0.198886 0.301566 0.193723 -0.195922 -0.303439 -0.0247837 -0.512757 -0.0531275 -0.508504 -0.499007 0.196208 0.096818 -0.308525 -0.507904 0.380422 0.396649 -0.369508 0.373521 0.419495 -0.557585 -0.122335 -0.0817421 0.182159 0.424868 0.380216 0.175802 0.216844 -0.0934433 0.24578 0.000153681 -0.4119 -0.503439 -0.0108873 -0.0939079 -0.101521 0.213937 0.285673 0.285606 -0.201392 -0.39984 0.257635 0.0971409 -0.403923 0.00595201 -0.302075 -0.0922429 -0.268655 0.303567 -0.00264161 0.179591 -0.196159 0.109593 0.0291695 -0.365736 0.197585 -0.203985 -0.405495 -0.293689 0.0354996 0.367158 -0.334217 -0.394275 0.0471171 0.0977934 -0.298909 -0.533974 -0.198194 0.456869 -0.320513 -0.0328612 0.13077 -0.289743 -0.475232 0.409768 -0.57111 0.445099 0.398914 0.0177596 0.207164 -0.407507 -0.354853 0.00301196 0.110187 -0.303178 -0.498062 -0.227843 -0.510032 0.380245 0.178197 -0.387896 -0.298942 -0.504296 -0.466525 0.247433 -0.0966647 -0.106418 0.384418 -0.0560421 -0.489006 -0.267433 0.2555 -0.418089 -0.189494 0.294204 -0.40748 0.00367978 -0.309691 -0.0838401 -0.0686466 0.399955 0.326509 0.380487 0.301545 -0.415851 0.245722 0.0179169 -0.518896 -0.111864 -0.294839 -0.0976405 0.382675 0.19309 -0.11193 -0.0687374 0.00415593 -0.389472 0.399056 -0.230004 -0.49699 0.102646 -0.500856 0.485168 -0.394603 -0.149977 -0.504091 -0.10168 -0.0780576 -0.39673 -0.425574 -0.18602 0.389167 -0.522228 0.00794825 0.26641 0.403427 0.00128191 0.0309775 -0.0873826 0.090287 0.353502 -0.0249417 -0.486518 0.441933 0.328061 0.103328 -0.409801 -0.348273 0.303105 -0.47394 0.32529 -0.10315 0.303619 -0.48419 -0.191482 -0.511606 0.292342 0.218437 0.20926 -0.533369 0.202374 0.100222 0.391831 0.292352 0.14103 -0.0542999 -0.404949 -0.309038 0.0627476 -0.000534027 -0.0388448 -0.292799 0.301205 0.133065 0.0174495 0.212847 -0.39328 0.0885661 -0.00362929 0.0450258 0.185516 -0.302301 0.337453 0.284938 -0.294524 -0.497757 -0.271119 0.0728853 0.210053 -0.00691502 0.0771932 -0.0762314 0.0138587 -0.268426 -0.204561 0.290151 -0.165225 -0.0967832 -0.181001 -0.308841 -0.213267 -0.454818 -0.40083 0.188039 -0.503428 0.323383 0.0987713 -0.519768 0.35015 0.395883 0.00324692 -0.0867531 -0.307513 0.108478 -0.104032 0.102722 -0.0191451 0.0991576 -0.426866 -0.269168 0.310983 0.252176 -0.41126 0.209369 -0.00174472 0.477925 -0.076006 -0.0465443 -0.213219 -0.00425211 -0.311186 -0.238735 -0.0965332 -0.423655 0.358946 -0.319102 -0.494539 0.297459 -0.490653 -0.383254 -0.0206985 0.0461612 -0.204435 -0.0983838 -0.279372 0.0008251 -0.0776491 -0.0740475 0.38216 -0.0911863 0.405546 0.127225 -0.0360189 -0.390712 0.207648 0.00233514 0.0758698 -0.194139 -0.00167054 0.20403 0.404305 0.0731239 -0.102424 -0.484838 0.367717 -0.525167 0.320727 0.211084 0.434778 0.383362 0.007618 -0.0913458 0.212447 -0.564077 0.0144426 0.199383 -0.250825 -0.178628 0.200289 0.332594 0.0335321 0.229913 0.000548852 0.119116 -0.31676 -0.401479 0.304931 -0.102269 0.184368 -0.111518 -0.3597 -0.184413 -0.36961 0.40537 -0.0980156 0.296239 -0.0063059 0.0895319 -0.115816 -0.487085 -0.393354 -0.502705 0.328598 -0.49286 0.363849 0.00170705 0.0431474 0.399022 -0.232806 0.377739 0.424688 -0.499811 -0.0985931 0.465346 -0.102704 0.00347335 -0.0763132 -0.500311 0.39206 -0.0206141 0.41489 0.101026 -0.366549 -0.318583 -0.0132024 0.121729 0.250918 -0.498362 0.469979 -0.0033325 0.249768 0.289636 -0.304499 -0.0804755 0.198344 -0.100196 -0.000424088 -0.110132 -0.091309 0.156989 -0.306196 0.264344 -0.498113 0.224805 -0.302765 -0.474712 -0.380691 -0.488238 0.293618 -0.127425 -0.200207 -0.193743 -0.18028 0.395737 0.000671417 0.34177 0.185858 0.110951 0.0392801 -0.128742 -0.163537 0.0843822 0.414646 0.065588 -0.494693 -0.298081 -0.37792 -0.0246966 -0.293478 0.352162 -0.41306 -0.475285 -0.299655 0.48116 0.402432 -0.296851 -0.011234 0.0187395 0.234935 0.113754 -0.105281 -0.216932 0.198154 -0.193638 -0.2274 0.0342795 -0.0905691 -0.403096 0.0508589 -0.240839 -0.342309 -0.491399 0.106028 0.028428 0.00922063 0.260413 0.26089 -0.00714477 -0.337154 0.00160304 0.415876 0.42353 -0.10898 0.0911284 0.453674 0.225281 -0.0169523 -0.0961093 0.174602 -0.14073 0.0150652 -0.00981172 -0.502185 0.3188 0.229508 0.067596 -0.500068 -0.522298 -0.11537 -0.00143006 0.299209 0.118998 0.183927 -0.299868 -0.463782 -0.385588 0.00100221 0.0738162 -0.411876 0.0487634 -0.193533 0.205009 0.101953 -0.294443 -0.18158 -0.285177 -0.0118941 -0.178298 0.451442 0.281078 -0.260925 -0.46967 -0.513448 -0.393821 0.411451 0.104246 -0.347971 0.00220774 0.286181 0.0958661 -0.400133 0.0279564 -0.036885 0.368181 -0.090131 0.121265 0.402385 -0.305615 -0.397211 0.00890991 0.0072084 0.045528 -0.413487 0.345393 0.0935531 0.270297 -0.211543 -0.220275 0.401268 0.0251472 0.115534 0.314471 -0.395804 0.404919 -0.0854887 -0.399783 -0.0738154 -0.574121 0.388149 0.186128 0.424237 0.40372 0.367805 0.325638 -0.360677 0.400132 0.306353 -0.0988123 -0.477121 0.100965 -0.304869 0.0932299 0.00355793 0.220585 -0.447091 -0.482823 -0.357777 0.10049 0.303478 -0.394885 0.22215 -0.317016 -0.0818357 -0.283545 0.0166266 0.127805 0.340582 -0.339712 -0.359402 0.117767 0.108989 0.409697 -0.00385203 -0.308816 0.0872144 0.451903 -0.304023 -0.285126 -0.295157 -0.269978 0.402893 -0.0782116 -0.410796 0.109928 -0.0944107 0.299367 -0.0909481 -0.101675 0.196775 -0.473137 0.202905 -0.0670926 -0.499566 0.415743 0.19149 -0.515185 -0.313787 0.306073 -0.478607 0.296802 0.000720647 -0.47615 0.102875 -0.00393752 0.33088 0.107989 0.00107932 -0.0813277 -0.446589 0.0958672 0.403563 -0.313202 -0.196901 -0.290643 0.183046 -0.515912 -0.383651 0.0348091 -0.192312 -0.1039 0.404226 0.0139326 0.0134833 -0.179228 -0.412247 -0.601 -0.113432 -0.00679273 -0.397876 0.118959 -0.331913 -0.201364 -0.100466 -0.513794 -0.0904092 0.0210541 0.15612 -0.405254 0.301027 -0.302518 -0.200967 -0.19089 -0.447792 -0.0966355 -0.103208 -0.0629111 0.426442 -0.0996042 -0.302005 0.191835 -0.101127 0.394891 0.102862 0.214785 0.204049 -0.22576 -0.525928 -0.0817261 -0.168431 0.384524 -0.0985662 -0.0784624 -0.388241 0.00687421 0.327873 0.345854 -0.190984 -0.391266 0.414299 0.00803685 -0.202894 0.376478 -0.519399 0.0998089 0.200531 -0.211541 0.0258937 0.0081621 -0.00530276 0.473436 -0.202082 -0.05908 -0.498772 -0.394901 0.10238 -0.0971806 -0.102647 0.402343 -0.213737 0.0976582 0.416268 -0.297212 0.407107 -0.00497972 -0.184762 0.00393644 0.214521 0.149737 0.0989999 0.449864 -0.283218 0.0239168 0.215938 0.398673 -0.48205 -0.499817 0.406092 0.392382 0.105673 -0.38113 0.205006 -0.27573 -0.397219 -0.209223 0.00430169 -0.200282 -0.118444 0.39509 -0.00987026 0.194111 0.115153 -0.310531 0.0532278 -0.401318 -0.506515 0.225354 0.27324 -0.199924 0.000644011 -0.09255 0.225179 -0.106475 0.415099 0.410807 -0.498216 -0.498359 0.220793 -0.397438 -0.105601 -0.395376 -0.0936439 0.104651 -0.494525 -0.222162 -0.383804 0.144454 0.212158 -0.395999 0.356409 -0.100576 -0.00216719 -0.319083 0.228128 -0.302478 -0.498118 -0.369631 -0.0140235 -0.285749 0.40659 0.366125 0.400207 0.102228 -0.290285 0.39818 -0.0560024 0.424181 -0.00698588 -0.0260277 -0.433799 -0.400253 -0.208204 0.149949 -0.195491 0.018111 -0.310958 0.200964 0.215218 -0.256422 -0.0207965 0.102319 0.0754583 -0.500236 -0.502207 0.20272 -0.215618 -0.253155 0.0100619 -0.434966 0.199845 0.319224 0.419358 -0.309901 0.521647 0.10616 -0.0787554 -0.00384869 0.403815 0.397701 -0.400894 0.317207 -0.218193 0.203327 -0.503205 0.205568 0.0933243 0.299458 -0.350178 -0.0828073 0.300608 -0.208482 -0.278658 0.231273 -0.301298 -0.404409 0.20817 0.30694 0.291735 -0.503514 -0.291035 0.151859 -0.288273 -0.159811 0.105584 -0.318839 -0.0903802 -0.0892683 -0.398528 -0.304977 0.303724 -0.470501 -0.310927 -0.400899 -0.196993 0.013681 -0.294858 -0.0902557 0.00788002 0.104657 0.198813 0.21396 -0.479091 0.107547 -0.512302 -0.100277 -0.106056 0.410698 0.434032 0.312645 -0.298262 -0.299908 -0.295268 0.105577 0.232334 -0.33021 0.422497 -0.502122 0.231868 0.0983041 -0.319595 -0.10712 0.00321755 0.168708 -0.490549 -0.130153 -0.193247 -0.350419 -0.109283 0.429702 0.440131 -0.204862 -0.104924 0.00546728 -0.19562 0.00405176 -0.00137702 -0.499887 -0.397177 0.0037434 0.408058 0.341 0.481635 -0.487499 -0.504033 -0.363862 0.000947097 -0.440417 -0.501231 -0.490368 -0.0546086 -0.0767415 -0.289773 0.314432 0.305324 -0.502666 -0.508101 0.406782 -0.397377 0.292915 0.405454 -0.489953 -0.0784431 0.427418 -0.291891 -0.357533 0.387824 -0.488342 -0.491214 0.384016 -0.305407 0.214765 0.408701 0.0964644 -0.0348121 -0.479834 -0.0105852 0.0917355 -0.292986 0.301443 -0.202236 -0.500699 0.379653 -0.380167 0.100222 -0.19522 0.142856 0.102452 -0.319381 0.203064 0.384064 0.113539 -0.086794 -0.428834 -0.440561 0.228644 0.00810621 -0.198183 -0.229696 -0.208254 -0.39725 -0.111337 -0.47765 0.00361913 -0.228307 0.112183 0.105131 -0.0994026 0.20856 0.0995257 0.115597 -0.518015 -0.203404 -0.488275 -0.116877 -0.49332 -0.197112 -0.312542 -0.0871826 0.101534 0.197428 0.100928 0.276463 0.411764 0.277728 -0.0837206 0.183144 0.371563 0.107302 0.397673 -0.330529 -0.00632299 -0.0144826 -0.50361 -0.196888 -0.110515 0.202954 -0.19811 -0.309991 0.290739 -0.487444 -0.397038 -0.00711823 0.0993016 -0.184663 -0.406209 0.221693 -0.37074 -0.0730841 0.40043 0.300312 0.0935927 -0.126972 0.409855 0.00501663 0.104116 -0.211082 -0.197722 0.402063 0.109148 -0.405043 -0.267223 0.403044 -0.531894 -0.494986 0.0688336 0.1715 0.360488 -0.212747 -0.490771 -0.211547 0.0119297 0.10143 -0.0982878 0.422373 -0.186187 -0.499909 0.0932697 -0.187352 -0.0991372 -0.208052 -0.271748 -0.1916 -0.277293 0.0983036 -0.499533 -0.0815389 -0.29187 0.434646 -0.173835 0.127571 0.293861 0.390871 0.30483 0.400357 0.177859 -0.484065 -0.102576 0.351279 -0.172845 -0.46917 -0.232367 0.400597 -0.485825 0.194802 -0.462583 -0.139126 -0.205058 0.418755 0.403612 -0.494533 0.154997 -0.185391 0.00660128 -0.188963 -0.0728331 0.0920884 -0.348459 -0.177461 -0.500786 0.39975 0.049273 0.314394 -0.200213 0.111669 -0.195868 -0.21003 -0.235373 0.407531 -0.493733 0.322122 -0.0889938 -0.0933805 0.017368 -0.00922727 -0.394803 0.10131 0.166735 0.295791 -0.504377 0.302176 0.206253 0.403005 -0.418848 -0.104429 0.29269 0.325726 -0.2906 -0.00391681 0.418628 -0.483752 -0.417317 -0.106081 0.382925 -0.424607 0.0984471 0.200391 -0.498305 0.403136 -0.119726 0.398814 -0.289261 -0.403189 -0.00608519 -0.307317 0.00569589 -0.0034322 -0.495077 -0.294558 -0.202217 -0.274315 -0.00230408 -0.419106 -0.496501 -0.492599 0.00185806 0.315609 0.385647 -0.0998342 -0.497472 0.0909341 -0.312769 0.306957 0.344537 -0.390794 0.467246 -0.506455 -0.398703 0.207664 0.406111 -0.499396 -0.286041 0.214426 0.0917749 0.00629434 -0.361327 -0.392177 -0.498275 0.200124 0.131321 0.20911 0.228469 0.303433 0.10138 -0.128485 0.0267508 0.133513 0.111928 -0.298873 0.304875 -0.534192 -0.401312 0.33085 -0.107285 0.413623 0.28954 0.492928 0.102076 -0.465138 0.0963089 -0.20059 0.104951 -0.395653 0.0274744 0.277078 -0.273342 0.109814 -0.540703 -0.0899438 0.315125 -0.00545833 -0.206126 0.297449 0.400448 0.301869 0.110081 0.321103 -0.411078 -0.199474 0.405869 -0.0174805 -0.0196053 0.4049 -0.00634826 -0.395756 0.00376221 -0.198873 -0.497227 0.29784 0.108211 0.310974 -0.493653 -0.298245 0.123539 0.102855 -0.395111 0.311947 0.403857 0.199346 0.0879887 0.101899 -0.396438 -0.15425 0.42954 -0.167304 -0.198007 0.322767 -0.197021 0.19895 -0.104194 0.18689 0.412665 0.101876 -0.0799158 -0.198937 0.101691 -0.28648 0.305367 0.301363 -0.196261 -0.402455 -0.0791964 -0.292649 -0.110091 -0.29128 -0.20332 -0.403576 -0.418288 -0.312484 -0.298724 0.113592 0.290477 -0.494998 -0.478142 0.195829 -0.338327 -0.495782 -0.476533 -0.101952 0.378014 -0.199932 -0.218173 -0.0092564 -0.126465 -0.295984 0.336491 0.01166 -0.361113 -0.292426 0.186967 -0.316619 0.192285 -0.09737 0.108891 -0.108667 0.401257 0.108113 -0.497237 0.158451 -0.374896 -0.087939 0.316981 0.0991374 -0.302589 0.191709 -0.123331 0.0241336 -0.024997 -0.202747 -0.181474 0.300812 -0.409054 -0.110608 0.079688 0.236498 -0.0994822 0.410235 -0.322452 -0.00404181 0.209431 -0.327864 -0.130329 -0.303621 -0.308774 0.1009 -0.504476 -0.500189 0.00952855 -0.182376 0.0934044 -0.166566 -0.203742 0.114124 -0.324879 -0.206378 -0.213602 -0.417977 -0.302398 0.316885 -0.33466 0.299339 -0.261021 -0.201264 0.0402906 -0.30266 -0.310887 -0.305498 -0.209117 0.206864 -0.208354 0.188759 -0.105414 -0.171442 -0.11238 0.115217 0.342296 -0.103437 -0.501192 -0.527222 -0.0810021 0.103839 0.18254 -0.393946 0.287548 -0.28886 -0.111047 -0.285719 -0.392912 0.188569 0.0974537 -0.303396 -0.29731 -0.536082 0.130987 0.00136153 0.0926113 -0.110136 -0.0999253 -0.29684 -0.498301 0.0751329 -0.188471 -0.404449 0.108244 -0.104136 -0.100536 0.435341 -0.0795929 -0.202963 0.200422 -0.19897 0.0954526 0.0834214 0.0867884 -0.320202 0.301282 0.301458 -0.14072 -0.504112 -0.309676 0.213636 -0.431475 -0.0993848 -0.28803 0.40057 0.18958 -0.0117405 -0.301474 0.297469 -0.0155759 0.0491522 0.00180966 -0.202273 0.143371 0.380675 -0.205023 0.0873378 -0.512419 -0.295258 -0.0822347 -0.500355 0.398866 0.195371 -0.000478928 0.283624 0.101515 -0.298997 0.438062 0.198447 0.272305 0.205669 0.175083 -0.394768 0.107947 -0.142012 0.00323436 -0.492952 -0.103221 -0.500337 -0.403127 -0.388979 -0.387317 -0.305386 -0.0949129 0.0974283 -0.425805 -0.400834 -0.399785 -0.287473 -0.182369 0.401404 0.23145 0.416363 0.101384 0.398785 0.403732 -0.403731 0.297267 0.387805 0.0999746 0.339971 -0.409418 -0.508865 -0.287301 -0.295771 0.344899 -0.178098 -0.498955 -0.314716 -0.109248 -0.515586 0.234243 0.291123 -0.0925034 -0.112666 0.297713 -0.389009 -0.423341 -0.409812 -0.493045 0.0143404 -0.384449 0.315987 -0.106457 -0.454204 -0.201439 -0.306415 0.0877817 0.108166 -0.302412 0.392483 -0.406386 -0.493291 0.196256 0.210946 0.0263594 0.448203 0.081603 -0.27505 0.300298 0.386114 0.401138 0.40083 -0.194546 -0.0125966 0.300838 0.0978309 -0.269075 -0.300968 0.177774 -0.499421 -0.505469 0.194599 -0.293067 -0.00215471 0.313638 0.410261 -0.199992 -0.331409 -0.0958634 -0.0663719 -0.317371 -0.51142 -0.339689 0.307688 0.0495994 0.109151 0.278738 0.285847 -0.181446 -0.223709 -0.394194 0.204286 -0.133011 -0.399613 -0.48956 0.379296 0.000628952 -0.502049 -0.315005 -0.0998978 0.201501 0.105852 0.403881 -0.209266 -0.123558 -0.327659 -0.300806 0.154546 -0.117149 -0.387577 0.402255 -0.405717 0.372037 0.218226 -0.103093 0.303283 -0.107463 0.0732112 0.295763 -0.400656 -0.511032 -0.224667 -0.402335 0.0985562 -0.104886 -0.505874 -0.531358 -0.04172 0.401734 0.395437 -0.291281 0.199214 -0.225788 -0.139681 0.180922 0.087769 0.101975 0.332292 -0.10808 -0.200108 -0.436472 0.104914 -0.212506 0.0453507 0.300371 -0.506807 -0.503156 0.399308 0.3124 -0.195354 -0.113056 -0.00329359 0.0950426 0.324505 0.104762 -0.304125 -0.219529 0.0510868 -0.398234 -0.501691 0.00884591 -0.195003 0.000246496 -0.501404 0.00454926 0.418638 -0.319186 -0.201467 -0.199742 -0.019564 -0.361531 0.190292 -0.304588 -0.202741 -0.531055 -0.103092 0.0971815 -0.250941 -0.476553 0.206351 0.201165 -0.00701905 -0.500018 -0.486221 0.146783 0.293608 -0.301751 -0.337285 -0.300789 -0.0553175 -0.201868 0.0504546 -0.102257 0.419694 -0.381796 0.196821 0.00344866 0.300203 0.209394 -0.279157 0.299052 0.169586 0.00184828 0.394585 -0.538045 -0.00665008 -0.101151 -0.298742 0.00527405 0.392536 -0.531187 0.100048 -0.200955 -0.503917 -0.285387 0.199811 -0.313937 -0.502385 -0.489795 -0.32784 -0.0772519 -0.51246 -0.191433 -0.385077 0.191038 -0.18684 -0.299768 -0.180769 -0.434293 -0.487207 -0.38111 0.29493 -0.227396 0.400207 0.320324 -0.293006 -0.504635 -0.0601142 -0.470299 0.022863 -0.103606 -0.301001 -0.289292 -0.399194 -0.201991 -0.388478 -0.402828 0.402935 -0.495198 0.111169 -0.380985 0.207315 -0.204426 -0.391545 -0.226019 -0.111682 0.203366 -0.0778984 -0.101843 0.237547 -0.100138 -0.202976 -0.113614 0.405961 -0.419944 -0.148414 -0.190046 0.407288 0.300849 0.377815 0.240644 0.116044 -0.505452 -0.00235767 -0.499075 0.00323247 -0.0329858 -0.0986478 -0.39352 -0.197714 0.00357122 -0.502168 0.18044 -0.419428 -0.0026883 -0.274204 0.0820928 -0.00241501 -0.00681394 -0.514959 -0.116967 -0.109699 -0.406799 -0.308782 0.302063 -0.304458 -0.318197 -0.298768 0.31448 -0.301751 0.197785 -0.314786 -0.408991 0.306903 0.315851 -0.501624 0.121374 0.369651 0.299389 0.422033 -0.49483 -0.292706 -0.417255 0.11435 -0.518533 0.104512 0.394608 0.195239 -0.110247 -0.303963 0.395775 -0.199386 -0.385566 -0.0238047 -0.177952 -0.300882 -0.103365 -0.504804 0.168082 0.399914 -0.313309 0.0956796 0.0862679 -0.0399959 0.103022 0.00043896 -0.384994 -0.283593 0.269271 -0.200952 0.210049 -0.00970068 -0.40158 0.398963 -0.283924 -0.491911 -0.397676 -0.400228 0.29853 -0.124718 -0.000857296 0.305193 -0.0206273 0.111561 0.406297 0.236339 -0.2978 0.221087 0.0956498 0.208882 -0.210849 -0.111779 -0.191527 -0.0140711 0.0750079 -0.103906 -0.0389702 -0.106405 0.375373 0.270727 0.288245 -0.0975873 0.304028 0.396513 0.091694 0.0157538 -0.330194 -0.404241 -0.507811 -0.018394 -0.00476755 0.397246 0.289579 -0.498062 0.300129 -0.406599 0.0998278 -0.198009 -0.206054 0.0954492 -0.312205 -0.302923 0.293196 -0.298506 -0.00508266 -0.106154 0.381567 0.15052 0.277499 0.0471925 -0.501407 0.362573 -0.299423 -0.195415 -0.0820638 0.183609 -0.0984534 -0.100539 -0.406649 0.0218312 -0.000315686 0.290565 0.37726 -0.0997705 0.399401 -0.103414 0.000162991 0.214697 -0.498779 -0.400308 0.19497 -0.399848 0.123761 0.287076 -0.196906 0.203702 0.150911 -0.413407 -0.204727 0.208488 0.199452 -0.217452 -0.266777 0.403714 -0.0619596 -0.198484 -0.254393 0.318004 0.0480559 -0.369123 0.123886 0.0574594 -0.175187 0.175156 0.475261 -0.470326 0.0942255 -0.0940618 0.391489 0.330165 0.355697 -0.47776 -0.504616 0.308519 -0.228017 -0.285649 -0.480108 0.0767526 0.00705438 -0.368371 0.351233 0.302453 -0.0941425 0.339121 -0.235751 0.132447 -0.378168 -0.180203 0.462552 -0.153106 -0.159154 -0.494679 -0.112449 -0.185417 -0.235899 -0.0578626 -0.507547 0.376496 -0.509562 0.43225 -0.120089 0.206056 -0.55048 0.216372 -0.498882 -0.382822 -0.277377 -0.0282955 0.260171 0.281725 -0.404013 -0.401271 -0.183912 0.398658 -0.454061 -0.0646006 0.0347314 0.332172 0.385769 0.0178795 -0.00357279 0.248416 0.182137 0.229552 -0.501312 -0.367775 -0.198149 -0.268415 0.3191 -0.0780461 -0.00631809 0.0595122 0.412966 -0.488503 -0.117383 -0.18429 -0.0980327 0.109169 0.227458 -0.160023 -0.0884487 -0.435201 -0.264908 -0.00533399 0.347907 0.0843631 0.0765384 -0.29951 0.318553 -0.492122 -0.180725 0.0901311 0.125923 -0.492361 0.425671 0.410545 -0.493863 0.456549 -0.503941 -0.156461 -0.394167 -0.0233811 -0.366228 0.422978 -0.410141 -0.167358 0.209072 0.423227 0.433767 0.229269 -0.0885724 0.0292992 -0.240221 0.265609 -0.0920335 -0.0560228 0.216395 0.353741 0.327046 -0.251264 -0.182382 0.00238177 0.325805 0.140983 -0.401701 0.291501 -0.265305 -0.136957 -0.298831 0.249623 0.0199993 -0.0964062 0.469961 -0.156142 -0.295677 -0.107463 0.19095 0.366992 -0.507495 -0.295088 0.404274 0.222393 0.196785 -0.0930049 -0.192095 0.264859 -0.402537 -0.452351 -0.187994 -0.0961273 -0.0719031 0.0400254 0.340347 -0.0978556 -0.0849353 0.357095 -0.18146 -0.297217 -0.510113 0.227598 0.286306 -0.34204 0.249317 0.31929 -0.413715 0.0367007 -0.284998 0.0395088 -0.512673 0.431038 -0.302509 0.217652 0.434222 -0.304015 0.251045 0.427992 -0.279908 0.394382 -0.289736 -0.499301 -0.0575049 -0.285928 -0.485779 0.280426 -0.194159 -0.124511 0.268552 -0.0527269 -0.323671 -0.327532 -0.501304 0.415259 0.316732 0.196539 0.35166 -0.519888 -0.487145 0.025029 -0.480021 0.0958977 0.337426 0.0183977 -0.237673 0.137374 0.309111 0.305323 -0.363893 0.301887 -0.391952 0.128126 0.00181521 0.328024 0.0514268 0.263988 0.193765 0.16702 0.116763 -0.227337 -0.00307127 0.0646169 0.214304 -0.334616 -0.41236 0.309617 0.0642672 0.257758 -0.329377 -0.383514 0.32377 0.323221 0.206796 0.230122 0.088544 -0.06532 -0.467617 -0.43268 0.0209746 -0.0560046 -0.376847 0.485011 -0.115892 0.114899 0.0730138 0.226192 0.120297 0.0252976 -0.33233 0.45298 -0.278804 -0.488072 0.0558133 0.323258 0.219655 0.420937 -0.0170705 -0.0264596 0.254934 -0.0580066 0.118008 -0.10198 0.0637848 0.2926 0.213198 -0.509248 -0.0229747 -0.425231 0.42207 0.00942389 -0.326551 -0.0195214 0.219676 -0.278289 -0.16947 0.408961 -0.264527 -0.288833 0.0826778 -0.111399 0.11452 0.00252116 0.0249579 0.129898 0.00606441 -0.189947 0.411032 -0.381335 0.504279 -0.514743 -0.181833 -0.183575 0.0506154 0.219191 -0.285873 -0.324235 -0.256979 0.0716024 -0.185459 0.219856 0.207817 0.114442 -0.415948 -0.3604 -0.423599 0.416395 -0.339865 0.00520248 -0.0789136 0.123381 -0.149604 0.203516 -0.0970747 -0.360687 0.14785 -0.13145 -0.164321 0.00513021 0.391987 -0.419077 0.00183534 0.262221 -0.0496755 -0.202117 0.0991799 0.0225475 -0.0781381 -0.481722 -0.287763 -0.419026 0.398929 -0.00979311 0.0696711 0.200153 0.0248531 -0.110474 0.286916 0.403824 0.398847 -0.0441834 -0.523766 -0.309699 -0.296448 -0.214975 -0.193474 0.440663 -0.246839 0.159251 0.39979 -0.133891 0.205438 -0.0307571 0.312713 -0.0805581 -0.290461 0.262115 0.00983135 -0.484423 0.112307 0.299307 0.182796 -0.532395 0.331586 0.0142161 0.174742 -0.378969 -0.180424 0.165141 0.17966 0.103417 0.345933 -0.0731961 -0.539071 0.235395 0.113917 0.0165748 0.123828 0.106207 -0.407716 -0.492552 -0.475795 -0.393679 -0.311437 -0.0760793 -0.0506948 0.351219 -0.241836 0.302557 -0.0698542 -0.0409129 0.182452 -0.217079 0.00281751 -0.0310914 -0.123663 -0.196112 -0.228133 -0.371756 -0.293702 -0.0971475 -0.320209 0.434132 -0.171086 0.0607827 0.393047 -0.0768109 0.0857032 -0.115683 0.10282 0.292555 0.0442143 0.289321 0.475015 0.144751 0.409508 -0.355844 0.0324072 -0.432515 0.427029 0.0816086 0.421611 -0.248148 0.215084 0.094176 0.212774 -0.289668 -0.112985 0.25543 -0.191749 -0.39712 0.11951 -0.156903 -0.460617 0.0411408 0.180938 0.444798 -0.416708 -0.385277 0.366474 0.19076 -0.462051 0.388094 -0.403882 -0.0882975 -0.535711 0.302976 0.0022337 -0.124681 0.103773 -0.173452 0.121237 -0.183967 0.335228 -0.17684 -0.085255 -0.509604 -0.164537 0.345957 -0.38957 -0.189982 -0.141255 0.302855 -0.320003 0.419128 0.333113 0.0430602 0.164889 -0.301956 -0.0524742 0.040282 -0.382104 0.0468701 0.110862 -0.451031 -0.0843395 -0.170778 0.316181 -0.11541 0.0628462 -0.394253 0.414683 -0.395716 -0.0747167 0.0261296 -0.0145808 0.47654 -0.165058 -0.495173 0.217109 0.430684 0.135094 -0.0761604 -0.0643455 -0.263138 0.226595 -0.167862 0.115969 0.326653 -0.120805 -0.141971 0.322521 -0.176125 0.309584 0.223783 -0.49395 0.334765 0.0694856 -0.488077 0.436776 -0.388044 0.294166 -0.0240714 -0.399361 0.436046 0.120851 0.254732 -0.162219 -0.151457 0.17146 0.102476 0.253808 -0.0823905 -0.373815 -0.283897 0.326054 -0.115613 -0.391094 0.227949 0.262887 -0.135165 0.226443 0.109267 -0.0399243 -0.0828739 0.40333 -0.27305 0.0130492 -0.24423 0.344638 0.212843 0.474456 -0.0456606 0.0228021 0.454254 -0.295602 0.425045 0.264554 -0.0515029 0.0220407 -0.373581 0.206338 0.41238 0.0789456 -0.285621 -0.405052 -0.253418 0.339848 -0.27098 0.317713 0.449178 -0.111718 -0.337808 -0.00516239 -0.384019 -0.238142 0.413639 0.226636 0.152837 -0.372934 -0.392124 0.310229 -0.315982 -0.0813347 0.397421 0.0226702 -0.0817264 0.434406 0.409896 -0.0787038 0.350619 0.128069 0.115809 -0.389851 -0.393057 0.101026 -0.343374 -0.517232 0.313652 -0.488321 0.410827 0.465156 0.102551 -0.261027 0.222223 -0.514024 0.102103 -0.0710585 0.019879 0.0929223 0.328191 -0.240747 0.310753 -0.191039 -0.0504379 0.281798 0.41619 0.302867 0.225396 -0.503164 -0.069122 0.26007 0.432074 0.0172345 -0.101121 0.168739 0.111889 0.389769 -0.302859 -0.210179 0.295731 0.00330433 0.0965847 0.227394 0.0958133 0.401025 -0.274755 0.35918 -0.243537 -0.253895 -0.174027 0.00779861 -0.373558 0.430713 -0.25887 0.283727 0.0697502 0.45134 0.316304 0.362935 0.109367 0.170865 0.0357822 -0.305782 0.201888 -0.0973113 -0.495474 0.205318 -0.277035 0.286063 -0.0936786 0.105341 -0.449517 -0.501511 0.0808639 0.35703 -0.49859 0.0461719 0.296869 0.224005 -0.104844 0.171156 0.405263 -0.21823 0.421559 0.279874 -0.284171 -0.308059 0.21743 -0.180557 0.210816 -0.372784 -0.490863 -0.154101 -0.303052 -0.254204 0.0968008 0.37828 -0.387632 -0.197365 0.254456 -0.111963 0.362086 -0.0741338 -0.0763363 0.109778 -0.294417 0.408069 -0.503673 -0.51355 -0.446383 -0.384651 0.230696 0.409633 -0.423684 -0.0998132 0.291697 0.215953 0.119496 0.20259 0.364506 -0.473711 0.351261 0.211859 0.222836 -0.299139 -0.178455 -0.497055 -0.290383 0.37491 0.310974 0.0241723 0.0075126 -0.188764 -0.36959 0.367635 -0.150103 -0.492856 0.305552 0.0412854 0.466838 -0.081087 0.0080957 0.357223 -0.498963 -0.265917 -0.487747 0.0157352 -0.384763 -0.266953 0.0552767 -0.468367 -0.330504 -0.199786 -0.297663 -0.000436947 -0.37481 -0.050517 -0.41829 0.00769921 -0.266238 0.410439 -0.0948738 -0.296403 -0.28397 0.192413 -0.492085 -0.0986573 -0.407197 0.173345 0.218299 0.102973 -0.200298 0.0671903 -0.0860232 -0.479752 0.541523 -0.300555 0.0522586 0.0173083 -0.199863 -0.00229582 -0.412957 0.00693113 0.443304 0.0392441 0.109276 -0.0743148 -0.274345 0.103722 0.265201 -0.173449 -0.0973687 -0.185702 -0.491442 -0.37831 0.196036 -0.48228 -0.466708 -0.38414 0.18627 -0.202769 0.231936 0.334665 0.111818 -0.298913 0.309437 -0.168426 0.182987 0.0200388 0.120888 -0.0416246 -0.14468 0.0115389 -0.179586 0.212571 0.406233 0.243729 -0.521 0.125108 -0.469381 -0.494732 0.026287 -0.530098 0.222097 0.225666 0.34605 -0.395912 -0.287837 0.0874345 -0.276904 -0.164476 0.0267108 -0.295147 0.104221 0.448237 -0.466338 0.252827 -0.436703 -0.489984 -0.421325 -0.392237 -0.295808 0.426499 0.415019 -0.434808 -0.0650846 0.226275 0.427294 -0.0839878 -0.494604 0.328532 0.18456 0.000252894 0.0297745 -0.55093 -0.269234 -0.499492 0.169995 -0.0893177 0.207219 0.409805 0.392679 -0.156354 -0.456902 -0.36778 -0.193577 -0.090367 -0.183971 -0.125607 -0.236787 -0.372979 -0.0666816 0.430092 0.119515 -0.051965 -0.494255 -0.349489 -0.537409 -0.387086 -0.0613345 -0.281175 -0.216157 0.421575 0.0165236 0.0283391 -0.0140709 -0.415129 -0.205168 -0.291969 0.16226 -0.414227 0.27386 -0.00362338 0.114097 -0.436578 -0.504197 0.125995 0.0140291 0.262357 0.180843 0.432101 0.395373 0.120724 0.429981 0.119317 0.00541159 0.11256 0.194589 0.0693427 -0.280469 -0.50745 0.404857 -0.380346 0.202852 0.0611136 0.448665 0.257229 0.0938667 -0.195289 0.127335 0.219027 -0.28182 0.0787308 0.128639 0.297976 0.18648 -0.291371 0.44389 0.000819928 0.00200308 0.0284804 -0.40239 -0.0418786 -0.362219 0.336385 -0.20194 0.0387956 0.0105715 -0.503604 -0.108214 -0.0999965 -0.494961 0.0149549 -0.142449 0.196824 -0.153591 0.126113 -0.204506 0.220622 -0.213053 0.0987093 -0.0653783 -0.0444208 -0.287223 0.118346 -0.511428 -0.0624553 0.21734 0.113435 0.288398 -0.435662 -0.267715 -0.291211 0.0995353 0.00336187 0.0782834 -0.00444841 -0.431708 -0.472916 0.369859 0.296376 0.390869 0.427048 0.251159 0.111511 -0.390889 -0.0187919 0.108347 -0.201044 0.302893 -0.102099 0.148438 0.190251 -0.0688001 0.195816 -0.389554 -0.280321 0.417575 0.208841 0.105936 0.149063 -0.36476 0.415051 -0.483164 -0.394399 -0.502276 -0.373973 -0.399094 -0.387883 -0.186539 -0.00103267 -0.270096 0.00294616 -0.0670506 -0.482134 0.0262017 -0.515062 0.182179 0.299797 0.39995 -0.414826 -0.303099 -0.316605 -0.219103 -0.34944 0.301499 -0.497066 0.301977 -0.0938496 -0.309036 -0.00902617 -0.11881 -0.350767 -0.168555 0.117758 0.00540071 -0.277794 0.458494 -0.201472 -0.359439 -0.485882 0.0964083 0.337341 -0.486893 -0.183147 -0.493172 0.404781 0.467128 -0.543671 0.312739 -0.0931212 -0.132531 0.226503 0.0848159 -0.369957 -0.385238 -0.508762 0.210788 -0.280779 -0.303582 -0.402141 0.327939 -0.0975719 0.435115 -0.281592 -0.16999 -0.540796 0.41909 0.0496466 0.0911488 -0.0513566 0.400007 -0.210943 0.0905513 -0.179913 -0.194035 0.204215 -0.382773 0.0290865 -0.488214 -0.269841 -0.279583 0.390373 0.420972 -0.483528 -0.218299 0.205646 -0.274438 -0.478306 -0.397568 0.426141 0.279945 0.170631 -0.189501 0.435716 -0.475381 0.116523 -0.396065 -0.344243 0.215954 0.298721 0.119882 0.403717 -0.301674 -0.383771 -0.293105 0.109376 -0.303563 0.100341 0.101544 -0.0901151 -0.194041 0.325586 0.414075 -0.0278646 -0.449641 -0.0438698 -0.00248177 0.421109 0.0164646 0.120588 0.119517 -0.147951 -0.483288 0.232394 0.431045 0.496638 0.410708 -0.0330617 -0.075713 0.0447008 0.410083 -0.0987772 0.216391 -0.293842 -0.510154 0.247182 -0.292356 -0.173663 -0.106413 0.397388 -0.265456 -0.0987952 0.183709 -0.178385 0.432204 -0.464893 0.456824 -0.215265 0.251424 0.0515357 0.062864 -0.434395 -0.0941369 0.428742 0.203964 -0.238009 -0.0830073 -0.369435 0.453421 0.245324 0.214925 -0.0638807 0.201367 -0.20137 0.119923 -0.188684 0.0960549 0.409909 -0.493146 0.421764 -0.364472 -0.00389086 0.232698 -0.490471 0.0168449 -0.27138 0.323669 -0.194708 0.313433 -0.486933 -0.37816 0.0186661 -0.383479 0.0865939 0.0253454 -0.474233 -0.478642 -0.49368 -0.180454 -0.400752 -0.500332 0.28691 -0.199448 -0.0952033 -0.395078 -0.00418375 0.263112 0.307141 0.410667 0.11594 -0.016758 -0.204272 0.0032365 -0.0330745 -0.194938 -0.0871535 -0.283015 0.296261 0.115567 0.209055 -0.0985382 -0.489406 0.425139 -0.102614 0.00812768 -0.397435 0.215007 -0.256766 0.339173 -0.277422 0.182448 0.398721 0.18504 0.293534 -0.0013791 0.309553 -0.313696 -0.472153 0.403188 -0.551181 -0.300634 -0.199508 -0.244289 -0.39509 0.4426 -0.122088 -0.488708 0.180261 -0.25705 -0.451648 -0.420633 -0.504021 -0.300623 -0.406707 0.294655 0.25912 -0.00116695 -0.502978 -0.518804 0.417859 0.292886 0.16499 0.0934322 -0.510305 -0.194625 -0.209295 -0.204989 -0.542325 -0.0651718 0.125763 0.0962685 -0.0984445 -0.367447 -0.314907 -0.425617 0.442412 -0.390597 -0.171533 0.065972 0.23368 0.290833 -0.25559 -0.202734 -0.304564 0.194299 -0.48126 -0.0977987 -0.422584 -0.318735 -0.27428 0.23421 -0.00675921 -0.416685 -0.436557 -0.292259 0.103598 -0.306877 0.0974074 -0.0607237 0.365667 0.297138 -0.526474 -0.317998 0.274753 0.283041 0.0888561 -0.00817735 0.34445 -0.116117 -0.455405 -0.31208 -0.30035 -0.395078 -0.366933 0.412182 0.259582 0.0965034 0.100312 0.0236545 0.105191 -0.284621 0.0378555 0.342176 0.116974 -0.487123 0.0186595 -0.469465 -0.210607 0.449098 -0.498029 0.278274 -0.181834 0.163976 0.144211 0.210848 -0.288705 0.189311 -0.297863 -0.177503 -0.0989369 -0.375606 0.127666 0.287762 -0.402491 -0.481088 -0.000930546 0.200854 0.292663 0.115871 0.424942 -0.111073 -0.393491 -0.51881 -0.365271 -0.486339 0.215392 0.00731852 0.1954 -0.0629656 -0.291879 -0.298175 -0.110881 -0.0989753 0.210415 0.395504 -0.199817 0.0609784 -0.157095 -0.111452 -0.146033 0.409967 0.00278172 -0.00751503 0.174009 -0.536709 0.119806 0.0896357 0.317951 -0.183905 0.255483 0.297833 0.298512 -0.093627 0.38714 -0.23082 0.300838 0.278555 -0.184909 0.0208331 0.357663 -0.498247 -0.222461 -0.0854452 0.101349 -0.430173 0.399083 0.325364 0.400009 0.300982 -0.410234 -0.0780795 -0.297277 -0.300183 0.310013 -0.408 0.481883 -0.347329 -0.397419 0.296192 -0.182405 0.406897 0.431471 0.136731 -0.504754 0.399219 0.302218 0.0810519 -0.273721 -0.306236 -0.0923412 0.379968 0.314521 0.306091 -0.409459 0.382944 0.305163 0.0396099 -0.410454 0.103939 0.216771 0.316819 0.254269 0.0114022 -0.169967 0.101779 0.20155 0.0118718 -0.144205 0.407206 -0.401203 -0.00932413 0.0901936 -0.230156 0.346384 0.0130777 0.196244 -0.000330857 -0.147145 -0.0621162 -0.178941 -0.483195 -0.0969584 0.111082 0.30162 0.170699 -0.100762 0.173928 0.407106 -0.467868 0.0100436 0.0995533 0.278267 0.303307 0.248227 0.121168 -0.53638 0.385898 0.0767777 -0.500731 -0.321905 -0.202669 -0.312559 -0.205054 0.531864 0.199882 0.201026 -0.290398 -0.498898 -0.355891 -0.296061 0.346838 0.426448 -0.297341 -0.538653 0.409143 0.109033 -0.511194 0.123966 -0.306577 -0.143342 -0.361239 -0.303006 -0.385562 0.108294 -0.500067 -0.364051 0.419281 -0.503498 0.104948 0.313481 -0.311 -0.388137 -0.0597029 -0.476575 0.00442749 0.232154 -0.157787 -0.00317191 0.294844 0.238041 0.176311 -0.487616 -0.175733 -0.318688 -0.305413 -0.507209 0.400783 0.311374 0.339617 0.309238 -0.100354 -0.105137 0.000288326 0.152502 -0.298521 0.0926354 -0.102894 0.0404353 -0.311683 0.398866 -0.00890799 -0.425158 -0.49622 -0.397863 0.275023 0.306036 -0.514947 0.298457 -0.492568 0.403738 0.319343 0.157339 -0.311599 -0.00857829 -0.0161842 -0.323966 0.0421225 -0.495978 0.205796 -0.182645 0.0820471 -0.090308 -0.399861 0.0864047 -0.111711 0.108226 0.198441 -0.108461 -0.349485 0.106039 0.384333 -0.455918 0.00656896 0.0929842 -0.00664711 -0.374403 -0.155417 0.0440843 0.459107 -0.200833 0.423133 -0.486533 -0.40875 0.00708152 -0.412738 0.0205004 0.409137 -0.0865459 0.202431 0.401657 0.289914 0.401997 -0.310017 -0.00194357 0.0618901 -0.110237 -0.199591 -0.298957 -0.25322 0.188214 0.399505 -0.510108 -0.520571 -0.273474 0.397078 -0.207608 -0.0088895 0.178287 -0.498181 0.20304 0.358974 -0.333207 0.0663618 -0.254841 -0.300527 -0.457309 -0.0931986 0.334695 0.395153 -0.187709 -0.28317 -0.0635996 0.197575 -0.51037 -0.0103369 -0.427885 0.399193 0.132288 -0.273008 -0.508487 -0.188595 -0.470844 -0.460186 0.435357 0.310333 0.198262 -0.40702 -0.298609 -0.275719 -0.194868 -0.418047 -0.281924 0.266124 -0.0259446 -0.296236 -0.276961 0.116541 0.30341 -0.434761 -0.403172 0.454045 0.0784426 -0.300085 0.0151812 0.103163 -0.0530388 0.309296 -0.315595 -0.196659 0.393623 0.274846 0.191046 -0.490052 0.398564 -0.302394 0.165186 0.0983612 -0.552962 -0.288433 0.106108 0.250827 0.000559443 0.0531584 -0.107717 -0.488952 0.194383 0.208745 -0.0312246 0.132363 -0.017665 0.401019 -0.284457 -0.283558 -0.337576 0.201637 -0.260911 -0.275817 0.243705 -0.512157 0.0203333 -0.404326 -0.0887073 -0.489185 0.0231751 -0.381571 0.194033 -0.00742013 -0.071888 -0.00764338 0.0378499 -0.132147 0.179095 0.110275 -0.40828 0.316491 -0.21141 -0.190033 -0.21187 0.0136565 0.363778 0.120679 -0.347543 -0.305123 -0.42581 -0.00365735 -0.0466588 0.246338 0.408013 -0.512594 -0.0860705 0.098179 -0.504551 -0.502204 -0.41096 0.00882562 -0.290361 -0.395308 -0.474627 0.294816 -0.285398 0.418569 0.40327 0.391553 -0.347867 -0.535629 0.205208 0.295771 -0.169084 0.399098 -0.0211575 0.23664 0.195171 0.398906 0.418492 -0.408428 0.0407722 0.0942491 -0.365361 0.137915 -0.327403 0.219989 -0.00392926 0.192332 -0.396347 -0.368107 -0.417447 -0.376297 0.215434 -0.00672979 -0.395202 0.048048 0.101665 -0.359236 0.00689932 0.408019 0.324971 0.195387 -0.225434 0.373478 0.311126 -0.022601 -0.455128 -0.0206344 0.353806 -0.117473 0.152677 0.292284 0.283105 0.225542 -0.305211 -0.271616 -0.119364 -0.0948645 -0.173476 -0.197423 -0.509152 -0.497385 0.139762 0.000555185 -0.51982 -0.0959943 0.38169 0.192037 0.222423 0.313834 0.207998 -0.00106089 0.0939197 -0.314925 -0.375035 -0.313456 -0.455094 0.399867 -0.532308 -0.497641 -0.102016 -0.306766 -0.298566 -0.28186 -0.117785 -0.397303 0.45638 0.446633 -0.419226 -0.0687395 -0.297447 -0.0907817 -0.496222 0.20556 -0.00361923 0.040388 -0.366903 -0.19352 -0.0915242 -0.295695 -0.0896473 -0.381863 0.205661 -0.446753 0.341312 -0.306725 -0.391736 0.113011 -0.217634 0.184542 0.0188011 0.105764 0.288686 -0.0989018 -0.201707 0.187494 0.127799 -0.087301 -0.00954306 0.0996336 0.242076 0.287411 0.369531 0.390527 -0.109069 0.00102647 -0.0144988 -0.495061 -0.370238 -0.529242 -0.387055 -0.304793 0.195947 -0.205834 -0.0859627 0.114951 -0.00329651 0.202071 -0.291302 0.00793534 -0.210128 0.020008 -0.225763 -0.300362 0.0786893 0.0223806 0.00947739 0.407816 -0.0952789 -0.199709 0.4024 -0.422434 -0.470862 0.319432 0.311541 0.110178 -0.503265 -0.378769 0.297007 -0.392954 -0.534918 -0.4993 0.221536 -0.374035 0.391542 0.10631 -0.199494 0.406098 0.230278 -0.204415 0.00273996 0.304853 0.404172 0.0795289 -0.21202 -0.533883 -0.199161 0.102046 -0.506083 -0.188749 0.417081 -0.181188 -0.290714 0.395035 0.219024 -0.393453 -0.5143 0.392351 -0.521782 0.203256 0.401742 -0.277854 0.404216 0.118759 0.314012 -0.186812 0.314069 0.407756 0.260867 0.205315 0.388284 0.303555 -0.19975 0.203528 -0.310586 0.178813 -0.199319 -0.297613 -0.391253 0.39421 -0.396923 0.304469 -0.368588 -0.457432 -0.0975063 0.391553 0.412328 -0.481813 -0.304088 -0.290845 0.204194 -0.501596 0.202159 -0.431391 -0.489918 -0.142296 0.385365 -0.141913 0.298808 -0.497673 -0.390054 -0.48522 -0.15594 0.113856 0.308565 -0.0996733 -0.299192 0.399574 -0.517863 0.128107 -0.0965599 -0.00224984 0.059343 -0.279682 -0.311882 0.139471 -0.103528 -0.500421 0.111373 0.307215 -0.0945706 0.0391667 -0.358695 0.290202 -0.186544 0.26752 -0.201617 0.108298 0.0192138 -0.0281514 0.123324 -0.486966 -0.183622 0.0832356 0.0286446 0.100254 -0.40012 0.185083 0.200276 -0.104601 0.397933 0.296401 0.345268 -0.0850292 0.376234 -0.50103 -0.39226 0.198795 -0.508848 -0.269598 -0.102255 -0.0517598 0.191423 -0.296025 -0.308161 0.193734 0.204127 -0.101098 -0.193927 -0.40133 -0.466349 -0.292771 0.300161 0.164725 -0.21786 0.00154944 0.297183 0.235696 0.301915 0.300484 -0.525482 -0.208038 -0.285682 0.312051 0.100769 -0.0877909 -0.114753 -0.495971 -0.0657483 -0.392007 -0.326117 -0.521123 -0.322381 0.0228692 -0.199789 0.0272561 0.160793 -0.20186 -0.00536729 -0.00153954 -0.498705 -0.200685 -0.357089 0.210147 -0.0921273 -0.122295 -0.113611 0.00773089 -0.484107 -0.0452044 0.407098 0.403712 -0.379751 0.101254 0.390993 -0.302799 0.013747 -0.503175 0.11182 -0.47903 -0.492626 -0.112288 0.171656 0.0926231 -0.00341566 -0.126963 0.178099 0.105789 0.124068 -0.392322 -0.271762 0.186545 0.174904 0.29015 -0.111554 -0.489201 0.102956 0.300472 0.428747 0.297809 -0.490193 -0.493968 0.300209 -0.474357 -0.498046 -0.28547 -0.0550956 0.223721 -0.0364698 -0.195349 -0.0829402 -0.296614 -0.171089 0.397598 -0.207041 -0.0140155 -0.201666 0.146162 -0.288358 0.198701 -0.393639 -0.384838 -0.203799 0.423103 0.113354 0.404547 -0.496882 -0.395129 0.199858 0.105753 -0.223595 -0.196117 -0.291583 0.0655718 -0.0849993 0.306891 -0.403847 0.405302 -0.311702 -0.388462 0.306688 0.400983 -0.207561 0.2812 -0.0166941 -0.296552 0.0987203 0.303205 -0.282872 0.200598 0.19187 -0.42173 0.288113 -0.522372 -0.101669 0.1895 -0.193125 -0.502202 0.0904393 -0.512584 -0.317 0.404621 -0.500334 0.127612 -0.304797 0.312944 0.398798 0.202631 -0.200048 -0.0626172 0.298036 -0.103094 0.0960347 0.309114 -0.399817 -0.298352 -0.39628 0.10799 -0.102187 0.419806 -0.305474 -0.299002 -0.27725 -0.457609 0.200218 0.304302 0.107768 -0.348796 0.401821 -0.346819 0.130057 0.423691 0.354857 -0.386888 -0.500142 0.186032 0.0141584 -0.397704 0.40466 0.213971 0.40809 -0.113281 -0.00152436 0.116398 0.295274 0.404469 0.314192 0.30643 -0.401804 -0.0435423 0.276314 -0.208035 -0.526666 0.461859 -0.397899 -0.258709 0.11486 0.0974215 0.102703 0.413768 0.332778 0.103594 -0.400005 -0.297286 0.299021 -0.433002 0.349734 0.0950954 -0.439917 0.282803 0.385833 -0.153296 -0.199704 -0.00272919 -0.10432 -0.399146 0.0908844 -0.297981 0.400172 0.325961 -0.389618 0.200663 0.416342 0.302129 -0.495157 0.0700709 -0.091344 -0.195593 0.208688 0.00376026 0.114761 0.403511 -0.0963049 -0.341389 0.392651 -0.0746551 0.380974 -0.160344 -0.185332 0.199265 -0.212905 -0.502635 -0.0973762 -0.0710826 0.210396 -0.498231 -0.444512 -0.400146 -0.306355 -0.493506 -0.308397 0.152087 0.0846785 0.0128371 0.0104779 -0.202071 -0.108568 -0.478301 0.00565089 0.00814833 -0.187011 -0.520396 0.0384535 -0.00986897 -0.0993349 -0.488975 -0.193289 -0.408375 0.204874 0.209174 -0.49292 0.189667 -0.4084 -0.199727 -0.279643 -0.134713 -0.23855 -0.30266 0.394753 0.104343 0.447771 0.100105 -0.556194 0.0242893 0.303723 -0.00353665 0.0949882 0.107661 0.290458 -0.307097 -0.50379 -0.0942616 -0.394583 -0.097951 0.305152 0.243985 -0.5124 0.196418 0.0956326 -0.0287564 -0.00916279 -0.485125 -0.216365 0.0056628 0.34635 -0.288109 0.0978229 -0.407792 -0.0915034 -0.121139 -0.208036 -0.497608 0.149228 0.223351 -0.39779 -0.0718811 -0.202143 -0.50432 0.0953801 -0.489992 0.286134 -0.299345 -0.204534 0.121218 -0.501135 -0.504446 0.390679 -0.0930391 -0.422104 -0.19891 -0.537878 -0.308955 -0.419181 -0.205593 0.384825 0.00625906 0.300397 0.407082 0.107027 0.262672 -0.022924 0.296984 -0.270246 0.131031 -0.356147 -0.289477 0.00733416 0.0925763 -0.098487 0.13118 -0.0713878 0.257475 0.223719 0.402376 -0.0985014 -0.337026 0.00240759 0.183225 -0.203184 -0.0908838 -0.012791 0.257612 0.104238 -0.0106338 0.258004 -0.494677 -0.244878 -0.0920577 -0.0782164 -0.303534 0.019149 -0.102588 0.358554 0.0853277 -0.118349 -0.521919 -0.0704068 -0.105335 -0.095883 -0.394606 0.431661 0.300836 -0.303856 -0.0988787 -0.297192 -0.0149085 0.373435 -0.490499 -0.501076 0.432977 -0.0958949 0.403288 -0.00765728 0.11093 0.198427 0.404602 -0.38836 0.400058 0.0624917 -0.289865 -0.00169888 -0.509427 0.320778 0.0949952 -0.390926 -0.165874 0.234476 0.372822 0.283834 -0.0575578 0.0087174 0.404262 -0.199684 -0.30101 0.307079 -0.0414434 -0.501045 -0.195719 0.201733 -0.0975424 -0.19066 0.397894 -0.208012 -0.494125 -0.39754 -0.295901 -0.181274 0.189349 0.325019 -0.18003 -0.00382789 -0.421337 -0.477201 0.0846491 0.213706 0.287684 0.121326 -0.12052 -0.18746 -0.498728 0.263133 0.0700008 -0.186894 -0.13601 -0.465556 0.101664 0.209926 -0.495455 0.00514266 0.0347502 -0.395271 0.102489 -0.323467 -0.379302 -0.204131 0.0795646 0.110758 0.405942 0.0067443 -0.0979805 -0.0993706 -0.504 -0.488016 0.02735 -0.392466 -0.257501 -0.385516 0.108361 0.231945 -0.202923 -0.498124 0.0956831 0.158574 0.401943 -0.308554 -0.395588 -0.498205 -0.489715 -0.0900492 0.00601356 0.0456798 0.126701 -0.466771 -0.313385 0.306486 0.398197 -0.348192 0.30148 -0.183256 -0.193879 -0.291647 -0.495881 -0.186289 0.388155 -0.158428 -0.476598 -0.299923 0.00310604 -0.0285498 0.317342 -0.399046 0.188086 -0.0986602 0.319822 -0.523449 0.413465 -0.0286094 -0.100862 -0.120945 0.292202 0.406294 0.0972039 0.203389 0.407088 0.363719 0.31568 -0.298698 -0.182299 -0.198462 0.408203 0.279684 0.0944502 0.0995489 0.138471 0.109649 0.0867091 -0.179176 -0.51893 0.104712 0.00907383 -0.411364 -0.077486 -0.176358 -0.294635 0.400304 0.280062 -0.184723 -0.241291 0.234674 -0.295961 -0.104647 -0.204643 -0.501659 -0.102386 0.39432 0.448745 0.404765 -0.290566 0.108102 -0.196335 -0.507325 -0.236125 -0.496378 -0.3939 -0.363627 -0.522451 0.197667 -0.399559 -0.233458 0.232492 -0.191025 -0.196528 -0.260889 0.21199 0.225234 -0.199348 -0.324174 0.0024816 0.30512 0.387273 0.310612 0.0702409 0.0574542 -0.0120089 0.134611 -0.490299 0.00110361 -0.194013 0.327991 -0.311516 0.291714 -0.488667 0.317606 -0.09705 -0.099023 0.310034 0.298708 0.0960023 -0.200601 -0.225922 -0.00555194 -0.514197 -0.475428 -0.403342 0.0351678 0.402887 -0.225 0.10208 -0.492122 -0.420932 -0.399778 -0.379405 -0.290566 -0.0992494 -0.00673159 0.0133189 -0.207475 -0.311837 0.141279 -0.0120306 -0.509164 -0.276104 -0.497001 -0.317088 -0.5005 0.000764523 -0.284093 -0.0555618 0.296767 0.0990474 -0.204979 0.185092 -0.178286 0.398449 -0.403261 0.299931 -0.462107 -0.199706 -0.136826 -0.294716 0.404391 0.228787 0.294226 -0.281537 -0.283649 -0.47165 -0.495479 0.422629 -0.399399 0.39416 -0.509209 0.109321 0.022999 0.00203168 -0.200736 0.0463861 -0.35849 0.0940932 -0.477557 0.208457 -0.101194 0.296344 0.301498 -0.0150379 -0.0843379 -0.509088 -0.0970959 0.416856 -0.50284 0.285041 -0.490029 -0.0979247 0.237045 -0.407112 0.202215 0.106306 0.401785 0.420892 -0.427934 -0.487507 -0.538001 0.22056 -0.0909706 -0.497659 -0.313528 -0.169794 -0.193039 0.305371 0.54665 0.216802 0.199049 0.00135996 -0.199509 0.25073 -0.49787 0.42045 0.21639 -0.225319 -0.30658 -0.496997 -0.0735845 0.292115 -0.263162 -0.00164007 0.423712 0.0888943 -0.404739 -0.489926 -0.49392 -0.299457 -0.0756397 -0.081181 0.395137 0.109306 0.297513 0.301449 -0.0928245 -0.380079 0.273772 -0.00336493 -0.489512 -0.282739 -0.392587 -0.202021 -0.178931 0.103269 0.398795 -0.107336 0.104157 0.3139 0.203111 0.30795 -0.517288 0.125523 0.099251 -0.399192 0.200868 -0.294659 0.224001 -0.10037 0.416162 -0.425959 0.291517 -0.00651929 0.0199958 -0.29309 -0.492364 -0.308917 -0.407006 -0.29774 -0.352255 -0.181794 -0.297501 -0.414133 -0.313613 0.103317 0.311567 -0.428521 0.401722 0.103899 -0.280182 -0.394959 0.408191 -0.380877 -0.498298 -0.408511 0.0138549 0.00641894 0.183088 -0.490357 -0.301929 -0.399824 -0.257329 -0.229702 0.0149871 0.386812 -0.304879 0.0652102 -0.394882 0.234837 -0.473297 -0.353538 0.00762802 0.0148006 0.20012 -0.0457333 0.429878 -0.49524 -0.203111 0.205917 -0.185624 -0.29675 0.102439 -0.281229 0.40342 0.268673 -0.400466 -0.0987315 0.101094 -0.198527 0.292378 0.123901 0.152331 -0.169983 -0.197992 0.326709 -0.483224 -0.20216 -0.391617 -0.299248 0.420849 0.115708 -0.304306 0.199879 0.109367 -0.222943 0.209808 -0.179062 -0.266278 0.00822428 -0.00601354 0.136916 -0.125309 -0.216167 0.305905 -0.298584 -0.349035 -0.398974 0.31503 -0.491152 0.284915 0.10013 -0.0127887 0.217986 -0.205977 -0.506281 0.113558 -0.00368296 0.0958834 0.209412 -0.376866 0.414528 -0.0889732 -0.184906 0.202284 0.07519 0.128951 0.436313 -0.396549 0.399963 -0.414517 0.0877008 0.096848 -0.331036 -0.379614 -0.0809177 0.328518 -0.0922201 -0.485973 0.208231 -0.513901 0.242131 -0.494833 0.301048 -0.0238078 -0.224014 -0.502725 -0.307398 -0.196114 0.197703 -0.326769 0.0971676 0.291923 -0.218907 0.203255 -0.0273037 0.317947 -0.376123 0.18804 0.00368755 -0.108009 -0.260989 -0.027225 -0.189678 -0.402683 0.0538318 -0.115622 0.101054 0.209716 -0.489176 0.0110797 0.380965 0.407788 0.301389 -0.296142 -0.104022 -0.488479 0.00686102 0.452947 -0.158193 0.102521 -0.0540039 0.120246 -0.390699 0.413697 0.0485748 -0.298979 0.296476 -0.497978 -0.0574048 0.00737361 -0.303873 -0.186217 -0.286883 0.241566 0.254931 -0.209837 0.390814 -0.278743 -0.362124 -0.183066 0.201217 -0.193841 0.282436 -0.395414 -0.179039 -0.291136 0.404311 -0.302481 0.00450164 0.116389 0.108186 0.43044 0.300417 -0.393065 -0.296804 0.0984775 0.010399 -0.218558 0.449874 -0.372793 0.0994664 -0.26604 0.225818 0.313301 -0.1749 0.375086 0.194663 0.109335 0.108334 0.404516 -0.503279 -0.0875868 -0.170396 -0.055556 0.207228 -0.398614 -0.301301 -0.29966 0.380974 -0.413699 0.192356 -0.483856 -0.287567 -0.0981388 -0.0823583 0.401616 -0.385978 -0.296608 0.410074 0.00369269 -0.542809 -0.399764 -0.185054 0.0677584 -0.390594 0.393424 0.392976 0.420936 -0.490755 0.00667473 0.407382 -0.17851 0.391235 -0.524256 -0.11364 0.0464338 0.204278 -0.300767 0.402657 0.221102 0.00142822 0.417933 0.00211677 0.431885 -0.193488 0.252775 -0.394833 0.292088 -0.0991756 -0.302354 0.450364 0.414983 -0.299733 0.438782 0.103052 0.40876 0.396096 0.161652 0.0988504 0.396157 0.197161 -0.149974 0.023879 0.215841 0.373676 -0.0520193 -0.057192 0.204238 0.187339 0.0159096 -0.298352 -0.199524 0.201123 0.106224 0.0195321 -0.290853 0.315386 -0.0864463 -0.199538 -0.191467 -0.397993 0.120699 -0.401579 -0.411716 -0.500744 0.319995 0.0999738 -0.412899 0.300994 -0.191586 -0.0856933 -0.0222284 -0.387532 -0.4949 0.116025 -0.194036 0.2744 0.320253 -0.300571 0.115686 0.386113 0.186567 -0.262088 0.101891 -0.499608 -0.370118 -0.315151 -0.223679 -0.103044 -0.172205 -0.392561 -0.285662 0.176224 -0.219718 -0.0947583 -0.0107326 -0.212703 -0.385377 0.203848 -0.321278 -0.198854 0.325019 0.210345 -0.216486 0.436391 -0.224211 -0.200627 -0.187379 -0.391089 -0.0130185 -0.461185 0.315435 0.0799182 0.120134 -0.301913 0.401386 -0.250477 0.00106051 0.0677691 0.33549 -0.470102 -0.429763 0.426943 -0.509481 0.396925 0.483421 0.201279 -0.371534 -0.499291 0.196462 -0.51506 -0.387651 -0.381933 -0.107803 -0.441045 -0.406889 0.437699 -0.484706 0.0991174 0.393206 -0.152279 -0.498733 0.210973 0.457845 0.215527 -0.10464 -0.400191 -0.100824 -0.299727 -0.183164 0.315713 0.109549 -0.293736 -0.187864 -0.392683 0.407082 0.0120308 0.0868143 0.314094 0.439002 -0.202977 -0.100225 0.165213 -0.190684 -0.380183 -0.491064 0.205907 -0.52353 0.256977 -0.407536 -0.403383 -0.281996 -0.423462 -0.106596 0.198964 0.321246 0.286578 0.106767 0.208443 0.313659 0.389071 -0.000413393 -0.120701 -0.408201 0.287575 -0.402797 0.412218 -0.394749 -0.306278 -0.10486 -0.0518958 0.49683 0.200906 0.0816194 -0.164701 0.298399 -0.20539 -0.174255 0.36069 -0.204084 0.200444 -0.120963 -0.0894242 0.0139737 0.113956 0.287815 0.400225 -0.51439 0.18262 0.172874 